{"learner":{"attributes":{"best_iteration":"144","best_score":"0.02192665488617206"},"feature_names":["poultry_density","max_temp_q1","max_temp_q2","max_temp_q3","max_temp_q4","min_temp_q1","min_temp_q2","min_temp_q3","min_temp_q4","mean_temp_q1","mean_temp_q2","mean_temp_q3","mean_temp_q4","total_rain_q1","total_rain_q2","total_rain_q3","total_rain_q4","Loading","Unloading","Pop_total","F_TOTAL","F_Y_15-64","F_Y_GE65","F_Y_LT15","GDP_Annual","M_TOTAL","M_Y_GE65","M_Y_LT15","M_Y15-64","ndvi_q1","ndvi_q2","ndvi_q3","ndvi_q4","ndwi_q1","ndwi_q2","ndwi_q3","ndwi_q4","bio1","bio2","bio3","bio4","bio5","bio6","bio7","bio8","bio9","bio10","bio11","bio12","bio13","bio14","bio15","bio16","bio17","bio18","bio19","lai_hv_q1","lai_hv_q2","lai_lv_q1","lai_lv_q2","weight"],"feature_types":["float","float","float","float","float","float","float","float","float","float","float","float","float","float","float","float","float","int","int","int","int","int","int","int","float","int","int","int","int","float","float","float","float","float","float","float","float","float","float","float","float","float","float","float","float","float","float","float","float","float","float","float","float","float","float","float","float","float","float","float","float"],"gradient_booster":{"model":{"gbtree_model_param":{"num_parallel_tree":"1","num_trees":"295"},"iteration_indptr":[0,1,2,3,4,5,6,7,8,9,10,11,12,13,14,15,16,17,18,19,20,21,22,23,24,25,26,27,28,29,30,31,32,33,34,35,36,37,38,39,40,41,42,43,44,45,46,47,48,49,50,51,52,53,54,55,56,57,58,59,60,61,62,63,64,65,66,67,68,69,70,71,72,73,74,75,76,77,78,79,80,81,82,83,84,85,86,87,88,89,90,91,92,93,94,95,96,97,98,99,100,101,102,103,104,105,106,107,108,109,110,111,112,113,114,115,116,117,118,119,120,121,122,123,124,125,126,127,128,129,130,131,132,133,134,135,136,137,138,139,140,141,142,143,144,145,146,147,148,149,150,151,152,153,154,155,156,157,158,159,160,161,162,163,164,165,166,167,168,169,170,171,172,173,174,175,176,177,178,179,180,181,182,183,184,185,186,187,188,189,190,191,192,193,194,195,196,197,198,199,200,201,202,203,204,205,206,207,208,209,210,211,212,213,214,215,216,217,218,219,220,221,222,223,224,225,226,227,228,229,230,231,232,233,234,235,236,237,238,239,240,241,242,243,244,245,246,247,248,249,250,251,252,253,254,255,256,257,258,259,260,261,262,263,264,265,266,267,268,269,270,271,272,273,274,275,276,277,278,279,280,281,282,283,284,285,286,287,288,289,290,291,292,293,294,295],"tree_info":[0,0,0,0,0,0,0,0,0,0,0,0,0,0,0,0,0,0,0,0,0,0,0,0,0,0,0,0,0,0,0,0,0,0,0,0,0,0,0,0,0,0,0,0,0,0,0,0,0,0,0,0,0,0,0,0,0,0,0,0,0,0,0,0,0,0,0,0,0,0,0,0,0,0,0,0,0,0,0,0,0,0,0,0,0,0,0,0,0,0,0,0,0,0,0,0,0,0,0,0,0,0,0,0,0,0,0,0,0,0,0,0,0,0,0,0,0,0,0,0,0,0,0,0,0,0,0,0,0,0,0,0,0,0,0,0,0,0,0,0,0,0,0,0,0,0,0,0,0,0,0,0,0,0,0,0,0,0,0,0,0,0,0,0,0,0,0,0,0,0,0,0,0,0,0,0,0,0,0,0,0,0,0,0,0,0,0,0,0,0,0,0,0,0,0,0,0,0,0,0,0,0,0,0,0,0,0,0,0,0,0,0,0,0,0,0,0,0,0,0,0,0,0,0,0,0,0,0,0,0,0,0,0,0,0,0,0,0,0,0,0,0,0,0,0,0,0,0,0,0,0,0,0,0,0,0,0,0,0,0,0,0,0,0,0,0,0,0,0,0,0,0,0,0,0,0,0,0,0,0,0,0,0,0,0,0,0,0,0,0,0,0,0,0,0],"trees":[{"base_weights":[1.359421E-3,1E0,-9.8138414E-2,-4.872583E-1,9.8138414E-2,4.9066216E-1,-1E0,-1E0,1E0,-1E0,1E0,-1E0,9.415097E-1,1E0,-5.2458405E-1,-1E0,4.6008952E-2,2.9473467E-2,9.8138414E-2,-9.8138414E-2,7.95985E-2,4.326033E-2,9.8138414E-2,9.8138414E-2,-9.8138414E-2,9.3632035E-2,-9.8138414E-2,-9.8138414E-2,9.895372E-3],"categories":[],"categories_nodes":[],"categories_segments":[],"categories_sizes":[],"default_left":[0,1,0,0,0,0,0,0,0,0,0,0,0,0,0,0,0,0,0,0,0,0,0,0,0,0,0,0,0],"id":0,"left_children":[1,3,-1,5,-1,7,9,11,13,15,17,19,21,23,25,27,-1,-1,-1,-1,-1,-1,-1,-1,-1,-1,-1,-1,-1],"loss_changes":[2.3422209E4,1.4641113E3,0E0,6.008369E2,0E0,3.3364545E2,1.1065338E2,2.9917923E1,1.1895993E2,7.800232E0,1.2458801E0,2.0513657E1,9.7922707E-1,4.174283E1,4.1337524E1,6.794983E0,0E0,0E0,0E0,0E0,0E0,0E0,0E0,0E0,0E0,0E0,0E0,0E0,0E0],"parents":[2147483647,0,0,1,1,3,3,5,5,6,6,7,7,8,8,9,9,10,10,11,11,12,12,13,13,14,14,15,15],"right_children":[2,4,-1,6,-1,8,10,12,14,16,18,20,22,24,26,28,-1,-1,-1,-1,-1,-1,-1,-1,-1,-1,-1,-1,-1],"split_conditions":[1.16596315E-2,1E0,-9.8138414E-2,2.4476E4,9.8138414E-2,1.0134774E1,3.3677856E1,2.4833333E-1,2.1492512E0,2.7841E4,1.5688375E0,2.5109142E1,2.55657E3,2.66E1,-7.387097E-1,2.3275438E1,4.6008952E-2,2.9473467E-2,9.8138414E-2,-9.8138414E-2,7.95985E-2,4.326033E-2,9.8138414E-2,9.8138414E-2,-9.8138414E-2,9.3632035E-2,-9.8138414E-2,-9.8138414E-2,9.895372E-3],"split_indices":[60,0,0,28,0,45,43,33,57,18,56,4,24,50,6,44,0,0,0,0,0,0,0,0,0,0,0,0,0],"split_type":[0,0,0,0,0,0,0,0,0,0,0,0,0,0,0,0,0,0,0,0,0,0,0,0,0,0,0,0,0],"sum_hessian":[8.979913E3,4.9299155E3,4.049998E3,6.6170984E2,4.2682056E3,3.4832404E2,3.1338577E2,9.19493E1,2.5637473E2,2.9553818E2,1.7847609E1,8.418654E1,7.762766E0,2.0539575E2,5.0978977E1,2.9212714E2,3.411037E0,3.661037E0,1.4186571E1,7.811446E1,6.0720744E0,4.6313825E0,3.1313834E0,2.0014577E2,5.2499976E0,1.3584841E1,3.739414E1,2.8674576E2,5.381382E0],"tree_param":{"num_deleted":"0","num_feature":"61","num_nodes":"29","size_leaf_vector":"1"}},{"base_weights":[9.417246E-3,-1E0,5.453043E-1,-1E0,7.972965E-1,-3.8248733E-2,1E0,-1E0,-2.4026604E-1,-1E0,1E0,-4.9407017E-1,1E0,1E0,-6.6977334E-1,-1E0,7.0779073E-1,1E0,-1E0,-9.8138414E-2,-1.0979517E-2,1E0,-1.4764778E-1,3.643819E-1,-8.764952E-1,1E0,-9.8138414E-2,1E0,-1E0,-1E0,6.408152E-1,-1E0,9.0870076E-1,-9.8138414E-2,1E0,-9.8138414E-2,1E0,-1E0,9.8138414E-2,-2.3766825E-2,1E0,-9.8138414E-2,9.8138414E-2,-5.0512433E-1,9.497346E-1,-1E0,1.0945839E-1,1.318716E-3,1E0,-9.1415066E-1,1E0,9.059005E-1,-1E0,4.190488E-2,-1E0,1E0,-9.8138414E-2,-9.8138414E-2,8.752953E-2,-4.0159974E-2,9.8138414E-2,9.8138414E-2,-1.0979517E-2,9.8138414E-2,-9.8138414E-2,-9.8138414E-2,-1.0979517E-2,9.8138414E-2,4.3542225E-2,9.8138414E-2,-9.8138414E-2,-8.159495E-2,9.8138414E-2,-2.0934567E-2,-9.8138414E-2,-9.8138414E-2,6.405471E-2,-9.8138414E-2,8.310553E-2,9.8138414E-2,8.627541E-4,1.4887748E-2,-9.8138414E-2,2.437587E-2,9.8138414E-2,-9.8138414E-2,9.8138414E-2,-9.8138414E-2,7.2824635E-2,-9.8138414E-2,6.0920183E-2,-9.8138414E-2,9.8138414E-2],"categories":[],"categories_nodes":[],"categories_segments":[],"categories_sizes":[],"default_left":[0,0,0,0,0,0,0,0,0,0,0,0,0,0,0,0,0,0,0,0,0,0,0,0,0,0,0,0,0,0,0,0,0,0,0,0,0,0,0,0,0,0,0,0,0,0,0,0,0,0,0,0,0,0,0,0,0,0,0,0,0,0,0,0,0,0,0,0,0,0,0,0,0,0,0,0,0,0,0,0,0,0,0,0,0,0,0,0,0,0,0,0,0],"id":1,"left_children":[1,3,5,7,9,11,13,15,17,19,21,23,25,27,29,31,33,35,37,-1,-1,39,41,43,45,47,-1,49,51,53,55,57,59,-1,61,-1,63,65,-1,-1,67,-1,-1,69,71,73,75,77,79,81,83,85,87,-1,89,91,-1,-1,-1,-1,-1,-1,-1,-1,-1,-1,-1,-1,-1,-1,-1,-1,-1,-1,-1,-1,-1,-1,-1,-1,-1,-1,-1,-1,-1,-1,-1,-1,-1,-1,-1,-1,-1],"loss_changes":[6.185859E3,1.8063379E2,2.0635122E3,1.14393555E2,3.796672E1,2.1081956E3,4.2256055E2,9.81709E1,3.5561472E2,1.8784437E0,8.679573E0,8.08818E2,3.0180786E1,3.2873242E2,1.3192786E2,5.0016113E1,4.842852E1,7.030965E1,1.9808777E1,0E0,0E0,5.634178E0,1.5766113E1,3.8670972E2,3.6524475E2,1.6375244E1,0E0,1.5344385E2,4.283687E1,1.2309525E1,6.86143E1,2.4888672E1,1.1578491E1,0E0,4.2137184E0,0E0,2.4696701E1,1.8784332E0,0E0,0E0,5.720978E-1,0E0,0E0,4.3768454E2,2.1283017E2,2.1086389E2,1.9735599E2,2.3708206E1,3.399292E0,2.4640205E1,1.2500195E2,1.7055943E1,1.6011482E1,0E0,8.795883E0,2.637986E1,0E0,0E0,0E0,0E0,0E0,0E0,0E0,0E0,0E0,0E0,0E0,0E0,0E0,0E0,0E0,0E0,0E0,0E0,0E0,0E0,0E0,0E0,0E0,0E0,0E0,0E0,0E0,0E0,0E0,0E0,0E0,0E0,0E0,0E0,0E0,0E0,0E0],"parents":[2147483647,0,0,1,1,2,2,3,3,4,4,5,5,6,6,7,7,8,8,9,9,10,10,11,11,12,12,13,13,14,14,15,15,16,16,17,17,18,18,21,21,22,22,23,23,24,24,25,25,27,27,28,28,29,29,30,30,31,31,32,32,34,34,36,36,37,37,40,40,43,43,44,44,45,45,46,46,47,47,48,48,49,49,50,50,51,51,52,52,54,54,55,55],"right_children":[2,4,6,8,10,12,14,16,18,20,22,24,26,28,30,32,34,36,38,-1,-1,40,42,44,46,48,-1,50,52,54,56,58,60,-1,62,-1,64,66,-1,-1,68,-1,-1,70,72,74,76,78,80,82,84,86,88,-1,90,92,-1,-1,-1,-1,-1,-1,-1,-1,-1,-1,-1,-1,-1,-1,-1,-1,-1,-1,-1,-1,-1,-1,-1,-1,-1,-1,-1,-1,-1,-1,-1,-1,-1,-1,-1,-1,-1],"split_conditions":[9.911416E0,2.66E0,1.8083334E-1,3.8721364E0,8.077E3,7.05E-1,6.351E0,1.20964E5,1.4410894E1,3.822E3,2.702301E0,8.624618E0,2.5460733E1,7.38E-1,2.3995699E1,7.7185004E2,8.001E3,3.9319244E2,6.75E-1,-9.8138414E-2,-1.0979517E-2,1.6122234E0,4.3E0,1.1346666E1,7.897906E2,5.764288E-2,-9.8138414E-2,4.585E1,8.77E2,7.265259E0,1.81E2,2.0492939E1,8.55894E3,-9.8138414E-2,2.165056E1,-9.8138414E-2,9.943871E0,7.48795E1,9.8138414E-2,-2.3766825E-2,2.6362576E0,-9.8138414E-2,9.8138414E-2,4.7077573E2,2.3362732E0,8.9775E1,2.795E3,5.0718E4,2.4136309E1,6.947649E1,1.3841146E0,2.036E4,2.0026495E5,4.190488E-2,2.2617249E1,1.8716E4,-9.8138414E-2,-9.8138414E-2,8.752953E-2,-4.0159974E-2,9.8138414E-2,9.8138414E-2,-1.0979517E-2,9.8138414E-2,-9.8138414E-2,-9.8138414E-2,-1.0979517E-2,9.8138414E-2,4.3542225E-2,9.8138414E-2,-9.8138414E-2,-8.159495E-2,9.8138414E-2,-2.0934567E-2,-9.8138414E-2,-9.8138414E-2,6.405471E-2,-9.8138414E-2,8.310553E-2,9.8138414E-2,8.627541E-4,1.4887748E-2,-9.8138414E-2,2.437587E-2,9.8138414E-2,-9.8138414E-2,9.8138414E-2,-9.8138414E-2,7.2824635E-2,-9.8138414E-2,6.0920183E-2,-9.8138414E-2,9.8138414E-2],"split_indices":[7,30,35,8,27,32,8,26,2,23,57,10,39,30,39,52,18,40,29,0,0,56,30,7,40,42,0,53,18,44,14,44,24,0,3,0,1,51,0,0,57,0,0,40,59,14,18,26,44,51,56,0,0,0,44,0,0,0,0,0,0,0,0,0,0,0,0,0,0,0,0,0,0,0,0,0,0,0,0,0,0,0,0,0,0,0,0,0,0,0,0,0,0],"split_type":[0,0,0,0,0,0,0,0,0,0,0,0,0,0,0,0,0,0,0,0,0,0,0,0,0,0,0,0,0,0,0,0,0,0,0,0,0,0,0,0,0,0,0,0,0,0,0,0,0,0,0,0,0,0,0,0,0,0,0,0,0,0,0,0,0,0,0,0,0,0,0,0,0,0,0,0,0,0,0,0,0,0,0,0,0,0,0,0,0,0,0,0,0],"sum_hessian":[8.963657E3,2.5486167E3,6.4150405E3,2.4928806E3,5.5736214E1,3.1441362E3,3.2709043E3,2.2936975E3,1.9918301E2,8.170634E0,4.756558E1,2.462655E3,6.8148126E2,3.119539E3,1.5136531E2,2.2602263E3,3.3471268E1,9.5045265E1,1.0413775E2,4.9876347E0,3.1829994E0,4.119958E1,6.3659987E0,7.587804E2,1.7038746E3,6.7749115E2,3.9901078E0,3.0375403E3,8.199873E1,9.65087E1,5.4856613E1,2.2466736E3,1.3552635E1,6.733307E0,2.6737963E1,1.06939335E1,8.435133E1,1.0101371E2,3.1240363E0,3.4323812E0,3.77672E1,3.2419627E0,3.1240363E0,3.0513364E2,4.5364673E2,1.3863237E3,3.175509E2,1.710303E1,6.603881E2,4.170329E1,2.995837E3,1.1616545E1,7.038219E1,5.837655E0,9.0671036E1,4.3414635E1,1.1441979E1,2.2398972E3,6.7763176E0,5.647335E0,7.9053E0,2.3554962E1,3.1829994E0,7.964256E1,4.708771E0,9.783071E1,3.1829994E0,3.43643E1,3.4028995E0,8.662296E1,2.1851068E2,6.360396E1,3.9004276E2,3.4167047E2,1.0446533E3,1.02275154E2,2.1527574E2,5.237104E0,1.1865926E1,6.56237E2,4.151132E0,1.854027E1,2.316302E1,2.222794E2,2.7735576E3,3.7112446E0,7.9053E0,6.529258E1,5.0896087E0,8.751691E1,3.1541317E0,3.4913442E0,3.992329E1],"tree_param":{"num_deleted":"0","num_feature":"61","num_nodes":"93","size_leaf_vector":"1"}},{"base_weights":[-6.160869E-3,-1E0,5.01611E-1,-1E0,8.095404E-1,-5.5911765E-2,1E0,-1E0,-2.5511608E-1,-9.8138414E-2,1E0,-4.86868E-1,1E0,1E0,-6.7448944E-1,-1E0,4.8495218E-1,1E0,-1E0,1E0,-4.3401275E-2,2.9483157E-1,-8.376325E-1,-9.8138414E-2,1E0,1E0,-9.291754E-1,-1E0,4.4314417E-1,-1E0,9.8138414E-2,-9.8138414E-2,1E0,-1E0,1E0,-9.8138414E-2,5.1141524E-1,1E0,-0E0,-9.331963E-1,6.942954E-1,-9.903412E-1,8.3084965E-1,-9.8138414E-2,1E0,4.7611102E-1,1E0,4.6352646E-1,-1E0,-1E0,6.527151E-2,1E0,-1E0,-9.8138414E-2,3.7482962E-2,9.8138414E-2,-1.3173952E-2,-9.8138414E-2,5.6415085E-2,-9.8138414E-2,9.8138414E-2,9.8138414E-2,-9.8138414E-2,4.028558E-2,9.8138414E-2,-9.8138414E-2,9.8138414E-2,9.357501E-2,-9.8138414E-2,-5.8916486E-3,-9.8138414E-2,-9.8138414E-2,9.8138414E-2,9.8138414E-2,-2.3159955E-2,9.8138414E-2,-7.5950315E-3,-7.674677E-2,9.8138414E-2,9.8138414E-2,-9.8138414E-2,2.0433206E-2,-9.8138414E-2,-5.55703E-3,-9.8138414E-2,-5.0227843E-2,9.8138414E-2,-9.8138414E-2,8.727708E-2],"categories":[],"categories_nodes":[],"categories_segments":[],"categories_sizes":[],"default_left":[0,0,0,0,0,0,0,0,0,0,0,0,0,0,0,0,0,0,0,0,0,0,0,0,0,0,0,0,0,0,0,0,0,0,0,0,0,0,0,0,0,0,0,0,0,0,0,0,0,0,0,0,0,0,0,0,0,0,0,0,0,0,0,0,0,0,0,0,0,0,0,0,0,0,0,0,0,0,0,0,0,0,0,0,0,0,0,0,0],"id":2,"left_children":[1,3,5,7,9,11,13,15,17,-1,19,21,23,25,27,29,31,33,35,37,-1,39,41,-1,43,45,47,49,51,53,-1,-1,55,57,59,-1,61,63,-1,65,67,69,71,-1,73,75,77,79,81,83,-1,85,87,-1,-1,-1,-1,-1,-1,-1,-1,-1,-1,-1,-1,-1,-1,-1,-1,-1,-1,-1,-1,-1,-1,-1,-1,-1,-1,-1,-1,-1,-1,-1,-1,-1,-1,-1,-1],"loss_changes":[5.5714272E3,2.0416187E2,1.8867026E3,1.09541504E2,4.6913307E1,1.9410908E3,4.094812E2,6.70459E1,2.9465552E2,0E0,8.552338E0,6.715013E2,3.814624E1,2.6930884E2,1.1206096E2,2.8453613E1,4.639684E1,7.21735E1,2.925563E1,3.6228027E0,0E0,3.72324E2,4.308651E2,0E0,1.382019E1,1.80927E2,3.4887333E1,1.1876068E1,8.6569824E1,2.7266113E1,0E0,0E0,4.3773384E0,1.1292244E1,2.4188965E1,0E0,2.7942984E1,1.5317078E0,0E0,1.8746167E2,2.6162448E2,2.1202356E2,1.05842804E2,0E0,5.576172E0,2.459271E2,1.097749E2,3.1535103E1,7.7515182E0,2.1660461E0,0E0,1.4439125E1,1.4415951E1,0E0,0E0,0E0,0E0,0E0,0E0,0E0,0E0,0E0,0E0,0E0,0E0,0E0,0E0,0E0,0E0,0E0,0E0,0E0,0E0,0E0,0E0,0E0,0E0,0E0,0E0,0E0,0E0,0E0,0E0,0E0,0E0,0E0,0E0,0E0,0E0],"parents":[2147483647,0,0,1,1,2,2,3,3,4,4,5,5,6,6,7,7,8,8,10,10,11,11,12,12,13,13,14,14,15,15,16,16,17,17,18,18,19,19,21,21,22,22,24,24,25,25,26,26,27,27,28,28,29,29,32,32,33,33,34,34,36,36,37,37,39,39,40,40,41,41,42,42,44,44,45,45,46,46,47,47,48,48,49,49,51,51,52,52],"right_children":[2,4,6,8,10,12,14,16,18,-1,20,22,24,26,28,30,32,34,36,38,-1,40,42,-1,44,46,48,50,52,54,-1,-1,56,58,60,-1,62,64,-1,66,68,70,72,-1,74,76,78,80,82,84,-1,86,88,-1,-1,-1,-1,-1,-1,-1,-1,-1,-1,-1,-1,-1,-1,-1,-1,-1,-1,-1,-1,-1,-1,-1,-1,-1,-1,-1,-1,-1,-1,-1,-1,-1,-1,-1,-1],"split_conditions":[9.911416E0,2.66E0,1.8083334E-1,3.8721364E0,9.713E3,7.05E-1,6.283889E0,1.20964E5,1.4410894E1,-9.8138414E-2,2.9090576E0,8.624618E0,7.48E-1,7.38E-1,1.7827E2,2.093642E1,7.604E3,4.0604733E2,2.9176647E1,3.0503845E0,-4.3401275E-2,1.8049711E1,3.1338043E1,-9.8138414E-2,3.971841E0,1.6241455E0,2.3683111E1,3.0916667E-1,1.125625E1,7.7185004E2,9.8138414E-2,-9.8138414E-2,2.2226665E1,2.2888888E-1,2.3097342E1,-9.8138414E-2,9.980106E0,1.6433817E0,-0E0,7.0577E4,2.7827742E1,3.302E3,3.7666883E0,-9.8138414E-2,2.4136309E1,7.946931E0,5.0664288E1,1.4376668E2,8.77E2,1.2277E4,6.527151E-2,2.3171219E1,6.92E-1,-9.8138414E-2,3.7482962E-2,9.8138414E-2,-1.3173952E-2,-9.8138414E-2,5.6415085E-2,-9.8138414E-2,9.8138414E-2,9.8138414E-2,-9.8138414E-2,4.028558E-2,9.8138414E-2,-9.8138414E-2,9.8138414E-2,9.357501E-2,-9.8138414E-2,-5.8916486E-3,-9.8138414E-2,-9.8138414E-2,9.8138414E-2,9.8138414E-2,-2.3159955E-2,9.8138414E-2,-7.5950315E-3,-7.674677E-2,9.8138414E-2,9.8138414E-2,-9.8138414E-2,2.0433206E-2,-9.8138414E-2,-5.55703E-3,-9.8138414E-2,-5.0227843E-2,9.8138414E-2,-9.8138414E-2,8.727708E-2],"split_indices":[7,30,35,8,22,32,8,26,2,0,57,10,31,30,54,44,17,40,39,59,0,4,43,0,45,56,3,35,50,52,0,0,43,36,39,0,12,56,0,22,3,21,1,0,44,10,53,14,18,21,0,39,30,0,0,0,0,0,0,0,0,0,0,0,0,0,0,0,0,0,0,0,0,0,0,0,0,0,0,0,0,0,0,0,0,0,0,0,0],"split_type":[0,0,0,0,0,0,0,0,0,0,0,0,0,0,0,0,0,0,0,0,0,0,0,0,0,0,0,0,0,0,0,0,0,0,0,0,0,0,0,0,0,0,0,0,0,0,0,0,0,0,0,0,0,0,0,0,0,0,0,0,0,0,0,0,0,0,0,0,0,0,0,0,0,0,0,0,0,0,0,0,0,0,0,0,0,0,0,0,0],"sum_hessian":[8.925143E3,2.5451655E3,6.3799775E3,2.4829973E3,6.2168232E1,3.1130032E3,3.2669744E3,2.2845508E3,1.9844653E2,8.159545E0,5.4008686E1,2.447895E3,6.65108E2,3.1211262E3,1.4584837E2,2.2543489E3,3.0201864E1,9.4288284E1,1.0415824E2,5.0103424E1,3.905262E0,7.5799927E2,1.6898958E3,6.4354334E0,6.5867255E2,3.0489395E3,7.21866E1,8.493472E1,6.0913647E1,2.248349E3,5.9998264E0,7.429631E0,2.2772232E1,1.5748894E1,7.853939E1,9.155304E1,1.2605204E1,4.595823E1,4.145197E0,1.8590913E2,5.7209015E2,1.5483213E3,1.4157446E2,3.2071552E0,6.554654E2,6.609103E2,2.3880293E3,1.6229553E1,5.5957043E1,8.084265E1,4.0920687E0,3.9236065E1,2.1677582E1,2.2342822E3,1.4066813E1,1.959423E1,3.1780024E0,1.1393233E1,4.3556595E0,3.2305875E0,7.530881E1,8.394028E0,4.211176E0,5.8354254E0,4.0122803E1,1.5196352E2,3.394562E1,4.9891144E2,7.317871E1,2.4086978E2,1.3074515E3,1.4660009E1,1.26914444E2,6.520348E2,3.4305873E0,2.9331036E2,3.675999E2,3.4384228E1,2.353645E3,9.810208E0,6.4193444E0,5.089158E0,5.0867886E1,3.172475E0,7.767018E1,6.115935E0,3.312013E1,1.7816254E1,3.8613272E0],"tree_param":{"num_deleted":"0","num_feature":"61","num_nodes":"89","size_leaf_vector":"1"}},{"base_weights":[-1.3163083E-2,1E0,-9.8138414E-2,-4.7312286E-1,9.8138414E-2,3.7456343E-1,-1E0,-8.5318357E-1,1E0,-1E0,9.8138414E-2,-1E0,1E0,1E0,-1E0,-1E0,5.5633996E-2,-9.8138414E-2,3.907361E-2,9.8138414E-2,-9.224151E-2,-9.403328E-2,9.8138414E-2,9.657225E-3,-9.8138414E-2,-9.8138414E-2,7.4009625E-3],"categories":[],"categories_nodes":[],"categories_segments":[],"categories_sizes":[],"default_left":[0,1,0,0,0,0,0,0,0,0,0,0,0,0,0,0,0,0,0,0,0,0,0,0,0,0,0],"id":3,"left_children":[1,3,-1,5,-1,7,9,11,13,15,-1,17,19,21,23,25,-1,-1,-1,-1,-1,-1,-1,-1,-1,-1,-1],"loss_changes":[1.9751703E4,1.3966123E3,0E0,4.8300812E2,0E0,2.878958E2,3.2902893E1,1.3976865E2,8.829312E1,1.2819214E1,0E0,7.5184326E0,1.2690113E1,3.646344E1,8.671661E0,6.7148438E0,0E0,0E0,0E0,0E0,0E0,0E0,0E0,0E0,0E0,0E0,0E0],"parents":[2147483647,0,0,1,1,3,3,5,5,6,6,7,7,8,8,9,9,11,11,12,12,13,13,14,14,15,15],"right_children":[2,4,-1,6,-1,8,10,12,14,16,-1,18,20,22,24,26,-1,-1,-1,-1,-1,-1,-1,-1,-1,-1,-1],"split_conditions":[1.16596315E-2,1E0,-9.8138414E-2,2.905E3,9.8138414E-2,6.5E-2,3.2830837E1,1.8522E4,2.3334045E0,2.37E0,9.8138414E-2,1.9388889E-1,2.1565001E2,5.6E-2,9.314286E1,2.9176647E1,5.5633996E-2,-9.8138414E-2,3.907361E-2,9.8138414E-2,-9.224151E-2,-9.403328E-2,9.8138414E-2,9.657225E-3,-9.8138414E-2,-9.8138414E-2,7.4009625E-3],"split_indices":[60,0,0,23,0,33,43,25,57,32,0,34,52,34,13,39,0,0,0,0,0,0,0,0,0,0,0],"split_type":[0,0,0,0,0,0,0,0,0,0,0,0,0,0,0,0,0,0,0,0,0,0,0,0,0,0,0],"sum_hessian":[8.824785E3,4.8225044E3,4.0022812E3,6.433689E2,4.1791353E3,3.4976196E2,2.9360696E2,1.2336437E2,2.2639758E2,2.884083E2,5.198665E0,9.085276E1,3.2511616E1,2.0606602E2,2.0331556E1,2.833849E2,5.023426E0,8.72159E1,3.6368597E0,2.9313765E1,3.1978514E0,9.336297E0,1.9672972E2,6.961619E0,1.3369939E1,2.7780533E2,5.57956E0],"tree_param":{"num_deleted":"0","num_feature":"61","num_nodes":"27","size_leaf_vector":"1"}},{"base_weights":[-5.7365326E-3,1E0,-9.8138414E-2,-3.9015448E-1,9.8138414E-2,4.6467596E-1,-1E0,-8.824363E-1,1E0,-1E0,1E0,-1E0,1E0,1E0,-1E0,-1E0,4.5944643E-1,-3.0502439E-2,9.8138414E-2,-9.8138414E-2,-4.731635E-2,9.8138414E-2,-2.6089896E-2,9.8138414E-2,-4.6579864E-2,-9.8138414E-2,4.1773677E-2,-9.8138414E-2,5.493635E-2,-9.8138414E-2,9.8138414E-2],"categories":[],"categories_nodes":[],"categories_segments":[],"categories_sizes":[],"default_left":[0,1,0,0,0,0,0,0,0,0,0,0,0,0,0,0,0,0,0,0,0,0,0,0,0,0,0,0,0,0,0],"id":4,"left_children":[1,3,-1,5,-1,7,9,11,13,15,17,19,21,23,25,27,29,-1,-1,-1,-1,-1,-1,-1,-1,-1,-1,-1,-1,-1,-1],"loss_changes":[1.824454E4,1.2529854E3,0E0,4.7525192E2,0E0,2.738082E2,9.789731E1,1.1250607E2,8.654349E1,2.137268E1,5.784235E0,7.7272034E-1,5.8379517E0,3.4851196E1,8.188585E0,8.753723E0,2.1388805E1,0E0,0E0,0E0,0E0,0E0,0E0,0E0,0E0,0E0,0E0,0E0,0E0,0E0,0E0],"parents":[2147483647,0,0,1,1,3,3,5,5,6,6,7,7,8,8,9,9,10,10,11,11,12,12,13,13,14,14,15,15,16,16],"right_children":[2,4,-1,6,-1,8,10,12,14,16,18,20,22,24,26,28,30,-1,-1,-1,-1,-1,-1,-1,-1,-1,-1,-1,-1,-1,-1],"split_conditions":[1.16596315E-2,1E0,-9.8138414E-2,2.2677E4,9.8138414E-2,5.9166666E-2,3.3677856E1,1.7161E4,2.314677E0,6.965613E0,2.2172096E1,2.6741028E0,4.4166666E-2,5.696579E0,7.6491974E1,2.7841E4,1.447E1,-3.0502439E-2,9.8138414E-2,-9.8138414E-2,-4.731635E-2,9.8138414E-2,-2.6089896E-2,9.8138414E-2,-4.6579864E-2,-9.8138414E-2,4.1773677E-2,-9.8138414E-2,5.493635E-2,-9.8138414E-2,9.8138414E-2],"split_indices":[60,0,0,21,0,33,43,20,57,38,2,57,33,38,51,18,50,0,0,0,0,0,0,0,0,0,0,0,0,0,0],"split_type":[0,0,0,0,0,0,0,0,0,0,0,0,0,0,0,0,0,0,0,0,0,0,0,0,0,0,0,0,0,0,0],"sum_hessian":[8.664167E3,4.7503564E3,3.91381E3,6.48156E2,4.1022E3,3.335015E2,3.1465448E2,1.0395883E2,2.2954268E2,2.9526395E2,1.9390553E1,7.953165E1,2.4427187E1,2.1121892E2,1.8323765E1,2.854349E2,9.829035E0,3.1514935E0,1.623906E1,7.492182E1,4.609825E0,2.1001534E1,3.425652E0,1.9539615E2,1.58227625E1,1.450237E1,3.821394E0,2.8203525E2,3.3996468E0,3.4226964E0,6.406338E0],"tree_param":{"num_deleted":"0","num_feature":"61","num_nodes":"31","size_leaf_vector":"1"}},{"base_weights":[-8.229229E-3,-1E0,4.1057965E-1,-1E0,1E0,1.4383818E-2,9.52467E-1,-1E0,4.0182027E-1,-9.8138414E-2,1E0,6.0196346E-1,-3.106085E-1,9.9766415E-1,-1E0,-1E0,5.7327455E-1,-9.8138414E-2,1E0,1E0,-5.030501E-2,-4.0523902E-1,1E0,-5.690915E-1,7.8870857E-1,-3.1530312E-1,1E0,-1E0,8.1414126E-2,-1E0,-4.8150918E-1,-9.8138414E-2,9.8138414E-2,-7.010106E-2,9.8138414E-2,9.8138414E-2,9.775651E-3,-8.4508646E-1,8.032853E-1,1E0,-4.345313E-1,-2.571871E-1,-1E0,9.859061E-1,-9.9069905E-1,1E0,-7.625896E-1,1E0,-1E0,4.974483E-2,-1E0,-9.8138414E-2,-7.155918E-2,9.8138414E-2,-9.8138414E-2,-2.228077E-3,-9.8138414E-2,-5.3364445E-2,9.8138414E-2,9.8138414E-2,-5.3982493E-2,-9.8138414E-2,9.2643626E-2,5.8859237E-2,-4.2684685E-2,-9.8138414E-2,7.070628E-2,9.8138414E-2,-5.860664E-2,9.8138414E-2,-9.8138414E-2,9.8138414E-2,6.913446E-2,9.8138414E-2,-8.966448E-2,6.530852E-2,9.8138414E-2,-9.8138414E-2,9.8138414E-2,4.649902E-2,-9.8138414E-2],"categories":[],"categories_nodes":[],"categories_segments":[],"categories_sizes":[],"default_left":[0,0,0,0,0,0,0,0,0,0,0,0,0,0,0,0,0,0,0,0,0,0,0,0,0,0,0,0,0,0,0,0,0,0,0,0,0,0,0,0,0,0,0,0,0,0,0,0,0,0,0,0,0,0,0,0,0,0,0,0,0,0,0,0,0,0,0,0,0,0,0,0,0,0,0,0,0,0,0,0,0],"id":5,"left_children":[1,3,5,7,9,11,13,15,17,-1,19,21,23,25,27,29,31,-1,33,35,-1,37,39,41,43,45,47,49,-1,51,53,-1,-1,-1,-1,-1,-1,55,57,59,61,63,65,67,69,71,73,75,77,-1,79,-1,-1,-1,-1,-1,-1,-1,-1,-1,-1,-1,-1,-1,-1,-1,-1,-1,-1,-1,-1,-1,-1,-1,-1,-1,-1,-1,-1,-1,-1],"loss_changes":[3.907044E3,6.447649E2,1.3182697E3,4.4753418E1,3.3486313E1,6.778677E2,2.3884229E2,3.504077E1,2.5582054E1,0E0,9.194153E0,8.3213495E2,6.493037E2,1.9287402E2,1.2147453E1,2.5921875E1,2.784776E1,0E0,9.584763E0,3.3180237E0,0E0,2.7818927E2,1.1080322E2,3.3179144E2,1.5285696E2,8.137555E1,1.05735596E2,1.0737373E1,0E0,2.550879E1,1.2690025E2,0E0,0E0,0E0,0E0,0E0,0E0,1.148103E2,5.3815063E1,5.0427612E1,4.592642E1,1.8672256E2,6.8644226E1,8.9931885E1,4.4784836E1,2.3961258E-1,2.7166489E1,6.4836914E1,1.4258726E1,0E0,9.455872E0,0E0,0E0,0E0,0E0,0E0,0E0,0E0,0E0,0E0,0E0,0E0,0E0,0E0,0E0,0E0,0E0,0E0,0E0,0E0,0E0,0E0,0E0,0E0,0E0,0E0,0E0,0E0,0E0,0E0,0E0],"parents":[2147483647,0,0,1,1,2,2,3,3,4,4,5,5,6,6,7,7,8,8,10,10,11,11,12,12,13,13,14,14,15,15,16,16,18,18,19,19,21,21,22,22,23,23,24,24,25,25,26,26,27,27,29,29,30,30,37,37,38,38,39,39,40,40,41,41,42,42,43,43,44,44,45,45,46,46,47,47,48,48,50,50],"right_children":[2,4,6,8,10,12,14,16,18,-1,20,22,24,26,28,30,32,-1,34,36,-1,38,40,42,44,46,48,50,-1,52,54,-1,-1,-1,-1,-1,-1,56,58,60,62,64,66,68,70,72,74,76,78,-1,80,-1,-1,-1,-1,-1,-1,-1,-1,-1,-1,-1,-1,-1,-1,-1,-1,-1,-1,-1,-1,-1,-1,-1,-1,-1,-1,-1,-1,-1,-1],"split_conditions":[5.4545456E-1,2.68E0,3.5397E4,3.4833333E-1,1.8064677E0,1.6105162E1,1.5160903E1,8.948805E2,3.966E4,-9.8138414E-2,2.7149963E0,3.8721364E0,2.1402754E1,4.808605E2,5.4975E2,5.86209E5,1.4309E5,-9.8138414E-2,3.03E-1,2.7324524E0,-5.030501E-2,1.9679417E1,8.429512E0,1.773E2,2.2920645E1,6.7167E4,3.8467145E2,5.87E1,8.1414126E-2,1.9969889E0,4.05003E5,-9.8138414E-2,9.8138414E-2,-7.010106E-2,9.8138414E-2,9.8138414E-2,9.775651E-3,1.4651613E0,2.5060305E1,4.3155457E2,2.5001466E0,8.93725E1,3.29E-1,6.795E2,1.7337406E1,4.4623102E2,4.3037E4,4.006E4,1.4662471E1,4.974483E-2,1.1567982E1,-9.8138414E-2,-7.155918E-2,9.8138414E-2,-9.8138414E-2,-2.228077E-3,-9.8138414E-2,-5.3364445E-2,9.8138414E-2,9.8138414E-2,-5.3982493E-2,-9.8138414E-2,9.2643626E-2,5.8859237E-2,-4.2684685E-2,-9.8138414E-2,7.070628E-2,9.8138414E-2,-5.860664E-2,9.8138414E-2,-9.8138414E-2,9.8138414E-2,6.913446E-2,9.8138414E-2,-8.966448E-2,6.530852E-2,9.8138414E-2,-9.8138414E-2,9.8138414E-2,4.649902E-2,-9.8138414E-2],"split_indices":[50,29,26,36,57,2,12,40,19,0,58,8,44,40,13,20,0,0,34,57,0,4,10,14,2,28,16,16,0,56,28,0,0,0,0,0,0,1,39,52,5,13,36,48,39,40,22,0,1,0,10,0,0,0,0,0,0,0,0,0,0,0,0,0,0,0,0,0,0,0,0,0,0,0,0,0,0,0,0,0,0],"split_type":[0,0,0,0,0,0,0,0,0,0,0,0,0,0,0,0,0,0,0,0,0,0,0,0,0,0,0,0,0,0,0,0,0,0,0,0,0,0,0,0,0,0,0,0,0,0,0,0,0,0,0,0,0,0,0,0,0,0,0,0,0,0,0,0,0,0,0,0,0,0,0,0,0,0,0,0,0,0,0,0,0],"sum_hessian":[8.450566E3,2.3100461E3,6.1405195E3,2.1847366E3,1.2530963E2,3.5473376E3,2.5931821E3,2.1621716E3,2.2565031E1,4.839782E0,1.2046985E2,1.2635554E3,2.2837822E3,2.5370676E3,5.611454E1,2.1482122E3,1.3959402E1,5.184853E0,1.7380178E1,1.1665288E2,3.8169706E0,5.224295E2,7.411259E2,1.8491886E3,4.345935E2,1.1127902E2,2.4257886E3,5.266649E1,3.4480493E0,2.0500623E3,9.81499E1,4.3663225E0,9.59308E0,3.0732205E0,1.4306957E1,1.1177342E2,4.8794584E0,3.8316385E2,1.3926564E2,6.874894E2,5.363653E1,1.2241028E3,6.2508594E2,3.9135117E2,4.3242367E1,2.3160795E1,8.8118225E1,2.4007783E3,2.5010183E1,4.5267196E0,4.813977E1,1.6975114E3,3.5255093E2,3.0166992E1,6.798291E1,1.3042758E2,2.5273625E2,2.4586288E1,1.1467936E2,6.667006E2,2.0788755E1,3.722209E1,1.6414442E1,2.1007483E2,1.0140279E3,6.020833E2,2.3002577E1,3.562667E2,3.508447E1,7.1753354E0,3.606703E1,1.626951E1,6.891284E0,5.9160094E0,8.220222E1,5.82771E2,1.8180073E3,2.1823685E1,3.1864972E0,4.1491165E0,4.3990654E1],"tree_param":{"num_deleted":"0","num_feature":"61","num_nodes":"81","size_leaf_vector":"1"}},{"base_weights":[1.4148847E-3,1E0,-9.8138414E-2,-3.5776725E-1,9.8138414E-2,4.0080953E-1,-1E0,-7.39222E-1,9.75694E-1,-1E0,9.8138414E-2,-1E0,8.67845E-1,1E0,-1E0,-1E0,5.262975E-2,-9.8138414E-2,4.6241134E-3,9.8138414E-2,-9.8138414E-2,9.8138414E-2,-9.8138414E-2,-9.8138414E-2,1.677701E-2,-9.8138414E-2,3.3557564E-2],"categories":[],"categories_nodes":[],"categories_segments":[],"categories_sizes":[],"default_left":[0,0,0,0,0,0,0,0,0,0,0,0,0,0,0,0,0,0,0,0,0,0,0,0,0,0,0],"id":6,"left_children":[1,3,-1,5,-1,7,9,11,13,15,-1,17,19,21,23,25,-1,-1,-1,-1,-1,-1,-1,-1,-1,-1,-1],"loss_changes":[1.6103096E4,1.1496587E3,0E0,4.1432135E2,0E0,2.2453905E2,4.8539368E1,1.02498505E2,5.003174E1,1.2274963E1,0E0,6.7841644E0,2.3068998E1,3.8539413E1,5.666749E0,1.0691223E1,0E0,0E0,0E0,0E0,0E0,0E0,0E0,0E0,0E0,0E0,0E0],"parents":[2147483647,0,0,1,1,3,3,5,5,6,6,7,7,8,8,9,9,11,11,12,12,13,13,14,14,15,15],"right_children":[2,4,-1,6,-1,8,10,12,14,16,-1,18,20,22,24,26,-1,-1,-1,-1,-1,-1,-1,-1,-1,-1,-1],"split_conditions":[1.16596315E-2,1E0,-9.8138414E-2,4.6E3,9.8138414E-2,6.5E-2,3.2519104E1,1.8522E4,2.32E-1,2.37E0,9.8138414E-2,3.8748386E0,1.3293571E2,2.4466667E1,2.9472223E-1,2.345123E1,5.262975E-2,-9.8138414E-2,4.6241134E-3,9.8138414E-2,-9.8138414E-2,9.8138414E-2,-9.8138414E-2,-9.8138414E-2,1.677701E-2,-9.8138414E-2,3.3557564E-2],"split_indices":[60,0,0,23,0,33,43,25,35,32,0,6,55,50,33,44,0,0,0,0,0,0,0,0,0,0,0],"split_type":[0,0,0,0,0,0,0,0,0,0,0,0,0,0,0,0,0,0,0,0,0,0,0,0,0,0,0],"sum_hessian":[8.380269E3,4.6173394E3,3.762929E3,6.2340533E2,3.993934E3,3.4174954E2,2.8165582E2,1.1443056E2,2.2731897E2,2.7282974E2,8.826078E0,8.305075E1,3.1379803E1,2.1626901E2,1.1049961E1,2.678288E2,5.000929E0,7.709065E1,5.9600973E0,2.6755695E1,4.624108E0,2.0941617E2,6.8528438E0,7.139913E0,3.910048E0,2.6210483E2,5.7239823E0],"tree_param":{"num_deleted":"0","num_feature":"61","num_nodes":"27","size_leaf_vector":"1"}},{"base_weights":[-8.571477E-3,1E0,-9.8138414E-2,-4.276324E-2,1E0,-8.3824205E-1,6.99378E-1,1E0,-9.177941E-1,-1E0,8.353891E-1,1E0,-1E0,1E0,-9.8138414E-2,-1.2353187E-2,-9.8138414E-2,-1E0,1.2327248E-2,-8.177815E-2,1E0,1E0,-9.8138414E-2,-9.8138414E-2,9.8138414E-2,7.9929864E-1,1E0,-9.8138414E-2,-6.302606E-2,9.8138414E-2,-9.8138414E-2,9.8138414E-2,4.6482626E-2,9.8138414E-2,-4.419999E-2,9.8138414E-2,-2.0813083E-2,-2.0112453E-2,9.8138414E-2],"categories":[],"categories_nodes":[],"categories_segments":[],"categories_sizes":[],"default_left":[0,0,0,0,0,0,0,0,0,0,0,0,0,0,0,0,0,0,0,0,0,0,0,0,0,0,0,0,0,0,0,0,0,0,0,0,0,0,0],"id":7,"left_children":[1,3,-1,5,7,9,11,13,15,17,19,21,23,25,-1,-1,-1,27,29,-1,31,33,-1,-1,-1,35,37,-1,-1,-1,-1,-1,-1,-1,-1,-1,-1,-1,-1],"loss_changes":[1.4779504E4,3.192627E2,0E0,1.7390576E2,2.8149414E1,7.6456345E1,1.2152374E2,2.4100098E1,1.9552679E0,1.2330429E1,1.3065361E1,3.027246E1,2.0260868E1,1.0631836E1,0E0,0E0,0E0,1.2805176E0,2.236447E1,0E0,1.7335281E0,1.2224991E1,0E0,0E0,0E0,1.2525618E2,1.7229004E1,0E0,0E0,0E0,0E0,0E0,0E0,0E0,0E0,0E0,0E0,0E0,0E0],"parents":[2147483647,0,0,1,1,3,3,4,4,5,5,6,6,7,7,8,8,9,9,10,10,11,11,12,12,13,13,17,17,18,18,20,20,21,21,25,25,26,26],"right_children":[2,4,-1,6,8,10,12,14,16,18,20,22,24,26,-1,-1,-1,28,30,-1,32,34,-1,-1,-1,36,38,-1,-1,-1,-1,-1,-1,-1,-1,-1,-1,-1,-1],"split_conditions":[1.16596315E-2,0E0,-9.8138414E-2,6.3485474E2,8.34188E5,2.17E-1,3.7159E4,1.8299665E1,1.2563943E1,1.8741667E2,0E0,3.1533335E1,2.7841E4,3.535875E2,-9.8138414E-2,-1.2353187E-2,-9.8138414E-2,1.5916666E-1,1.042E4,-8.177815E-2,1.6076E2,2.3171219E1,-9.8138414E-2,-9.8138414E-2,9.8138414E-2,7.9541E4,3.7603363E2,-9.8138414E-2,-6.302606E-2,9.8138414E-2,-9.8138414E-2,9.8138414E-2,4.6482626E-2,9.8138414E-2,-4.419999E-2,9.8138414E-2,-2.0813083E-2,-2.0112453E-2,9.8138414E-2],"split_indices":[60,56,0,40,28,35,27,7,7,15,13,50,18,48,0,0,0,35,19,0,24,39,0,0,0,28,40,0,0,0,0,0,0,0,0,0,0,0,0],"split_type":[0,0,0,0,0,0,0,0,0,0,0,0,0,0,0,0,0,0,0,0,0,0,0,0,0,0,0,0,0,0,0,0,0,0,0,0,0,0,0],"sum_hessian":[8.1675654E3,4.4835127E3,3.6840527E3,2.9338672E2,4.190126E3,1.4175288E2,1.5163382E2,4.182648E3,7.477908E0,1.1816876E2,2.358413E1,1.22015236E2,2.9618578E1,4.1773286E3,5.31954E0,3.3705943E0,4.1073136E0,1.0636446E2,1.18043E1,3.8633976E0,1.9720732E1,1.1735348E2,4.6617556E0,2.595086E1,3.6677186E0,2.7186877E2,3.9054597E3,9.330939E1,1.3055078E1,4.91381E0,6.8904905E0,1.1776522E1,7.9442096E0,1.1174781E2,5.6056657E0,1.7947026E2,9.239851E1,1.1645417E1,3.8938142E3],"tree_param":{"num_deleted":"0","num_feature":"61","num_nodes":"39","size_leaf_vector":"1"}},{"base_weights":[-3.0925071E-3,1E0,-9.8138414E-2,-3.8423714E-1,1E0,3.179369E-1,-1E0,7.356408E-1,9.8138414E-2,-7.892963E-1,8.456935E-1,-1E0,1E0,-9.8138414E-2,9.8138414E-2,-1E0,7.16796E-1,1E0,-6.3758695E-1,-1E0,3.1615862E-1,9.8138414E-2,-1.3013482E-2,-9.8138414E-2,1.6964354E-3,9.8138414E-2,-9.8138414E-2,9.8138414E-2,-9.8138414E-2,-8.998157E-2,9.589392E-2,-9.8138414E-2,1.7839394E-4,-9.8138414E-2,9.8138414E-2],"categories":[],"categories_nodes":[],"categories_segments":[],"categories_sizes":[],"default_left":[0,0,0,0,0,0,0,0,0,0,0,0,0,0,0,0,0,0,0,0,0,0,0,0,0,0,0,0,0,0,0,0,0,0,0],"id":8,"left_children":[1,3,-1,5,7,9,11,13,-1,15,17,19,21,-1,-1,23,25,27,29,31,33,-1,-1,-1,-1,-1,-1,-1,-1,-1,-1,-1,-1,-1,-1],"loss_changes":[1.3656921E4,1.1514385E3,0E0,3.2899756E2,9.296875E-1,1.8758163E2,6.6651245E1,3.1819843E1,0E0,7.119007E1,7.45605E1,2.0026398E1,4.3178577E0,0E0,0E0,3.4675293E0,1.8241913E1,2.6787933E1,1.371599E1,3.6836243E0,2.0329018E1,0E0,0E0,0E0,0E0,0E0,0E0,0E0,0E0,0E0,0E0,0E0,0E0,0E0,0E0],"parents":[2147483647,0,0,1,1,3,3,4,4,5,5,6,6,7,7,9,9,10,10,11,11,12,12,15,15,16,16,17,17,18,18,19,19,20,20],"right_children":[2,4,-1,6,8,10,12,14,-1,16,18,20,22,-1,-1,24,26,28,30,32,34,-1,-1,-1,-1,-1,-1,-1,-1,-1,-1,-1,-1,-1,-1],"split_conditions":[1.16596315E-2,1E0,-9.8138414E-2,2.5405E4,5.5E1,6.3E-2,3.2519104E1,1.9228E4,9.8138414E-2,1.7161E4,2.2000122E0,6.8460493E0,9.314286E1,-9.8138414E-2,9.8138414E-2,1.4204455E1,1.07100006E2,7.95879E2,2.225E-1,3.0500715E1,1.31E-1,9.8138414E-2,-1.3013482E-2,-9.8138414E-2,1.6964354E-3,9.8138414E-2,-9.8138414E-2,9.8138414E-2,-9.8138414E-2,-8.998157E-2,9.589392E-2,-9.8138414E-2,1.7839394E-4,-9.8138414E-2,9.8138414E-2],"split_indices":[60,0,0,28,0,33,43,18,0,20,57,38,13,0,0,12,49,40,33,43,35,0,0,0,0,0,0,0,0,0,0,0,0,0,0],"split_type":[0,0,0,0,0,0,0,0,0,0,0,0,0,0,0,0,0,0,0,0,0,0,0,0,0,0,0,0,0,0,0,0,0,0,0],"sum_hessian":[7.973831E3,4.3954395E3,3.5783916E3,6.007144E2,3.7947253E3,3.2008472E2,2.8062973E2,1.8285328E1,3.77644E3,1.0318052E2,2.1690419E2,2.6515118E2,1.5478538E1,3.9825008E0,1.4302828E1,7.770957E1,2.5470947E1,1.8740727E2,2.9496908E1,2.5380501E2,1.1346188E1,1.2337138E1,3.1413991E0,7.458653E1,3.123046E0,2.1577784E1,3.8931637E0,1.8420589E2,3.2013907E0,2.5267426E1,4.229482E0,2.5036246E2,3.442554E0,4.0846744E0,7.2615128E0],"tree_param":{"num_deleted":"0","num_feature":"61","num_nodes":"35","size_leaf_vector":"1"}},{"base_weights":[-5.7767504E-3,1E0,-9.8138414E-2,-3.854393E-1,1E0,3.0974016E-1,-1E0,5.870663E-1,9.8138414E-2,-6.723214E-1,8.0607444E-1,-1E0,9.8138414E-2,9.8138414E-2,-9.8138414E-2,-1E0,7.1864927E-1,9.72839E-1,-1E0,-1E0,5.1401656E-2,-9.8138414E-2,9.29579E-2,9.468255E-2,-8.785574E-2,9.8138414E-2,-7.684892E-2,8.842051E-3,-9.8138414E-2,-9.8138414E-2,-3.4802247E-2],"categories":[],"categories_nodes":[],"categories_segments":[],"categories_sizes":[],"default_left":[0,1,0,0,0,0,0,0,0,0,0,0,0,0,0,0,0,0,0,0,0,0,0,0,0,0,0,0,0,0,0],"id":9,"left_children":[1,3,-1,5,7,9,11,13,-1,15,17,19,-1,-1,-1,21,23,25,27,29,-1,-1,-1,-1,-1,-1,-1,-1,-1,-1,-1],"loss_changes":[1.2444387E4,1.1214185E3,0E0,3.284819E2,2.6738281E0,1.5628224E2,3.2383453E1,3.408576E1,0E0,6.613127E1,6.446384E1,1.316568E1,0E0,0E0,0E0,1.2415192E1,1.0708082E1,2.8456757E1,6.716711E0,7.6956177E0,0E0,0E0,0E0,0E0,0E0,0E0,0E0,0E0,0E0,0E0,0E0],"parents":[2147483647,0,0,1,1,3,3,4,4,5,5,6,6,7,7,9,9,10,10,11,11,15,15,16,16,17,17,18,18,19,19],"right_children":[2,4,-1,6,8,10,12,14,-1,16,18,20,-1,-1,-1,22,24,26,28,30,-1,-1,-1,-1,-1,-1,-1,-1,-1,-1,-1],"split_conditions":[1.16596315E-2,1E0,-9.8138414E-2,2.747E3,5.5E1,6.5E-2,3.2519104E1,1.0099505E-3,9.8138414E-2,1.8522E4,2.3334045E0,2.18E0,9.8138414E-2,9.8138414E-2,-9.8138414E-2,1.1627957E1,1.52425E2,2.3083334E-1,1.722E2,6.679E4,5.1401656E-2,-9.8138414E-2,9.29579E-2,9.468255E-2,-8.785574E-2,9.8138414E-2,-7.684892E-2,8.842051E-3,-9.8138414E-2,-9.8138414E-2,-3.4802247E-2],"split_indices":[60,0,0,23,0,33,43,60,0,25,57,32,0,0,0,1,55,35,52,22,0,0,0,0,0,0,0,0,0,0,0],"split_type":[0,0,0,0,0,0,0,0,0,0,0,0,0,0,0,0,0,0,0,0,0,0,0,0,0,0,0,0,0,0,0],"sum_hessian":[7.6719097E3,4.228697E3,3.4432126E3,5.84032E2,3.6446648E3,3.1961478E2,2.644172E2,1.8117E1,3.6265479E3,1.0714861E2,2.1246617E2,2.5851514E2,5.9020514E0,1.3381695E1,4.7353067E0,8.11284E1,2.6020206E1,1.946551E2,1.7811071E1,2.5304564E2,5.469506E0,7.802787E1,3.1005342E0,2.2699354E1,3.320852E0,1.85849E2,8.806103E0,5.426153E0,1.2384918E1,2.3331676E2,1.9728888E1],"tree_param":{"num_deleted":"0","num_feature":"61","num_nodes":"31","size_leaf_vector":"1"}},{"base_weights":[-1.3573548E-2,1E0,-9.8138414E-2,-3.6323723E-1,1E0,3.030465E-1,-1E0,6.451109E-1,9.8138414E-2,-7.263663E-1,7.907926E-1,-1E0,8.801882E-1,-9.8138414E-2,9.8138414E-2,-1E0,6.0561717E-1,-2.9875332E-1,1E0,-1E0,7.112096E-2,9.8138414E-2,-9.8138414E-2,-9.8138414E-2,-8.022185E-3,-9.8138414E-2,9.811442E-2,-5.528798E-2,9.8138414E-2,9.8138414E-2,-4.399885E-2,-9.8138414E-2,-6.072543E-2],"categories":[],"categories_nodes":[],"categories_segments":[],"categories_sizes":[],"default_left":[0,0,0,0,0,0,0,0,0,0,0,0,0,0,0,0,0,0,0,0,0,0,0,0,0,0,0,0,0,0,0,0,0],"id":10,"left_children":[1,3,-1,5,7,9,11,13,-1,15,17,19,21,-1,-1,23,25,27,29,31,-1,-1,-1,-1,-1,-1,-1,-1,-1,-1,-1,-1,-1],"loss_changes":[1.1345705E4,1.0744097E3,0E0,2.8600037E2,1.9506836E0,1.5412718E2,5.848886E1,3.0941648E1,0E0,6.0620644E1,4.833554E1,9.689911E0,1.4536571E1,0E0,0E0,2.3785934E0,2.0838442E1,1.6822676E1,3.7515594E1,3.4727783E0,0E0,0E0,0E0,0E0,0E0,0E0,0E0,0E0,0E0,0E0,0E0,0E0,0E0],"parents":[2147483647,0,0,1,1,3,3,4,4,5,5,6,6,7,7,9,9,10,10,11,11,12,12,15,15,16,16,17,17,18,18,19,19],"right_children":[2,4,-1,6,8,10,12,14,-1,16,18,20,22,-1,-1,24,26,28,30,32,-1,-1,-1,-1,-1,-1,-1,-1,-1,-1,-1,-1,-1],"split_conditions":[1.16596315E-2,1E0,-9.8138414E-2,2.5405E4,5.5E1,6.4E-2,3.3677856E1,3.35E-1,9.8138414E-2,1.7161E4,9.580571E0,2.602E4,1.692E2,-9.8138414E-2,9.8138414E-2,2.364909E0,2.0261595E1,3.2416666E-1,7.393248E2,2.5862473E1,7.112096E-2,9.8138414E-2,-9.8138414E-2,-9.8138414E-2,-8.022185E-3,-9.8138414E-2,9.811442E-2,-5.528798E-2,9.8138414E-2,9.8138414E-2,-4.399885E-2,-9.8138414E-2,-6.072543E-2],"split_indices":[60,0,0,28,0,33,43,29,0,20,45,18,14,0,0,56,39,35,40,46,0,0,0,0,0,0,0,0,0,0,0,0,0],"split_type":[0,0,0,0,0,0,0,0,0,0,0,0,0,0,0,0,0,0,0,0,0,0,0,0,0,0,0,0,0,0,0,0,0],"sum_hessian":[7.3817397E3,4.0594744E3,3.3222654E3,5.779207E2,3.4815535E3,3.0597687E2,2.7194388E2,1.857774E1,3.4629758E3,9.821734E1,2.0775952E2,2.5557652E2,1.6367342E1,4.4632697E0,1.4114471E1,7.2118004E1,2.6099333E1,3.3746357E1,1.7401317E2,2.5250647E2,3.0700498E0,1.319547E1,3.1718724E0,6.853106E1,3.586946E0,4.073674E0,2.202566E1,3.0150845E1,3.5955133E0,1.5633469E2,1.7678488E1,2.2584982E2,2.665665E1],"tree_param":{"num_deleted":"0","num_feature":"61","num_nodes":"33","size_leaf_vector":"1"}},{"base_weights":[-8.156577E-3,1E0,-9.8138414E-2,-3.5695577E-1,1E0,2.4159527E-1,-1E0,5.5401874E-1,9.8138414E-2,-5.8899087E-1,6.5566677E-1,-1E0,9.8138414E-2,9.8138414E-2,-9.8138414E-2,-1E0,5.4894626E-1,8.1475985E-1,-6.533029E-1,-1E0,2.9728475E-1,-9.8138414E-2,7.0015036E-2,-9.8138414E-2,8.83657E-2,-9.8138414E-2,9.06037E-2,-9.8138414E-2,3.7564807E-2,-9.8138414E-2,-3.8885336E-2,-6.1188526E-2,9.8138414E-2],"categories":[],"categories_nodes":[],"categories_segments":[],"categories_sizes":[],"default_left":[0,1,0,0,0,0,0,0,0,0,0,0,0,0,0,0,0,0,0,0,0,0,0,0,0,0,0,0,0,0,0,0,0],"id":11,"left_children":[1,3,-1,5,7,9,11,13,-1,15,17,19,-1,-1,-1,21,23,25,27,29,31,-1,-1,-1,-1,-1,-1,-1,-1,-1,-1,-1,-1],"loss_changes":[1.0422793E4,1.0285068E3,0E0,2.5073575E2,2.756836E0,1.0769294E2,3.2751892E1,2.7486584E1,0E0,6.2375614E1,4.364245E1,1.05659485E1,0E0,0E0,0E0,1.0840149E1,1.9734537E1,3.706436E1,1.5920918E1,8.696075E0,6.019147E0,0E0,0E0,0E0,0E0,0E0,0E0,0E0,0E0,0E0,0E0,0E0,0E0],"parents":[2147483647,0,0,1,1,3,3,4,4,5,5,6,6,7,7,9,9,10,10,11,11,15,15,16,16,17,17,18,18,19,19,20,20],"right_children":[2,4,-1,6,8,10,12,14,-1,16,18,20,-1,-1,-1,22,24,26,28,30,32,-1,-1,-1,-1,-1,-1,-1,-1,-1,-1,-1,-1],"split_conditions":[1.16596315E-2,1E0,-9.8138414E-2,4.6E3,5.5E1,6.5E-2,3.3677856E1,1.0099505E-3,9.8138414E-2,1.7161E4,2.314677E0,2.9176647E1,9.8138414E-2,9.8138414E-2,-9.8138414E-2,2.818756E0,8.827177E0,5.6E-2,1.9993E4,2.5862473E1,1.3027956E0,-9.8138414E-2,7.0015036E-2,-9.8138414E-2,8.83657E-2,-9.8138414E-2,9.06037E-2,-9.8138414E-2,3.7564807E-2,-9.8138414E-2,-3.8885336E-2,-6.1188526E-2,9.8138414E-2],"split_indices":[60,0,0,23,0,33,43,60,0,20,57,39,0,0,0,57,10,34,20,46,5,0,0,0,0,0,0,0,0,0,0,0,0],"split_type":[0,0,0,0,0,0,0,0,0,0,0,0,0,0,0,0,0,0,0,0,0,0,0,0,0,0,0,0,0,0,0,0,0],"sum_hessian":[7.11156E3,3.9245366E3,3.1870232E3,5.583557E2,3.366181E3,3.119194E2,2.4643633E2,1.6024433E1,3.3501565E3,1.0358609E2,2.0833331E2,2.4033618E2,6.100151E0,1.1839717E1,4.184716E0,7.061067E1,3.297542E1,1.8591147E2,2.2421848E1,2.3427368E2,6.0625005E0,6.710656E1,3.5041082E0,5.61485E0,2.7360573E1,1.0320856E1,1.755906E2,1.3019897E1,9.401952E0,2.0903973E2,2.523395E1,3.0432405E0,3.0192597E0],"tree_param":{"num_deleted":"0","num_feature":"61","num_nodes":"33","size_leaf_vector":"1"}},{"base_weights":[-1.5466983E-2,1E0,-9.8138414E-2,-3.4781292E-1,1E0,1.9461335E-1,-1E0,6.224462E-1,9.8138414E-2,-7.3422784E-1,6.4591956E-1,-1E0,9.8138414E-2,-9.8138414E-2,9.8138414E-2,-1E0,5.6402045E-1,8.0430835E-1,-8.573068E-1,-1E0,4.7361663E-1,-9.8138414E-2,2.7108993E-2,8.649296E-2,-9.8138414E-2,-9.782592E-2,8.755153E-2,-9.8138414E-2,3.8993504E-2,-9.8138414E-2,6.553781E-2,-9.8138414E-2,9.8138414E-2],"categories":[],"categories_nodes":[],"categories_segments":[],"categories_sizes":[],"default_left":[0,1,0,0,0,0,0,0,0,0,0,0,0,0,0,0,0,0,0,0,0,0,0,0,0,0,0,0,0,0,0,0,0],"id":12,"left_children":[1,3,-1,5,7,9,11,13,-1,15,17,19,-1,-1,-1,21,23,25,27,29,31,-1,-1,-1,-1,-1,-1,-1,-1,-1,-1,-1,-1],"loss_changes":[9.522128E3,9.7499365E2,0E0,2.0534346E2,1.9213867E0,1.2759922E2,2.9461456E1,2.438676E1,0E0,5.8534428E1,4.8936264E1,2.4685486E1,0E0,0E0,0E0,7.252304E0,1.4969177E1,2.9535675E1,1.4121057E1,1.2541473E1,1.8934462E1,0E0,0E0,0E0,0E0,0E0,0E0,0E0,0E0,0E0,0E0,0E0,0E0],"parents":[2147483647,0,0,1,1,3,3,4,4,5,5,6,6,7,7,9,9,10,10,11,11,15,15,16,16,17,17,18,18,19,19,20,20],"right_children":[2,4,-1,6,8,10,12,14,-1,16,18,20,-1,-1,-1,22,24,26,28,30,32,-1,-1,-1,-1,-1,-1,-1,-1,-1,-1,-1,-1],"split_conditions":[1.16596315E-2,1E0,-9.8138414E-2,4.6E3,5.5E1,6.5E-2,3.2519104E1,4.18E-1,9.8138414E-2,1.8522E4,2.314677E0,6.73776E0,9.8138414E-2,-9.8138414E-2,9.8138414E-2,2.818756E0,1.3293571E2,5.6E-2,2.2282421E1,2.37E0,1.2833333E-1,-9.8138414E-2,2.7108993E-2,8.649296E-2,-9.8138414E-2,-9.782592E-2,8.755153E-2,-9.8138414E-2,3.8993504E-2,-9.8138414E-2,6.553781E-2,-9.8138414E-2,9.8138414E-2],"split_indices":[60,0,0,23,0,33,43,32,0,25,57,38,0,0,0,57,55,34,11,32,35,0,0,0,0,0,0,0,0,0,0,0,0],"split_type":[0,0,0,0,0,0,0,0,0,0,0,0,0,0,0,0,0,0,0,0,0,0,0,0,0,0,0,0,0,0,0,0,0],"sum_hessian":[6.8013857E3,3.7385198E3,3.0628657E3,5.365013E2,3.2020183E3,3.0325906E2,2.3324222E2,1.6282413E1,3.185736E3,9.900028E1,2.0425879E2,2.2709387E2,6.148357E0,3.8755937E0,1.240682E1,7.248478E1,2.6515503E1,1.8492543E2,1.9333353E1,2.1593034E2,1.1163514E1,6.82492E1,4.2355843E0,2.2550053E1,3.9654508E0,8.476415E0,1.7644902E2,1.2158803E1,7.17455E0,2.1161281E2,4.3175416E0,3.6513934E0,7.5121207E0],"tree_param":{"num_deleted":"0","num_feature":"61","num_nodes":"33","size_leaf_vector":"1"}},{"base_weights":[-1.3256407E-2,1E0,-9.8138414E-2,-3.7182212E-1,1E0,1.428743E-1,-1E0,7.9964036E-1,9.8138414E-2,-5.8916664E-1,4.9091843E-1,-1E0,-5.290864E-2,-9.8138414E-2,9.8138414E-2,-8.9304346E-1,7.362946E-1,9.542073E-1,-3.0316478E-1,-1E0,-1.8528786E-1,8.7154275E-1,-9.1550547E-1,-5.8288075E-2,-9.8138414E-2,-6.396383E-2,9.8138414E-2,9.8138414E-2,-9.8138414E-2,-9.8138414E-2,4.2090673E-2,-9.8138414E-2,-2.1196624E-2,-9.8138414E-2,9.8138414E-2,9.8138414E-2,-2.6219731E-2,-9.8138414E-2,6.5005906E-3],"categories":[],"categories_nodes":[],"categories_segments":[],"categories_sizes":[],"default_left":[0,1,0,0,0,0,0,0,0,0,0,0,0,0,0,0,0,0,0,0,0,0,0,0,0,0,0,0,0,0,0,0,0,0,0,0,0,0,0],"id":13,"left_children":[1,3,-1,5,7,9,11,13,-1,15,17,19,21,-1,-1,23,25,27,29,31,33,35,37,-1,-1,-1,-1,-1,-1,-1,-1,-1,-1,-1,-1,-1,-1,-1,-1],"loss_changes":[8.594572E3,9.578723E2,0E0,1.6902469E2,1.9160156E0,7.236385E1,3.3461227E1,6.553398E1,0E0,3.696408E1,7.091771E1,5.5104675E0,3.1121086E1,0E0,0E0,6.9686966E0,1.08324795E1,4.1248108E1,4.2109276E1,2.4668274E0,1.6321999E1,1.0061659E1,6.618662E0,0E0,0E0,0E0,0E0,0E0,0E0,0E0,0E0,0E0,0E0,0E0,0E0,0E0,0E0,0E0,0E0],"parents":[2147483647,0,0,1,1,3,3,4,4,5,5,6,6,7,7,9,9,10,10,11,11,12,12,15,15,16,16,17,17,18,18,19,19,20,20,21,21,22,22],"right_children":[2,4,-1,6,8,10,12,14,-1,16,18,20,22,-1,-1,24,26,28,30,32,34,36,38,-1,-1,-1,-1,-1,-1,-1,-1,-1,-1,-1,-1,-1,-1,-1,-1],"split_conditions":[1.16596315E-2,1E0,-9.8138414E-2,4.6E3,0E0,1.0578654E1,3.8222E4,0E0,9.8138414E-2,1.4707733E1,5.212474E0,6.73776E0,7.7217E4,-9.8138414E-2,9.8138414E-2,-6.319355E-1,1.82E-1,2.1855E2,5.214E3,3.0815833E2,1.6150002E1,5.87E-1,2.2724056E1,-5.8288075E-2,-9.8138414E-2,-6.396383E-2,9.8138414E-2,9.8138414E-2,-9.8138414E-2,-9.8138414E-2,4.2090673E-2,-9.8138414E-2,-2.1196624E-2,-9.8138414E-2,9.8138414E-2,9.8138414E-2,-2.6219731E-2,-9.8138414E-2,6.5005906E-3],"split_indices":[60,0,0,23,56,45,26,13,0,7,38,38,27,0,0,6,34,54,25,49,50,31,39,0,0,0,0,0,0,0,0,0,0,0,0,0,0,0,0],"split_type":[0,0,0,0,0,0,0,0,0,0,0,0,0,0,0,0,0,0,0,0,0,0,0,0,0,0,0,0,0,0,0,0,0,0,0,0,0,0,0],"sum_hessian":[6.456778E3,3.566414E3,2.8903638E3,5.087821E2,3.0576318E3,2.8256226E2,2.2621985E2,5.568144E1,3.0019504E3,9.0841385E1,1.9172087E2,1.881809E2,3.803895E1,8.383869E0,4.729757E1,7.4038925E1,1.6802456E1,1.2126087E2,7.046E1,1.7897687E2,9.204026E0,1.8233738E1,1.9805214E1,4.9459732E1,2.4579197E1,4.1403213E0,1.2662135E1,1.147084E2,6.5524726E0,3.35187E1,3.6941296E1,1.740123E2,4.964571E0,5.090876E0,4.11315E0,1.205247E1,6.181267E0,1.4136595E1,5.66862E0],"tree_param":{"num_deleted":"0","num_feature":"61","num_nodes":"39","size_leaf_vector":"1"}},{"base_weights":[-1.4950742E-2,1E0,-9.8138414E-2,-3.4690157E-1,1E0,1.8769999E-1,-9.784121E-1,5.468831E-1,1E0,-8.040883E-1,5.3768915E-1,-1E0,6.7098415E-1,-9.8138414E-2,9.8138414E-2,9.8138414E-2,8.424488E-1,-9.359708E-1,9.8138414E-2,7.8134996E-1,-1E0,-1E0,2.195723E-1,-7.447475E-2,1E0,-9.8138414E-2,9.8138414E-2,-9.8138414E-2,4.232749E-2,8.640163E-2,-9.8138414E-2,5.4280296E-2,-9.8138414E-2,-9.8138414E-2,3.7650436E-2,-6.354596E-2,9.8138414E-2,9.725647E-3,9.8138414E-2],"categories":[],"categories_nodes":[],"categories_segments":[],"categories_sizes":[],"default_left":[0,1,0,0,0,0,0,0,0,0,0,0,0,0,0,0,0,0,0,0,0,0,0,0,0,0,0,0,0,0,0,0,0,0,0,0,0,0,0],"id":14,"left_children":[1,3,-1,5,7,9,11,13,15,17,19,21,23,-1,-1,-1,25,27,-1,29,31,33,35,-1,37,-1,-1,-1,-1,-1,-1,-1,-1,-1,-1,-1,-1,-1,-1],"loss_changes":[7.854889E3,9.2080664E2,0E0,1.7176161E2,1.9643555E0,9.572807E1,5.2008118E1,1.5264067E1,5.551758E-1,2.1920841E1,7.741368E1,9.914673E0,1.112119E1,0E0,0E0,0E0,3.0690174E1,1.0268448E1,0E0,3.745356E1,9.430838E0,6.6199646E0,5.9878483E0,0E0,2.0951252E0,0E0,0E0,0E0,0E0,0E0,0E0,0E0,0E0,0E0,0E0,0E0,0E0,0E0,0E0],"parents":[2147483647,0,0,1,1,3,3,4,4,5,5,6,6,7,7,8,8,9,9,10,10,11,11,12,12,16,16,17,17,19,19,20,20,21,21,22,22,24,24],"right_children":[2,4,-1,6,8,10,12,14,16,18,20,22,24,-1,-1,-1,26,28,-1,30,32,34,36,-1,38,-1,-1,-1,-1,-1,-1,-1,-1,-1,-1,-1,-1,-1,-1],"split_conditions":[1.16596315E-2,1E0,-9.8138414E-2,2.5405E4,5.5E1,9.580571E0,3.0500715E1,6.20259E5,3.3E-1,3.2416666E-1,5.9085503E0,6.9193306E0,1.91E-1,-9.8138414E-2,9.8138414E-2,9.8138414E-2,2.08E-1,3.4079444E0,9.8138414E-2,2.79E1,2E-2,2.0915E4,1.49E2,-7.447475E-2,1.6122234E0,-9.8138414E-2,9.8138414E-2,-9.8138414E-2,4.232749E-2,8.640163E-2,-9.8138414E-2,5.4280296E-2,-9.8138414E-2,-9.8138414E-2,3.7650436E-2,-6.354596E-2,9.8138414E-2,9.725647E-3,9.8138414E-2],"split_indices":[60,0,0,28,0,45,43,21,34,35,38,38,34,0,0,0,35,6,0,50,34,18,16,0,56,0,0,0,0,0,0,0,0,0,0,0,0,0,0],"split_type":[0,0,0,0,0,0,0,0,0,0,0,0,0,0,0,0,0,0,0,0,0,0,0,0,0,0,0,0,0,0,0,0,0,0,0,0,0,0,0],"sum_hessian":[6.1728457E3,3.4134453E3,2.7594001E3,5.0735825E2,2.9060872E3,2.745657E2,2.3279257E2,1.1681501E1,2.8944055E3,7.144799E1,2.031177E2,2.143237E2,1.8468874E1,3.3239532E0,8.357549E0,2.8599717E3,3.4434067E1,6.7926704E1,3.5212872E0,1.75751E2,2.7366688E1,2.0787805E2,6.4456472E0,3.9831362E0,1.4485737E1,6.318616E0,2.8115452E1,6.30068E1,4.919902E0,1.6835217E2,7.3988338E0,3.7109435E0,2.3655745E1,2.046304E2,3.247652E0,3.263434E0,3.1822133E0,3.3675003E0,1.1118237E1],"tree_param":{"num_deleted":"0","num_feature":"61","num_nodes":"39","size_leaf_vector":"1"}},{"base_weights":[-1.57092E-2,-7.988572E-1,2.8991842E-1,-1E0,-4.5084944E-1,-4.527964E-3,5.6068057E-1,-1E0,-5.2827185E-1,3.6256552E-1,-6.6153514E-1,-2.7117208E-1,9.799806E-1,6.488769E-1,-6.642052E-1,-1E0,-8.4652996E-1,5.2827823E-1,-9.0484065E-1,6.7793673E-1,-6.1868054E-1,2.7563754E-1,-7.918979E-1,-6.3947296E-1,6.9930494E-2,4.0994418E-1,1E0,2.6252547E-1,8.717373E-1,-9.3576956E-1,1.3912979E-1,-9.8138414E-2,-0E0,1.6312723E-1,-1E0,9.8138414E-2,-9.8138414E-2,-9.8138414E-2,2.2459991E-1,8.16034E-1,-2.513027E-1,-8.248958E-1,9.8138414E-2,-6.8331295E-1,6.520054E-1,-1E0,-4.4823852E-1,2.8536027E-2,-9.178499E-1,2.2291914E-1,-9.9728096E-1,-1.3503592E-1,9.822475E-1,2.1483947E-1,1E0,7.691697E-1,-1.5715298E-1,6.003655E-1,1E0,-1E0,2.1846505E-1,8.6175483E-1,-8.814343E-1,9.8138414E-2,-5.2186057E-2,-4.618806E-2,-9.8138414E-2,-6.839547E-2,9.8138414E-2,-8.4183365E-2,9.07252E-2,-6.83494E-2,9.8138414E-2,-9.363181E-2,4.7250602E-2,-9.8138414E-2,-2.94636E-3,-6.1653998E-2,8.123485E-2,-9.8138414E-2,6.509249E-2,-5.199922E-2,9.8138414E-2,-5.1576704E-2,4.1312564E-2,2.797136E-2,-9.8138414E-2,3.6008455E-2,-7.835897E-2,-9.8138414E-2,1.10643655E-2,6.6671814E-3,-9.8138414E-2,-2.9355355E-3,9.8138414E-2,9.764018E-2,-8.560411E-2,-0E0,9.8138414E-2,3.318167E-2,9.8138414E-2,-3.0326445E-2,7.798124E-2,9.211945E-2,-1.4416819E-2,-3.783224E-2,9.8138414E-2,-9.441707E-3,-9.8138414E-2,9.8138414E-2,-9.8138414E-2,-2.295999E-2,9.8138414E-2,-9.8138414E-2,4.8121594E-2],"categories":[],"categories_nodes":[],"categories_segments":[],"categories_sizes":[],"default_left":[0,0,0,0,0,0,0,0,0,0,0,0,0,0,0,0,0,0,0,0,0,0,0,0,0,0,0,0,0,0,0,0,0,0,0,0,0,0,0,0,0,0,0,0,0,0,0,0,0,0,0,0,0,0,0,0,0,0,0,0,0,0,0,0,0,0,0,0,0,0,0,0,0,0,0,0,0,0,0,0,0,0,0,0,0,0,0,0,0,0,0,0,0,0,0,0,0,0,0,0,0,0,0,0,0,0,0,0,0,0,0,0,0,0,0],"id":15,"left_children":[1,3,5,7,9,11,13,15,17,19,21,23,25,27,29,31,33,35,37,39,41,43,45,47,49,51,53,55,57,59,61,-1,-1,63,65,-1,-1,-1,67,69,71,73,-1,75,77,79,81,83,85,87,89,91,93,95,97,99,101,103,105,107,109,111,113,-1,-1,-1,-1,-1,-1,-1,-1,-1,-1,-1,-1,-1,-1,-1,-1,-1,-1,-1,-1,-1,-1,-1,-1,-1,-1,-1,-1,-1,-1,-1,-1,-1,-1,-1,-1,-1,-1,-1,-1,-1,-1,-1,-1,-1,-1,-1,-1,-1,-1,-1,-1],"loss_changes":[1.3919541E3,1.765603E2,3.3351932E2,8.820801E0,1.3827788E2,5.260932E2,2.3555847E2,2.442749E0,1.693972E1,5.1571983E1,7.834827E1,1.9824855E2,2.2659668E1,1.7480719E2,3.2101418E1,4.6051636E0,2.6693764E1,1.8039206E1,1.0294582E1,1.6246544E1,1.4677756E1,2.8545109E1,5.1741272E1,1.4116678E2,1.3386337E2,2.1306355E1,4.5104065E0,1.5854526E2,7.08067E1,1.0538742E1,2.7769184E1,0E0,0E0,1.8073307E1,1.4718323E0,0E0,0E0,0E0,5.992716E0,2.0125984E1,1.0908449E1,6.2655296E0,0E0,5.8216724E0,1.2896624E1,2.3414642E1,3.2933624E1,4.8820976E1,6.093979E1,1.05510735E2,8.975777E0,9.331757E0,4.58181E0,7.741289E0,2.76651E0,4.3443893E1,5.905334E1,1.4640959E2,3.215027E1,5.2154236E0,1.4596847E1,5.816698E0,7.3824205E0,0E0,0E0,0E0,0E0,0E0,0E0,0E0,0E0,0E0,0E0,0E0,0E0,0E0,0E0,0E0,0E0,0E0,0E0,0E0,0E0,0E0,0E0,0E0,0E0,0E0,0E0,0E0,0E0,0E0,0E0,0E0,0E0,0E0,0E0,0E0,0E0,0E0,0E0,0E0,0E0,0E0,0E0,0E0,0E0,0E0,0E0,0E0,0E0,0E0,0E0,0E0,0E0],"parents":[2147483647,0,0,1,1,2,2,3,3,4,4,5,5,6,6,7,7,8,8,9,9,10,10,11,11,12,12,13,13,14,14,15,15,16,16,17,17,18,18,19,19,20,20,21,21,22,22,23,23,24,24,25,25,26,26,27,27,28,28,29,29,30,30,33,33,34,34,38,38,39,39,40,40,41,41,43,43,44,44,45,45,46,46,47,47,48,48,49,49,50,50,51,51,52,52,53,53,54,54,55,55,56,56,57,57,58,58,59,59,60,60,61,61,62,62],"right_children":[2,4,6,8,10,12,14,16,18,20,22,24,26,28,30,32,34,36,38,40,42,44,46,48,50,52,54,56,58,60,62,-1,-1,64,66,-1,-1,-1,68,70,72,74,-1,76,78,80,82,84,86,88,90,92,94,96,98,100,102,104,106,108,110,112,114,-1,-1,-1,-1,-1,-1,-1,-1,-1,-1,-1,-1,-1,-1,-1,-1,-1,-1,-1,-1,-1,-1,-1,-1,-1,-1,-1,-1,-1,-1,-1,-1,-1,-1,-1,-1,-1,-1,-1,-1,-1,-1,-1,-1,-1,-1,-1,-1,-1,-1,-1,-1],"split_conditions":[9.911416E0,1.1930542E0,1.16111115E-1,7.994083E0,1.1496E4,7.05E-1,6.283889E0,0E0,5.529E3,1.86E2,-2.1E-2,6.3E-2,7.474E4,1.8362936E0,1.7827E2,1.9714E4,1.042E4,1.4531936E1,5.5633E4,2.542511E0,1.8211E4,3.0785E4,1.2638889E-1,-3E-3,1.1032949E1,3.8333E4,1.6512982E0,8.180113E0,1.3201692E1,4.5249445E2,9.42E0,-9.8138414E-2,-0E0,6.94E2,3.4306E4,9.8138414E-2,-9.8138414E-2,-9.8138414E-2,3.05E-1,1.8131104E0,1.9616077E1,5.5774286E2,9.8138414E-2,6.65E-1,3.021E3,9.45545E5,3.0977137E1,1.05851E5,1.7004864E1,8.2212E2,4.4481E5,1.5541317E1,5.2048817E1,1.5102688E1,3.535875E2,5.006575E0,3.0750326E1,8.867861E0,1.80754E5,2.3481004E0,1E0,2.3275467E1,2.0864E4,9.8138414E-2,-5.2186057E-2,-4.618806E-2,-9.8138414E-2,-6.839547E-2,9.8138414E-2,-8.4183365E-2,9.07252E-2,-6.83494E-2,9.8138414E-2,-9.363181E-2,4.7250602E-2,-9.8138414E-2,-2.94636E-3,-6.1653998E-2,8.123485E-2,-9.8138414E-2,6.509249E-2,-5.199922E-2,9.8138414E-2,-5.1576704E-2,4.1312564E-2,2.797136E-2,-9.8138414E-2,3.6008455E-2,-7.835897E-2,-9.8138414E-2,1.10643655E-2,6.6671814E-3,-9.8138414E-2,-2.9355355E-3,9.8138414E-2,9.764018E-2,-8.560411E-2,-0E0,9.8138414E-2,3.318167E-2,9.8138414E-2,-3.0326445E-2,7.798124E-2,9.211945E-2,-1.4416819E-2,-3.783224E-2,9.8138414E-2,-9.441707E-3,-9.8138414E-2,9.8138414E-2,-9.8138414E-2,-2.295999E-2,9.8138414E-2,-9.8138414E-2,4.8121594E-2],"split_indices":[7,58,36,7,28,32,8,15,28,15,33,33,25,56,54,19,19,2,0,57,23,22,36,36,1,0,9,10,7,55,50,0,0,0,19,0,0,0,33,58,39,54,0,31,18,20,43,25,39,48,0,37,51,44,48,47,43,10,19,6,0,39,17,0,0,0,0,0,0,0,0,0,0,0,0,0,0,0,0,0,0,0,0,0,0,0,0,0,0,0,0,0,0,0,0,0,0,0,0,0,0,0,0,0,0,0,0,0,0,0,0,0,0,0,0],"split_type":[0,0,0,0,0,0,0,0,0,0,0,0,0,0,0,0,0,0,0,0,0,0,0,0,0,0,0,0,0,0,0,0,0,0,0,0,0,0,0,0,0,0,0,0,0,0,0,0,0,0,0,0,0,0,0,0,0,0,0,0,0,0,0,0,0,0,0,0,0,0,0,0,0,0,0,0,0,0,0,0,0,0,0,0,0,0,0,0,0,0,0,0,0,0,0,0,0,0,0,0,0,0,0,0,0,0,0,0,0,0,0,0,0,0,0],"sum_hessian":[5.813008E3,1.6319647E3,4.181043E3,8.2641284E2,8.0555194E2,2.0025184E3,2.1785247E3,7.847851E2,4.1627754E1,1.6550186E2,6.4005005E2,1.5759263E3,4.265923E2,2.0323722E3,1.4615245E2,6.684355E2,1.1634962E2,1.0779289E1,3.0848467E1,1.2542311E2,4.0078754E1,7.794677E1,5.621033E2,7.5807385E2,8.1785236E2,6.6960754E1,3.5963153E2,7.4385126E2,1.288521E3,1.09440094E2,3.6712357E1,6.6362286E2,4.8126254E0,2.1456179E1,9.489343E1,7.7412276E0,3.0380619E0,2.4060913E1,6.7875533E0,1.0940859E2,1.6014517E1,3.595416E1,4.124598E0,2.1799255E1,5.614752E1,3.1108286E2,2.5102043E2,2.2274484E2,5.35329E2,7.154967E2,1.0235568E2,3.4095333E1,3.286542E1,8.2657995E0,3.5136572E2,3.3725403E2,4.0659723E2,5.780979E2,7.1042303E2,1.0228749E2,7.152607E0,2.1624172E1,1.5088182E1,7.7925997E0,1.3663579E1,6.9253783E0,8.7968056E1,3.1250849E0,3.6624687E0,6.5283275E0,1.02880264E2,1.2452443E1,3.5620742E0,3.2877308E1,3.0768497E0,1.2806326E1,8.99293E0,6.621158E0,4.952636E1,3.0281064E2,8.27222E0,2.3905031E2,1.1970126E1,9.210989E1,1.3063495E2,3.8842075E1,4.9648694E2,6.272835E2,8.821315E1,9.533287E1,7.0228124E0,2.980397E1,4.2913623E0,4.0903516E0,2.8775068E1,4.93445E0,3.3313496E0,3.2806926E0,3.4808502E2,1.4103065E2,1.9622337E2,3.5085367E2,5.5743557E1,3.9815158E2,1.7994632E2,1.6538288E1,6.9388477E2,7.1675506E0,9.511994E1,3.3998523E0,3.7527544E0,3.8099966E0,1.7814177E1,1.1908486E1,3.1796958E0],"tree_param":{"num_deleted":"0","num_feature":"61","num_nodes":"115","size_leaf_vector":"1"}},{"base_weights":[-1.7175054E-2,9.779943E-1,-9.8138414E-2,-2.889297E-1,1E0,2.2844411E-1,-8.654911E-1,5.0235426E-1,1E0,-5.4810315E-1,5.0143325E-1,-1E0,4.248173E-1,9.8138414E-2,-9.8138414E-2,8.704154E-1,9.8138414E-2,-2.6607156E-1,-9.8138414E-2,6.89649E-1,-9.0749097E-1,-1E0,-2.8740296E-1,-9.8138414E-2,9.0552235E-1,-9.8138414E-2,9.8138414E-2,-9.8138414E-2,3.626863E-2,7.7284664E-2,-9.8138414E-2,-9.8138414E-2,2.8198324E-2,-9.8138414E-2,-3.082124E-2,-9.8138414E-2,6.1701134E-2,9.8138414E-2,-2.6629224E-2],"categories":[],"categories_nodes":[],"categories_segments":[],"categories_sizes":[],"default_left":[0,1,0,0,0,0,0,0,0,0,0,0,0,0,0,0,0,0,0,0,0,0,0,0,0,0,0,0,0,0,0,0,0,0,0,0,0,0,0],"id":16,"left_children":[1,3,-1,5,7,9,11,13,15,17,19,21,23,-1,-1,25,-1,27,-1,29,31,33,35,-1,37,-1,-1,-1,-1,-1,-1,-1,-1,-1,-1,-1,-1,-1,-1],"loss_changes":[6.7306797E3,7.9553345E2,0E0,1.434888E2,3.1916504E0,5.38448E1,4.5157257E1,2.1136633E1,5.727539E-1,1.35403595E1,4.994078E1,1.9863846E1,2.0184444E1,0E0,0E0,4.064126E1,0E0,2.8566795E1,0E0,3.287996E1,1.01458E1,2.4266205E0,3.2729053E1,0E0,6.4466286E0,0E0,0E0,0E0,0E0,0E0,0E0,0E0,0E0,0E0,0E0,0E0,0E0,0E0,0E0],"parents":[2147483647,0,0,1,1,3,3,4,4,5,5,6,6,7,7,8,8,9,9,10,10,11,11,12,12,15,15,17,17,19,19,20,20,21,21,22,22,24,24],"right_children":[2,4,-1,6,8,10,12,14,16,18,20,22,24,-1,-1,26,-1,28,-1,30,32,34,36,-1,38,-1,-1,-1,-1,-1,-1,-1,-1,-1,-1,-1,-1,-1,-1],"split_conditions":[1.16596315E-2,1E0,-9.8138414E-2,2.2677E4,5.5E1,9.580571E0,6.461082E0,1.0099505E-3,0E0,2.03E0,5.9085503E0,3.6043E4,1.7289633E0,9.8138414E-2,-9.8138414E-2,0E0,9.8138414E-2,0E0,-9.8138414E-2,2.66E1,2.1050001E1,1.5184E4,5.2298E0,-9.8138414E-2,1.1201002E1,-9.8138414E-2,9.8138414E-2,-9.8138414E-2,3.626863E-2,7.7284664E-2,-9.8138414E-2,-9.8138414E-2,2.8198324E-2,-9.8138414E-2,-3.082124E-2,-9.8138414E-2,6.1701134E-2,9.8138414E-2,-2.6629224E-2],"split_indices":[60,0,0,21,0,45,38,60,56,50,38,26,57,0,0,13,0,13,0,50,50,18,38,0,45,0,0,0,0,0,0,0,0,0,0,0,0,0,0],"split_type":[0,0,0,0,0,0,0,0,0,0,0,0,0,0,0,0,0,0,0,0,0,0,0,0,0,0,0,0,0,0,0,0,0,0,0,0,0,0,0],"sum_hessian":[5.6142275E3,3.1060674E3,2.5081602E3,4.7953055E2,2.6265369E3,2.5252966E2,2.2700089E2,1.4723119E1,2.6118137E3,6.546714E1,1.8706253E2,2.0298674E2,2.4014149E1,1.0727678E1,3.9954405E0,5.118446E1,2.5606294E3,5.0427288E1,1.5039854E1,1.6516063E2,2.1901897E1,1.627813E2,4.020544E1,5.062567E0,1.8951582E1,5.2067533E0,4.5977707E1,2.1194584E1,2.9232702E1,1.5789775E2,7.262881E0,1.5921131E1,5.9807673E0,1.5647607E2,6.3052306E0,2.0548471E1,1.965697E1,1.5115719E1,3.8358636E0],"tree_param":{"num_deleted":"0","num_feature":"61","num_nodes":"39","size_leaf_vector":"1"}},{"base_weights":[-1.994014E-2,9.582188E-1,-9.8138414E-2,-2.6438552E-1,1E0,2.404483E-1,-8.582859E-1,5.364252E-1,1E0,-6.4941716E-1,5.5502146E-1,-9.8943186E-1,4.196811E-1,9.8138414E-2,-9.8138414E-2,8.853083E-1,9.8138414E-2,-8.243174E-1,6.7373186E-1,7.4388134E-1,-8.473619E-1,-1E0,2.1141483E-1,1E0,-9.4693476E-1,-9.8138414E-2,1E0,-9.526322E-2,3.750486E-2,1.8394122E-2,9.8138414E-2,8.941914E-2,-1.3595532E-2,-9.8138414E-2,8.241078E-2,-9.8138414E-2,4.386555E-2,-9.8138414E-2,9.8138414E-2,-3.1806696E-3,9.8138414E-2,-3.0086286E-2,-9.8138414E-2,7.266527E-2,9.8138414E-2],"categories":[],"categories_nodes":[],"categories_segments":[],"categories_sizes":[],"default_left":[0,1,0,0,0,0,0,0,0,0,0,0,0,0,0,0,0,0,0,0,0,0,0,0,0,0,0,0,0,0,0,0,0,0,0,0,0,0,0,0,0,0,0,0,0],"id":17,"left_children":[1,3,-1,5,7,9,11,13,15,17,19,21,23,-1,-1,25,-1,27,29,31,33,35,37,39,41,-1,43,-1,-1,-1,-1,-1,-1,-1,-1,-1,-1,-1,-1,-1,-1,-1,-1,-1,-1],"loss_changes":[6.12497E3,7.265508E2,0E0,1.3760675E2,2.472412E0,6.951797E1,3.5445023E1,1.7966782E1,3.7670898E-1,1.5161049E1,4.871408E1,1.9585175E1,1.8075857E1,0E0,0E0,2.9263802E1,0E0,1.0249428E1,1.7035573E0,2.3935051E1,1.0670311E1,1.0087814E1,1.9607637E1,4.253769E0,9.231348E-1,0E0,1.059494E-1,0E0,0E0,0E0,0E0,0E0,0E0,0E0,0E0,0E0,0E0,0E0,0E0,0E0,0E0,0E0,0E0,0E0,0E0],"parents":[2147483647,0,0,1,1,3,3,4,4,5,5,6,6,7,7,8,8,9,9,10,10,11,11,12,12,15,15,17,17,18,18,19,19,20,20,21,21,22,22,23,23,24,24,26,26],"right_children":[2,4,-1,6,8,10,12,14,16,18,20,22,24,-1,-1,26,-1,28,30,32,34,36,38,40,42,-1,44,-1,-1,-1,-1,-1,-1,-1,-1,-1,-1,-1,-1,-1,-1,-1,-1,-1,-1],"split_conditions":[1.16596315E-2,1E0,-9.8138414E-2,2.1434E4,5.5E1,9.839311E0,6.461082E0,1.0099505E-3,0E0,2.4564815E-1,6.0458703E0,1.1074E4,1.1201002E1,9.8138414E-2,-9.8138414E-2,0E0,9.8138414E-2,2.5109142E1,3.03E-1,2.1492512E0,2.496E2,3.9942472E0,2.6483332E1,1.1869971E1,2.6873749E1,-9.8138414E-2,1.5916666E-1,-9.526322E-2,3.750486E-2,1.8394122E-2,9.8138414E-2,8.941914E-2,-1.3595532E-2,-9.8138414E-2,8.241078E-2,-9.8138414E-2,4.386555E-2,-9.8138414E-2,9.8138414E-2,-3.1806696E-3,9.8138414E-2,-3.0086286E-2,-9.8138414E-2,7.266527E-2,9.8138414E-2],"split_indices":[60,0,0,21,0,45,38,60,56,33,38,18,45,0,0,13,0,4,35,57,15,5,41,12,41,0,35,0,0,0,0,0,0,0,0,0,0,0,0,0,0,0,0,0,0],"split_type":[0,0,0,0,0,0,0,0,0,0,0,0,0,0,0,0,0,0,0,0,0,0,0,0,0,0,0,0,0,0,0,0,0,0,0,0,0,0,0,0,0,0,0,0,0],"sum_hessian":[5.292115E3,2.9225325E3,2.3695825E3,4.5742722E2,2.4651052E3,2.4704654E2,2.1038068E2,1.3546509E1,2.4515588E3,6.433412E1,1.8271242E2,1.9096217E2,1.9418505E1,1.0091728E1,3.4547808E0,4.990877E1,2.4016501E3,5.6974987E1,7.3591337E0,1.6116994E2,2.1542488E1,1.7782762E2,1.3134554E1,1.320305E1,6.215455E0,5.5206013E0,4.438817E1,5.0978394E1,5.9965944E0,4.3343415E0,3.024792E0,1.3570378E2,2.5466148E1,1.8452713E1,3.0897768E0,1.7321552E2,4.6121E0,6.2125173E0,6.922036E0,3.763401E0,9.439649E0,3.0111578E0,3.204297E0,6.707095E0,3.7681076E1],"tree_param":{"num_deleted":"0","num_feature":"61","num_nodes":"45","size_leaf_vector":"1"}},{"base_weights":[-1.848352E-2,9.389309E-1,-9.8138414E-2,-7.754808E-2,1E0,-5.2296567E-1,5.5097353E-1,6.4260566E-1,1E0,-3.3676885E-2,-1E0,-9.4462585E-1,7.701878E-1,1.1054903E-2,8.9852995E-1,3.854015E-3,1E0,-9.8138414E-2,5.511932E-1,-1E0,-0E0,-9.8138414E-2,-4.015459E-2,1E0,1.0686423E-1,3.1794286E-1,-3.8780555E-1,9.65417E-1,-0E0,1E0,8.5423684E-1,-3.159653E-2,8.744882E-2,-9.8138414E-2,-6.27531E-2,6.279361E-2,-6.0326084E-2,5.7482947E-2,9.8138414E-2,-9.735732E-2,8.873812E-2,6.1375912E-2,-8.961597E-2,-7.829072E-2,9.421702E-2,9.8138414E-2,-3.340233E-2,6.260611E-2,-8.680554E-2,9.8138414E-2,6.183718E-2,-8.239982E-2,9.8138414E-2],"categories":[],"categories_nodes":[],"categories_segments":[],"categories_sizes":[],"default_left":[0,0,0,0,0,0,0,0,0,0,0,0,0,0,0,0,0,0,0,0,0,0,0,0,0,0,0,0,0,0,0,0,0,0,0,0,0,0,0,0,0,0,0,0,0,0,0,0,0,0,0,0,0],"id":18,"left_children":[1,3,-1,5,7,9,11,13,15,17,19,21,23,25,27,-1,29,-1,31,33,35,-1,-1,37,39,41,43,45,47,49,51,-1,-1,-1,-1,-1,-1,-1,-1,-1,-1,-1,-1,-1,-1,-1,-1,-1,-1,-1,-1,-1,-1],"loss_changes":[5.541267E3,2.1908643E2,0E0,5.5647636E1,8.9161865E1,3.0195127E1,2.711567E1,1.13086914E2,4.435547E0,4.3619488E1,5.924404E0,1.2442808E0,1.419257E1,2.507726E1,2.959967E1,0E0,3.2739258E-1,0E0,1.2556926E1,1.6900635E-1,2.9583225E0,0E0,0E0,1.4304581E0,2.1020672E1,4.38453E1,4.896028E1,2.9180817E1,2.0257061E1,6.1767578E-2,1.9450533E1,0E0,0E0,0E0,0E0,0E0,0E0,0E0,0E0,0E0,0E0,0E0,0E0,0E0,0E0,0E0,0E0,0E0,0E0,0E0,0E0,0E0,0E0],"parents":[2147483647,0,0,1,1,3,3,4,4,5,5,6,6,7,7,8,8,9,9,10,10,11,11,12,12,13,13,14,14,16,16,18,18,19,19,20,20,23,23,24,24,25,25,26,26,27,27,28,28,29,29,30,30],"right_children":[2,4,-1,6,8,10,12,14,16,18,20,22,24,26,28,-1,30,-1,32,34,36,-1,-1,38,40,42,44,46,48,50,52,-1,-1,-1,-1,-1,-1,-1,-1,-1,-1,-1,-1,-1,-1,-1,-1,-1,-1,-1,-1,-1,-1],"split_conditions":[1.16596315E-2,0E0,-9.8138414E-2,1.14E-1,2.8E2,1.9863E4,0E0,1.2877501E2,3.966E4,0E0,5.43E-1,2.125E-1,1.3556E4,1.1875E4,2.2926815E1,3.854015E-3,3.3E-1,-9.8138414E-2,2.12E-1,5.7924E4,6.43E-1,-9.8138414E-2,-4.015459E-2,4.007308E1,4.539E4,5.7068335E2,6.1233726E0,2.8612E2,1.5828206E1,4.33E-1,2.08E-1,-3.159653E-2,8.744882E-2,-9.8138414E-2,-6.27531E-2,6.279361E-2,-6.0326084E-2,5.7482947E-2,9.8138414E-2,-9.735732E-2,8.873812E-2,6.1375912E-2,-8.961597E-2,-7.829072E-2,9.421702E-2,9.8138414E-2,-3.340233E-2,6.260611E-2,-8.680554E-2,9.8138414E-2,6.183718E-2,-8.239982E-2,9.8138414E-2],"split_indices":[60,58,0,35,17,21,13,54,19,13,31,35,23,23,4,0,34,0,32,22,30,0,0,51,22,48,42,14,45,33,35,0,0,0,0,0,0,0,0,0,0,0,0,0,0,0,0,0,0,0,0,0,0],"split_type":[0,0,0,0,0,0,0,0,0,0,0,0,0,0,0,0,0,0,0,0,0,0,0,0,0,0,0,0,0,0,0,0,0,0,0,0,0,0,0,0,0,0,0,0,0,0,0,0,0,0,0,0,0],"sum_hessian":[4.9582974E3,2.744186E3,2.2141116E3,1.9723875E2,2.5469473E3,1.15645775E2,8.159298E1,7.0110345E2,1.8458439E3,6.0885414E1,5.476036E1,1.02977E1,7.129528E1,2.0243623E2,4.986672E2,5.526301E0,1.8403175E3,1.9602806E1,4.1282608E1,4.8694286E1,6.066077E0,5.328132E0,4.9695683E0,4.8184338E1,2.3110943E1,1.1473142E2,8.770481E1,4.6390753E2,3.4759666E1,1.8110671E3,2.9250406E1,1.137935E1,2.990326E1,4.437971E1,4.3145757E0,3.006544E0,3.059533E0,1.0761352E1,3.7422985E1,9.597756E0,1.35131855E1,9.195204E1,2.2779383E1,6.737992E1,2.0324894E1,4.475823E2,1.6325226E1,2.03282E1,1.4431465E1,1.8077224E3,3.3447275E0,5.721337E0,2.352907E1],"tree_param":{"num_deleted":"0","num_feature":"61","num_nodes":"53","size_leaf_vector":"1"}},{"base_weights":[-2.4619596E-2,9.0595424E-1,-9.8138414E-2,-3.540083E-1,1E0,7.767543E-2,-8.705803E-1,8.048465E-1,1E0,-1.6711931E-1,1E0,-1E0,4.8909682E-1,-1E0,1E0,9.8138414E-2,8.205114E-1,-7.1859795E-1,7.69803E-1,4.480246E-1,1E0,-1E0,6.516729E-1,-9.8138414E-2,9.3675065E-1,-9.8138414E-2,-1.7125385E-2,1E0,2.4842843E-2,9.8138414E-2,-4.2725362E-2,-2.918066E-2,-9.8138414E-2,9.8138414E-2,2.5031999E-2,-5.93859E-2,9.8138414E-2,4.810333E-2,9.8138414E-2,-9.8138414E-2,4.4938873E-2,9.8138414E-2,-5.0764773E-2,9.8138414E-2,1.997953E-2,7.659465E-2,9.8138414E-2],"categories":[],"categories_nodes":[],"categories_segments":[],"categories_sizes":[],"default_left":[0,1,0,0,0,0,0,0,0,0,0,0,0,0,0,0,0,0,0,0,0,0,0,0,0,0,0,0,0,0,0,0,0,0,0,0,0,0,0,0,0,0,0,0,0,0,0],"id":19,"left_children":[1,3,-1,5,7,9,11,13,15,17,19,21,23,25,27,-1,29,31,33,35,37,39,41,-1,43,-1,-1,45,-1,-1,-1,-1,-1,-1,-1,-1,-1,-1,-1,-1,-1,-1,-1,-1,-1,-1,-1],"loss_changes":[4.9862744E3,7.266526E2,0E0,9.149539E1,2.050293E0,5.2059425E1,3.433745E1,2.7877079E1,3.125E-1,9.1698784E1,1.5048332E0,2.1594116E1,1.3213951E1,1.542181E0,1.2914009E0,0E0,7.225363E0,1.5177597E1,9.086399E0,7.0497446E0,4.2403412E-1,7.2604523E0,6.9002724E0,0E0,2.1779041E0,0E0,0E0,1.8357849E-1,0E0,0E0,0E0,0E0,0E0,0E0,0E0,0E0,0E0,0E0,0E0,0E0,0E0,0E0,0E0,0E0,0E0,0E0,0E0],"parents":[2147483647,0,0,1,1,3,3,4,4,5,5,6,6,7,7,8,8,9,9,10,10,11,11,12,12,13,13,14,14,16,16,17,17,18,18,19,19,20,20,21,21,22,22,24,24,27,27],"right_children":[2,4,-1,6,8,10,12,14,16,18,20,22,24,26,28,-1,30,32,34,36,38,40,42,-1,44,-1,-1,46,-1,-1,-1,-1,-1,-1,-1,-1,-1,-1,-1,-1,-1,-1,-1,-1,-1,-1,-1],"split_conditions":[1.16596315E-2,1E0,-9.8138414E-2,2.5405E4,1.2672831E0,2.6083332E-1,3.0500715E1,0E0,2.9176647E1,9.4789E4,4.2097087E0,6.8460493E0,1.6122234E0,-7.45E0,1.2119916E1,9.8138414E-2,9.130714E0,-6.319355E-1,7.0241144E2,3.1583333E-1,3.5254998E0,2.318E4,4.7709663E1,-9.8138414E-2,1.8316452E1,-9.8138414E-2,-1.7125385E-2,3.0514563E1,2.4842843E-2,9.8138414E-2,-4.2725362E-2,-2.918066E-2,-9.8138414E-2,9.8138414E-2,2.5031999E-2,-5.93859E-2,9.8138414E-2,4.810333E-2,9.8138414E-2,-9.8138414E-2,4.4938873E-2,9.8138414E-2,-5.0764773E-2,9.8138414E-2,1.997953E-2,7.659465E-2,9.8138414E-2],"split_indices":[60,0,0,28,57,33,43,13,39,20,38,38,56,36,12,0,1,6,40,35,8,18,51,0,39,0,0,51,0,0,0,0,0,0,0,0,0,0,0,0,0,0,0,0,0,0,0],"split_type":[0,0,0,0,0,0,0,0,0,0,0,0,0,0,0,0,0,0,0,0,0,0,0,0,0,0,0,0,0,0,0,0,0,0,0,0,0,0,0,0,0,0,0,0,0,0,0],"sum_hessian":[4.6787036E3,2.5975806E3,2.0811228E3,4.086393E2,2.1889414E3,2.223703E2,1.86269E2,6.215007E1,2.1267913E3,1.764042E2,4.596609E1,1.6961961E2,1.664938E1,6.6475134E0,5.5502556E1,2.1074941E3,1.9297056E1,1.1119635E2,6.520786E1,6.511572E0,3.9454517E1,1.6189622E2,7.7233987E0,3.3089638E0,1.3340416E1,3.4985616E0,3.1489515E0,5.2169365E1,3.3331895E0,1.57545595E1,3.542497E0,4.9295086E1,6.190126E1,4.1868565E1,2.3339296E1,3.1645813E0,3.3469906E0,3.400551E0,3.6053967E1,1.5868561E2,3.2106123E0,4.623608E0,3.0997908E0,8.959865E0,4.3805513E0,1.0609092E1,4.1560272E1],"tree_param":{"num_deleted":"0","num_feature":"61","num_nodes":"47","size_leaf_vector":"1"}},{"base_weights":[-2.4125516E-2,8.7778336E-1,-9.8138414E-2,-3.150996E-1,1E0,7.0133515E-2,-7.980617E-1,3.68891E-1,1E0,-1.9265305E-1,1E0,-1E0,1.1539996E-1,9.8138414E-2,-9.8138414E-2,1E0,6.2500703E-1,-7.3605406E-1,7.0589155E-1,1.7403096E-1,1E0,-1E0,4.0825894E-1,8.6553E-1,-1E0,7.697926E-1,1E0,9.8138414E-2,-8.092037E-2,-4.1511808E-2,-9.510672E-2,9.8138414E-2,8.4746E-3,-5.7034004E-2,9.7311564E-2,5.804098E-2,9.8138414E-2,-9.8138414E-2,3.3418161E-3,-6.316844E-2,9.8138414E-2,-3.2070722E-2,9.8138414E-2,-9.8138414E-2,-3.794386E-2,-9.8138414E-2,9.8138414E-2,9.8138414E-2,8.3689034E-2],"categories":[],"categories_nodes":[],"categories_segments":[],"categories_sizes":[],"default_left":[0,1,0,0,0,0,0,0,0,0,0,0,0,0,0,0,0,0,0,0,0,0,0,0,0,0,0,0,0,0,0,0,0,0,0,0,0,0,0,0,0,0,0,0,0,0,0,0,0],"id":20,"left_children":[1,3,-1,5,7,9,11,13,15,17,19,21,23,-1,-1,25,27,29,31,33,35,37,39,41,43,45,47,-1,-1,-1,-1,-1,-1,-1,-1,-1,-1,-1,-1,-1,-1,-1,-1,-1,-1,-1,-1,-1,-1],"loss_changes":[4.440946E3,6.7264685E2,0E0,7.657099E1,4.2631836E0,5.7014477E1,3.3768272E1,1.6901066E1,3.00708E0,8.7343056E1,3.689022E0,1.6608292E1,2.9584156E1,0E0,0E0,1.7451172E0,1.954358E1,7.9090576E0,1.25358925E1,4.5758204E0,2.8359222E-1,6.7467957E0,7.0710173E0,1.1337473E1,6.9113445E-1,2.766267E1,2.3095703E-1,0E0,0E0,0E0,0E0,0E0,0E0,0E0,0E0,0E0,0E0,0E0,0E0,0E0,0E0,0E0,0E0,0E0,0E0,0E0,0E0,0E0,0E0],"parents":[2147483647,0,0,1,1,3,3,4,4,5,5,6,6,7,7,8,8,9,9,10,10,11,11,12,12,15,15,16,16,17,17,18,18,19,19,20,20,21,21,22,22,23,23,24,24,25,25,26,26],"right_children":[2,4,-1,6,8,10,12,14,16,18,20,22,24,-1,-1,26,28,30,32,34,36,38,40,42,44,46,48,-1,-1,-1,-1,-1,-1,-1,-1,-1,-1,-1,-1,-1,-1,-1,-1,-1,-1,-1,-1,-1,-1],"split_conditions":[1.16596315E-2,1E0,-9.8138414E-2,2.5405E4,5.5E1,2.6083332E-1,3.1293087E1,1.0099505E-3,3.3E-1,8.6572E4,6.3278913E0,3.0500715E1,2.6098999E1,9.8138414E-2,-9.8138414E-2,0E0,2.4618225E0,-6.319355E-1,7.9444446E-2,3.302E3,1.3680714E2,2.7666667E-1,6.76E3,1.8805556E-1,8.94E1,0E0,2.9176647E1,9.8138414E-2,-8.092037E-2,-4.1511808E-2,-9.510672E-2,9.8138414E-2,8.4746E-3,-5.7034004E-2,9.7311564E-2,5.804098E-2,9.8138414E-2,-9.8138414E-2,3.3418161E-3,-6.316844E-2,9.8138414E-2,-3.2070722E-2,9.8138414E-2,-9.8138414E-2,-3.794386E-2,-9.8138414E-2,9.8138414E-2,9.8138414E-2,8.3689034E-2],"split_indices":[60,0,0,28,0,33,3,60,34,20,44,43,4,0,0,56,58,6,34,21,15,35,26,34,15,13,39,0,0,0,0,0,0,0,0,0,0,0,0,0,0,0,0,0,0,0,0,0,0],"split_type":[0,0,0,0,0,0,0,0,0,0,0,0,0,0,0,0,0,0,0,0,0,0,0,0,0,0,0,0,0,0,0,0,0,0,0,0,0,0,0,0,0,0,0,0,0,0,0,0,0],"sum_hessian":[4.3537407E3,2.4349636E3,1.918777E3,4.0969553E2,2.0252682E3,2.2764432E2,1.8205122E2,1.1996577E1,2.0132716E3,1.7779321E2,4.985111E1,1.4927782E2,3.277339E1,8.393451E0,3.603127E0,1.9890521E3,2.4219517E1,1.1094929E2,6.6843925E1,6.292499E0,4.355861E1,1.411119E2,8.165939E0,2.0126055E1,1.2647337E1,3.9205635E1,1.9498464E3,1.7583906E1,6.6356115E0,4.7764393E1,6.31849E1,4.43692E1,2.2474722E1,3.1262014E0,3.1662977E0,4.1774573E0,3.938115E1,1.3502959E2,6.082296E0,3.3332686E0,4.8326707E0,6.381029E0,1.3745026E1,9.4625E0,3.1848373E0,4.9540772E0,3.425156E1,1.9255876E3,2.425879E1],"tree_param":{"num_deleted":"0","num_feature":"61","num_nodes":"49","size_leaf_vector":"1"}},{"base_weights":[-2.1014255E-2,8.7398285E-1,-9.8138414E-2,4.4527262E-1,1E0,-6.2161412E-2,7.849339E-1,2.4591543E-1,1E0,2.3354946E-1,-5.2395904E-1,3.3279064E-1,9.284817E-1,-9.8138414E-2,7.9600203E-1,7.954646E-1,1E0,-9.2691934E-1,3.9713922E-1,-9.0901494E-1,3.3136022E-1,-3.401032E-2,1E0,-5.637214E-1,9.862148E-1,9.8138414E-2,1.4323586E-1,7.781625E-2,1E0,9.8138414E-2,6.624176E-1,-9.8138414E-2,-0E0,6.297036E-2,-5.1213134E-2,-9.68801E-2,9.8138414E-2,-9.8138414E-2,7.228468E-2,9.8138414E-2,-2.6843077E-2,4.1462056E-2,9.8138414E-2,-9.8085105E-2,6.339774E-2,9.8138414E-2,-2.4635963E-2,-8.335068E-2,8.4373385E-2,-4.5057315E-2,8.8842265E-2,9.8138414E-2,-0E0,9.8138414E-2,-9.547445E-2],"categories":[],"categories_nodes":[],"categories_segments":[],"categories_sizes":[],"default_left":[0,0,0,0,0,0,0,0,0,0,0,0,0,0,0,0,0,0,0,0,0,0,0,0,0,0,0,0,0,0,0,0,0,0,0,0,0,0,0,0,0,0,0,0,0,0,0,0,0,0,0,0,0,0,0],"id":21,"left_children":[1,3,-1,5,7,9,11,13,15,17,19,21,23,-1,25,27,29,31,33,35,37,39,41,43,45,-1,47,49,51,-1,53,-1,-1,-1,-1,-1,-1,-1,-1,-1,-1,-1,-1,-1,-1,-1,-1,-1,-1,-1,-1,-1,-1,-1,-1],"loss_changes":[4.0881711E3,1.9300354E2,0E0,1.2881197E2,1.4135498E1,4.1176342E1,2.8769867E1,2.2071798E1,3.5981445E0,3.4849876E1,3.885727E1,2.8107433E1,2.9370758E1,0E0,4.222974E0,1.9803333E1,1.4929199E0,3.9118767E0,3.614241E1,1.2478813E1,2.3070194E1,2.2044186E1,1.3038445E0,7.0230327E0,1.2068817E1,0E0,6.0131087E0,1.3328653E1,3.1064224E0,0E0,1.1209139E1,0E0,0E0,0E0,0E0,0E0,0E0,0E0,0E0,0E0,0E0,0E0,0E0,0E0,0E0,0E0,0E0,0E0,0E0,0E0,0E0,0E0,0E0,0E0,0E0],"parents":[2147483647,0,0,1,1,3,3,4,4,5,5,6,6,7,7,8,8,9,9,10,10,11,11,12,12,14,14,15,15,16,16,17,17,18,18,19,19,20,20,21,21,22,22,23,23,24,24,26,26,27,27,28,28,30,30],"right_children":[2,4,-1,6,8,10,12,14,16,18,20,22,24,-1,26,28,30,32,34,36,38,40,42,44,46,-1,48,50,52,-1,54,-1,-1,-1,-1,-1,-1,-1,-1,-1,-1,-1,-1,-1,-1,-1,-1,-1,-1,-1,-1,-1,-1,-1,-1],"split_conditions":[1.16596315E-2,5.22E2,-9.8138414E-2,1.315E2,4.328E3,1.3102E4,1.7898865E0,3.9163333E2,8.870372E0,0E0,2.1666667E0,5.5E-1,4.1425674E2,-9.8138414E-2,1.5427142E2,5.63E-1,2.9176647E1,1.7166667E-1,2.1726666E2,2.6E-1,1.8132795E0,-3.6E-2,1.1167603E0,2.1E-1,2.96311E1,9.8138414E-2,4.07444E5,3.4462E4,4.1706176E0,9.8138414E-2,1.3821214E1,-9.8138414E-2,-0E0,6.297036E-2,-5.1213134E-2,-9.68801E-2,9.8138414E-2,-9.8138414E-2,7.228468E-2,9.8138414E-2,-2.6843077E-2,4.1462056E-2,9.8138414E-2,-9.8085105E-2,6.339774E-2,9.8138414E-2,-2.4635963E-2,-8.335068E-2,8.4373385E-2,-4.5057315E-2,8.8842265E-2,9.8138414E-2,-0E0,9.8138414E-2,-9.547445E-2],"split_indices":[60,18,0,54,26,27,56,48,7,13,50,32,40,0,13,31,39,35,52,36,6,36,56,36,3,0,19,22,2,0,37,0,0,0,0,0,0,0,0,0,0,0,0,0,0,0,0,0,0,0,0,0,0,0,0],"split_type":[0,0,0,0,0,0,0,0,0,0,0,0,0,0,0,0,0,0,0,0,0,0,0,0,0,0,0,0,0,0,0,0,0,0,0,0,0,0,0,0,0,0,0,0,0,0,0,0,0,0,0,0,0,0,0],"sum_hessian":[4.075254E3,2.2759343E3,1.7993195E3,7.459328E2,1.5300016E3,2.9882916E2,4.471036E2,2.5862562E1,1.504139E3,1.8187372E2,1.1695545E2,1.08123886E2,3.3897974E2,6.6340733E0,1.9228489E1,9.367932E1,1.4104597E3,2.2298836E1,1.5957489E2,8.083196E1,3.6123486E1,7.0654106E1,3.7469776E1,1.2479641E1,3.265001E2,1.1733428E1,7.4950614E0,2.849212E1,6.5187195E1,1.3940126E3,1.644715E1,1.7754791E1,4.5440454E0,1.2623581E2,3.3339073E1,7.780166E1,3.0303042E0,7.276923E0,2.8846561E1,1.05474205E1,6.010669E1,5.3806496E0,3.2089127E1,9.313287E0,3.1663542E0,3.1897372E2,7.526359E0,3.008983E0,4.4860783E0,1.7112598E1,1.1379523E1,6.1860832E1,3.3263662E0,1.3317239E1,3.1299098E0],"tree_param":{"num_deleted":"0","num_feature":"61","num_nodes":"55","size_leaf_vector":"1"}},{"base_weights":[-1.9230155E-2,8.499319E-1,-9.8138414E-2,-2.5091764E-1,1E0,5.616056E-2,-8.201149E-1,6.9330496E-1,1E0,-3.0167478E-1,3.3942246E-1,-1E0,-9.0053186E-2,-1E0,9.8100275E-1,1E0,6.390336E-1,-6.7981124E-1,4.4496146E-1,-7.283052E-1,5.2161145E-1,-1E0,-2.9995518E-2,-9.943431E-1,5.4960877E-1,-1.5206782E-2,-9.8138414E-2,4.9499074E-1,1E0,1E0,7.282981E-1,-9.0315774E-2,9.8138414E-2,-7.9063356E-2,8.175455E-2,7.7542044E-2,-9.8138414E-2,-9.8138414E-2,1.2223251E-2,7.0833325E-2,-6.1798785E-2,-9.8138414E-2,-5.2826907E-2,-2.1737417E-2,-9.8138414E-2,8.1667006E-2,-7.622765E-2,-8.48357E-2,9.8138414E-2,9.8138414E-2,5.692823E-2,9.8138414E-2,7.056557E-2,9.200417E-2,-0E0],"categories":[],"categories_nodes":[],"categories_segments":[],"categories_sizes":[],"default_left":[0,1,0,0,0,0,0,0,0,0,0,0,0,0,0,0,0,0,0,0,0,0,0,0,0,0,0,0,0,0,0,0,0,0,0,0,0,0,0,0,0,0,0,0,0,0,0,0,0,0,0,0,0,0,0],"id":22,"left_children":[1,3,-1,5,7,9,11,13,15,17,19,21,23,25,27,29,31,33,35,37,39,41,-1,43,45,-1,-1,47,49,51,53,-1,-1,-1,-1,-1,-1,-1,-1,-1,-1,-1,-1,-1,-1,-1,-1,-1,-1,-1,-1,-1,-1,-1,-1],"loss_changes":[3.6938728E3,5.467455E2,0E0,6.6844154E1,4.7807617E0,2.5263962E1,2.2685646E1,2.7376165E1,2.7226562E0,3.1028904E1,2.7141281E1,2.1718369E0,1.9970947E1,1.9831486E0,2.5806847E0,8.105469E-1,1.9326855E1,1.4040028E1,2.559196E1,1.1257148E1,2.7494453E1,1.3884201E0,0E0,1.2458992E0,7.610991E0,0E0,0E0,9.143781E0,2.4483109E-1,5.506592E-1,2.2349281E0,0E0,0E0,0E0,0E0,0E0,0E0,0E0,0E0,0E0,0E0,0E0,0E0,0E0,0E0,0E0,0E0,0E0,0E0,0E0,0E0,0E0,0E0,0E0,0E0],"parents":[2147483647,0,0,1,1,3,3,4,4,5,5,6,6,7,7,8,8,9,9,10,10,11,11,12,12,13,13,14,14,15,15,16,16,17,17,18,18,19,19,20,20,21,21,23,23,24,24,27,27,28,28,29,29,30,30],"right_children":[2,4,-1,6,8,10,12,14,16,18,20,22,24,26,28,30,32,34,36,38,40,42,-1,44,46,-1,-1,48,50,52,54,-1,-1,-1,-1,-1,-1,-1,-1,-1,-1,-1,-1,-1,-1,-1,-1,-1,-1,-1,-1,-1,-1,-1,-1],"split_conditions":[1.16596315E-2,1E0,-9.8138414E-2,1.1875E4,1.2672831E0,2.7247221E0,3.6043E4,0E0,3.3E-1,9.0984E4,8.479008E0,2.6666668E-1,2.513214E0,2.82E-1,5.96E2,7.1709743E0,9.253E3,2.3275438E1,2.5506666E1,6.5711203E0,2.0052223E2,2.796641E0,-2.9995518E-2,2.85E-1,2.3883617E1,-1.5206782E-2,-9.8138414E-2,1.528E2,1.7352707E1,2.9176647E1,6.9207806E2,-9.0315774E-2,9.8138414E-2,-7.9063356E-2,8.175455E-2,7.7542044E-2,-9.8138414E-2,-9.8138414E-2,1.2223251E-2,7.0833325E-2,-6.1798785E-2,-9.8138414E-2,-5.2826907E-2,-2.1737417E-2,-9.8138414E-2,8.1667006E-2,-7.622765E-2,-8.48357E-2,9.8138414E-2,9.8138414E-2,5.692823E-2,9.8138414E-2,7.056557E-2,9.200417E-2,-0E0],"split_indices":[60,0,0,23,57,8,26,13,34,25,44,36,59,29,23,38,0,44,41,47,14,57,0,32,45,0,0,16,44,39,40,0,0,0,0,0,0,0,0,0,0,0,0,0,0,0,0,0,0,0,0,0,0,0,0],"split_type":[0,0,0,0,0,0,0,0,0,0,0,0,0,0,0,0,0,0,0,0,0,0,0,0,0,0,0,0,0,0,0,0,0,0,0,0,0,0,0,0,0,0,0,0,0,0,0,0,0,0,0,0,0,0,0],"sum_hessian":[3.8275781E3,2.1548328E3,1.6727454E3,3.8013193E2,1.7747007E3,2.4666026E2,1.3347166E2,5.4728905E1,1.7199718E3,1.0862899E2,1.3803128E2,1.00230446E2,3.3241215E1,7.7592983E0,4.6969604E1,1.696066E3,2.3905777E1,7.231155E1,3.6317444E1,1.9937382E1,1.180939E2,9.459756E1,5.6328917E0,1.3919378E1,1.9321836E1,3.6349163E0,4.124382E0,1.1929219E1,3.5040386E1,1.6803221E3,1.5743918E1,5.843581E0,1.8062197E1,6.689835E1,5.41319E0,3.1631073E1,4.68637E0,1.0243643E1,9.693739E0,1.0077233E2,1.7321568E1,8.602996E1,8.567593E0,3.0107942E0,1.0908585E1,1.607009E1,3.2517457E0,3.227617E0,8.701603E0,3.1275997E1,3.7643898E0,1.6688386E3,1.148355E1,1.2124722E1,3.619197E0],"tree_param":{"num_deleted":"0","num_feature":"61","num_nodes":"55","size_leaf_vector":"1"}},{"base_weights":[-3.352255E-2,-7.00502E-1,2.1140808E-1,-7.872907E-1,8.372921E-1,-1.7703181E-2,5.542867E-1,-9.564286E-1,-4.498446E-1,-6.254238E-2,9.4188166E-1,-2.4121416E-1,2.7109239E-1,8.821407E-1,3.8256454E-1,-1E0,-7.0514125E-1,1.4441109E-1,-6.001E-1,1E0,4.171881E-1,-5.4796416E-1,1.8670116E-2,7.2988635E-1,7.4467994E-2,-2.240258E-1,9.379989E-1,-3.9426064E-1,5.820044E-1,-1E0,1.9069651E-2,2.983697E-1,-8.535613E-1,-9.3893695E-1,6.9648683E-1,3.665139E-1,-7.086254E-1,7.0696056E-1,9.8138414E-2,9.027161E-2,-0E0,-7.3378986E-1,1.0618327E-1,2.4976005E-1,-5.206266E-1,-9.8138414E-2,8.694577E-1,-3.3269614E-1,4.1227213E-1,6.867666E-2,-6.1964077E-1,1E0,4.819475E-1,5.035328E-1,-7.1383405E-1,6.925656E-1,-1.3838837E-1,-9.8138414E-2,-5.567436E-2,6.7562945E-2,-9.723026E-2,-9.75345E-2,-2.6334297E-2,-5.813931E-3,-9.8138414E-2,8.544432E-2,-4.1521687E-2,6.1800048E-2,-3.46683E-2,-9.8138414E-2,-3.5557136E-2,4.0659957E-2,9.373392E-2,-1.6495071E-2,-8.148167E-2,6.854887E-2,-3.716446E-2,6.1501455E-2,3.4882582E-3,9.1241606E-2,-6.6586986E-2,9.8138414E-2,-9.859639E-3,-5.896459E-2,1.0394244E-2,7.67964E-2,7.873267E-3,1.8161029E-2,-9.8138414E-2,4.575038E-3,9.8138414E-2,-4.251608E-2,6.7106366E-2,-6.325788E-2,7.3208004E-2,-7.9315476E-2,9.4231874E-2,-4.4728402E-2,7.499987E-2,-7.927553E-2,2.5638498E-2],"categories":[],"categories_nodes":[],"categories_segments":[],"categories_sizes":[],"default_left":[0,0,0,0,0,0,0,0,0,0,0,0,0,0,0,0,0,0,0,0,0,0,0,0,0,0,0,0,0,0,0,0,0,0,0,0,0,0,0,0,0,0,0,0,0,0,0,0,0,0,0,0,0,0,0,0,0,0,0,0,0,0,0,0,0,0,0,0,0,0,0,0,0,0,0,0,0,0,0,0,0,0,0,0,0,0,0,0,0,0,0,0,0,0,0,0,0,0,0,0,0],"id":23,"left_children":[1,3,5,7,9,11,13,15,17,-1,19,21,23,25,27,29,31,33,35,37,39,41,43,45,47,49,51,53,55,57,-1,59,61,63,65,67,69,71,-1,-1,-1,73,75,77,79,-1,81,83,85,-1,87,89,91,93,95,97,99,-1,-1,-1,-1,-1,-1,-1,-1,-1,-1,-1,-1,-1,-1,-1,-1,-1,-1,-1,-1,-1,-1,-1,-1,-1,-1,-1,-1,-1,-1,-1,-1,-1,-1,-1,-1,-1,-1,-1,-1,-1,-1,-1,-1],"loss_changes":[5.813983E2,1.2774921E2,2.0452838E2,5.14021E1,8.0658455E0,1.008128E2,5.857596E1,1.7632874E1,2.713834E1,0E0,1.5918045E0,7.02861E1,6.129531E1,2.219281E1,1.0624603E2,4.668274E0,3.290361E1,3.691124E1,2.5511345E1,2.8041458E-1,1.650463E0,4.9205E1,5.952875E1,5.142856E1,6.577575E1,6.642732E0,1.186441E1,4.0375237E1,4.3494705E1,2.947998E-1,0E0,1.4632182E1,1.5439255E1,2.683941E0,8.086418E0,4.8420324E0,2.5051628E1,3.7148E-1,0E0,0E0,0E0,1.689415E1,2.6052662E1,2.6877106E1,3.290712E1,0E0,2.5753738E1,2.5555449E1,3.193684E1,0E0,5.4988747E0,5.3961487E0,9.594264E0,1.0457933E1,1.6572086E1,3.9037735E1,1.9833303E1,0E0,0E0,0E0,0E0,0E0,0E0,0E0,0E0,0E0,0E0,0E0,0E0,0E0,0E0,0E0,0E0,0E0,0E0,0E0,0E0,0E0,0E0,0E0,0E0,0E0,0E0,0E0,0E0,0E0,0E0,0E0,0E0,0E0,0E0,0E0,0E0,0E0,0E0,0E0,0E0,0E0,0E0,0E0,0E0],"parents":[2147483647,0,0,1,1,2,2,3,3,4,4,5,5,6,6,7,7,8,8,10,10,11,11,12,12,13,13,14,14,15,15,16,16,17,17,18,18,19,19,20,20,21,21,22,22,23,23,24,24,25,25,26,26,27,27,28,28,29,29,31,31,32,32,33,33,34,34,35,35,36,36,37,37,41,41,42,42,43,43,44,44,46,46,47,47,48,48,50,50,51,51,52,52,53,53,54,54,55,55,56,56],"right_children":[2,4,6,8,10,12,14,16,18,-1,20,22,24,26,28,30,32,34,36,38,40,42,44,46,48,50,52,54,56,58,-1,60,62,64,66,68,70,72,-1,-1,-1,74,76,78,80,-1,82,84,86,-1,88,90,92,94,96,98,100,-1,-1,-1,-1,-1,-1,-1,-1,-1,-1,-1,-1,-1,-1,-1,-1,-1,-1,-1,-1,-1,-1,-1,-1,-1,-1,-1,-1,-1,-1,-1,-1,-1,-1,-1,-1,-1,-1,-1,-1,-1,-1,-1,-1],"split_conditions":[5.4545456E-1,2.68E0,3.5397E4,1.6171468E0,8.077E3,1.3138889E-1,1.21578E5,0E0,1.183E3,-6.254238E-2,3.81E0,1.1610161E1,1.6076E2,3.8813E4,1.2833333E-1,2.21512E5,-1.4305556E-2,6.2E-2,-1E-3,2.1443E4,2.5322468E0,5.96E-1,1.65E2,2.1901827E0,3.9735E4,1.419393E0,7.350705E2,-4.4E-2,1.9736667E2,1.1726583E0,1.9069651E-2,1.1211137E1,2.1916667E-1,1.9891968E0,1.59188E5,2.2434692E0,1.2583333E-1,3.538E4,9.8138414E-2,9.027161E-2,-0E0,4.715783E0,2.1637903E1,9.157641E0,1.9580791E1,-9.8138414E-2,1.3058871E0,2.50309E1,8.006388E0,6.867666E-2,8.37859E0,3.3638332E0,1.2672E4,7.9579E4,3.2830837E1,1.0801128E1,2.2834942E1,-9.8138414E-2,-5.567436E-2,6.7562945E-2,-9.723026E-2,-9.75345E-2,-2.6334297E-2,-5.813931E-3,-9.8138414E-2,8.544432E-2,-4.1521687E-2,6.1800048E-2,-3.46683E-2,-9.8138414E-2,-3.5557136E-2,4.0659957E-2,9.373392E-2,-1.6495071E-2,-8.148167E-2,6.854887E-2,-3.716446E-2,6.1501455E-2,3.4882582E-3,9.1241606E-2,-6.6586986E-2,9.8138414E-2,-9.859639E-3,-5.896459E-2,1.0394244E-2,7.67964E-2,7.873267E-3,1.8161029E-2,-9.8138414E-2,4.575038E-3,9.8138414E-2,-4.251608E-2,6.7106366E-2,-6.325788E-2,7.3208004E-2,-7.9315476E-2,9.4231874E-2,-4.4728402E-2,7.499987E-2,-7.927553E-2,2.5638498E-2],"split_indices":[50,29,26,56,27,36,28,14,22,0,31,7,24,26,35,28,36,36,34,22,57,32,14,9,0,56,40,35,14,56,0,44,35,57,25,58,35,0,0,0,0,10,43,10,46,0,6,39,10,0,1,8,28,22,43,7,39,0,0,0,0,0,0,0,0,0,0,0,0,0,0,0,0,0,0,0,0,0,0,0,0,0,0,0,0,0,0,0,0,0,0,0,0,0,0,0,0,0,0,0,0],"split_type":[0,0,0,0,0,0,0,0,0,0,0,0,0,0,0,0,0,0,0,0,0,0,0,0,0,0,0,0,0,0,0,0,0,0,0,0,0,0,0,0,0,0,0,0,0,0,0,0,0,0,0,0,0,0,0,0,0,0,0,0,0,0,0,0,0,0,0,0,0,0,0,0,0,0,0,0,0,0,0,0,0,0,0,0,0,0,0,0,0,0,0,0,0,0,0,0,0,0,0,0,0],"sum_hessian":[3.555836E3,9.553144E2,2.6005215E3,9.044196E2,5.089478E1,1.5584813E3,1.0420402E3,6.020031E2,3.0241653E2,3.2266023E0,4.7668175E1,8.7898584E2,6.794954E2,3.5773068E2,6.843095E2,3.822232E2,2.197799E2,6.072711E1,2.4168942E2,4.1172897E1,6.4952774E0,4.035448E2,4.75441E2,2.0350006E2,4.759954E2,1.7000046E1,3.4073062E2,1.3956342E2,5.447461E2,3.791721E2,3.0511165E0,2.811976E1,1.9166016E2,2.0360626E1,4.036648E1,2.418452E1,2.175049E2,7.4713483E0,3.370155E1,3.1284754E0,3.3668017E0,3.1454044E2,8.900439E1,3.331204E2,1.4232063E2,1.4507034E1,1.8899303E2,2.1553334E2,2.6046204E2,4.924656E0,1.207539E1,2.9007266E2,5.0657963E1,3.6450016E1,1.0311339E2,4.7253983E2,7.220625E1,3.753286E2,3.8434634E0,2.1723156E1,6.3966045E0,1.5428667E2,3.737349E1,3.8126547E0,1.6547972E1,3.510834E1,5.2581406E0,1.7940378E1,6.2441416E0,1.0970286E2,1.0780204E2,3.8494189E0,3.6219294E0,4.6173164E1,2.6836725E2,4.0275253E1,4.872913E1,1.203308E2,2.1278958E2,1.3829564E1,1.2849107E2,1.6536697E2,2.3626049E1,1.340835E2,8.144984E1,1.22820755E2,1.3764128E2,4.752381E0,7.3230085E0,6.6650133E0,2.8340765E2,8.95005E0,4.170791E1,6.1911077E0,3.025891E1,9.773976E1,5.3736305E0,2.7569305E1,4.4497052E2,2.7205666E1,4.500059E1],"tree_param":{"num_deleted":"0","num_feature":"61","num_nodes":"101","size_leaf_vector":"1"}},{"base_weights":[-1.6885193E-2,8.2662606E-1,-9.8138414E-2,-2.2397746E-1,1E0,5.9203666E-2,-7.3155695E-1,1E0,6.1428237E-1,-2.1049757E-1,4.7688463E-1,-9.664614E-1,6.4298385E-1,7.3672897E-1,1E0,-6.840595E-2,9.8138414E-2,-6.571138E-1,4.9083754E-1,-5.425977E-1,6.5966344E-1,-1E0,6.563754E-2,1E0,-9.8138414E-2,-8.59255E-2,1E0,1E0,6.789431E-1,-3.7395906E-2,-9.8138414E-2,6.995968E-2,-9.8138414E-2,9.701149E-2,-9.8138414E-2,8.465652E-2,-2.4525372E-2,-9.8138414E-2,3.3773754E-2,9.8138414E-2,4.17422E-2,9.8138414E-2,4.7842443E-2,9.8138414E-2,7.45845E-2,1.9001314E-2,9.8138414E-2],"categories":[],"categories_nodes":[],"categories_segments":[],"categories_sizes":[],"default_left":[0,1,0,0,0,0,0,0,0,0,0,0,0,0,0,0,0,0,0,0,0,0,0,0,0,0,0,0,0,0,0,0,0,0,0,0,0,0,0,0,0,0,0,0,0,0,0],"id":24,"left_children":[1,3,-1,5,7,9,11,13,15,17,19,21,23,25,27,-1,-1,29,31,33,35,37,-1,39,-1,-1,41,43,45,-1,-1,-1,-1,-1,-1,-1,-1,-1,-1,-1,-1,-1,-1,-1,-1,-1,-1],"loss_changes":[3.166183E3,4.8735474E2,0E0,5.2668617E1,3.0299072E0,2.6615E1,4.2479424E1,2.1518555E0,1.6435139E1,4.471821E1,1.736769E1,8.945625E0,2.3798706E1,1.9590248E1,6.2194824E-1,0E0,0E0,1.2567905E1,1.9521751E1,1.7347578E1,1.4612133E1,7.07148E0,0E0,5.1153564E-1,0E0,0E0,3.970909E-1,5.440674E-1,1.6056585E0,0E0,0E0,0E0,0E0,0E0,0E0,0E0,0E0,0E0,0E0,0E0,0E0,0E0,0E0,0E0,0E0,0E0,0E0],"parents":[2147483647,0,0,1,1,3,3,4,4,5,5,6,6,7,7,8,8,9,9,10,10,11,11,12,12,13,13,14,14,17,17,18,18,19,19,20,20,21,21,23,23,26,26,27,27,28,28],"right_children":[2,4,-1,6,8,10,12,14,16,18,20,22,24,26,28,-1,-1,30,32,34,36,38,-1,40,-1,-1,42,44,46,-1,-1,-1,-1,-1,-1,-1,-1,-1,-1,-1,-1,-1,-1,-1,-1,-1,-1],"split_conditions":[1.16596315E-2,5.5E1,-9.8138414E-2,1.1104E4,3.3E-1,7.1708E4,6.9805E4,0E0,2.08E-1,1.6638888E-1,5.041103E0,6.12E-1,1.46548E5,0E0,7.237412E0,-6.840595E-2,9.8138414E-2,7.195E2,6.474625E2,-1.4305556E-2,6.2099E4,8.374229E2,6.563754E-2,4.32E-1,-9.8138414E-2,-8.59255E-2,7.08E-1,2.9176647E1,6.399E3,-3.7395906E-2,-9.8138414E-2,6.995968E-2,-9.8138414E-2,9.701149E-2,-9.8138414E-2,8.465652E-2,-2.4525372E-2,-9.8138414E-2,3.3773754E-2,9.8138414E-2,4.17422E-2,9.8138414E-2,4.7842443E-2,9.8138414E-2,7.45845E-2,1.9001314E-2,9.8138414E-2],"split_indices":[60,0,0,23,34,20,22,59,35,33,38,29,23,13,38,0,0,48,40,36,28,40,0,29,0,0,31,39,18,0,0,0,0,0,0,0,0,0,0,0,0,0,0,0,0,0,0],"split_type":[0,0,0,0,0,0,0,0,0,0,0,0,0,0,0,0,0,0,0,0,0,0,0,0,0,0,0,0,0,0,0,0,0,0,0,0,0,0,0,0,0,0,0,0,0,0,0],"sum_hessian":[3.41947E3,1.9390841E3,1.4803859E3,3.6391763E2,1.5751665E3,2.3330627E2,1.3061136E2,1.5520889E3,2.3077589E1,1.4143497E2,9.187131E1,1.1168963E2,1.8921724E1,3.606205E1,1.5160269E3,6.618193E0,1.6459396E1,8.6607346E1,5.482762E1,1.3777717E1,7.809359E1,1.0863179E2,3.0578446E0,1.326551E1,5.6562138E0,6.0503864E0,3.0011663E1,1.5063657E3,9.661067E0,6.010445E1,2.6502895E1,4.819229E1,6.635328E0,4.865646E0,8.912071E0,6.405155E1,1.4042042E1,1.04930595E2,3.701193E0,1.02344475E1,3.0310621E0,2.6744242E1,3.2674215E0,1.4910706E3,1.5295138E1,4.578417E0,5.0826507E0],"tree_param":{"num_deleted":"0","num_feature":"61","num_nodes":"47","size_leaf_vector":"1"}},{"base_weights":[-2.4289561E-2,8.071571E-1,-9.8138414E-2,-2.6327288E-1,1E0,2.6439583E-2,-7.113022E-1,8.019735E-1,1E0,-1.8243282E-1,6.3276434E-1,-9.5919687E-1,8.074411E-2,8.498826E-1,-6.761171E-2,9.8138414E-2,8.473397E-1,-7.4224496E-1,2.898313E-1,8.923722E-1,-7.107353E-1,-1E0,2.166396E-2,-8.9869237E-1,6.5457E-1,5.312834E-1,1E0,9.8138414E-2,-0E0,-4.125455E-2,-9.8138414E-2,5.178964E-2,-7.799092E-2,-6.0407296E-3,9.8138414E-2,5.5066057E-2,-9.8138414E-2,-9.8138414E-2,-3.150858E-2,-9.8138414E-2,9.8138414E-2,-9.8138414E-2,-1.6803807E-2,-2.6540076E-2,9.8138414E-2,7.517698E-2,-9.8138414E-2,9.8138414E-2,3.3230253E-2],"categories":[],"categories_nodes":[],"categories_segments":[],"categories_sizes":[],"default_left":[0,1,0,0,0,0,0,0,0,0,0,0,0,0,0,0,0,0,0,0,0,0,0,0,0,0,0,0,0,0,0,0,0,0,0,0,0,0,0,0,0,0,0,0,0,0,0,0,0],"id":25,"left_children":[1,3,-1,5,7,9,11,13,15,17,19,21,23,25,-1,-1,27,29,31,33,35,37,39,41,43,45,47,-1,-1,-1,-1,-1,-1,-1,-1,-1,-1,-1,-1,-1,-1,-1,-1,-1,-1,-1,-1,-1,-1],"loss_changes":[2.8507876E3,4.7107214E2,0E0,4.4026005E1,3.989624E0,2.6318726E1,2.6215622E1,8.035843E0,5.6518555E-2,4.053166E1,1.8686749E1,9.980568E0,1.8233297E1,6.025429E0,0E0,0E0,3.0111284E0,8.663055E0,2.150354E1,7.175312E0,7.7912054E0,4.1694107E0,1.1474947E1,1.4936056E0,8.861787E0,1.8846634E1,2.1799545E0,0E0,0E0,0E0,0E0,0E0,0E0,0E0,0E0,0E0,0E0,0E0,0E0,0E0,0E0,0E0,0E0,0E0,0E0,0E0,0E0,0E0,0E0],"parents":[2147483647,0,0,1,1,3,3,4,4,5,5,6,6,7,7,8,8,9,9,10,10,11,11,12,12,13,13,16,16,17,17,18,18,19,19,20,20,21,21,22,22,23,23,24,24,25,25,26,26],"right_children":[2,4,-1,6,8,10,12,14,16,18,20,22,24,26,-1,-1,28,30,32,34,36,38,40,42,44,46,48,-1,-1,-1,-1,-1,-1,-1,-1,-1,-1,-1,-1,-1,-1,-1,-1,-1,-1,-1,-1,-1,-1],"split_conditions":[1.16596315E-2,1E0,-9.8138414E-2,2.905E3,7.2331133E0,1.9416666E-1,3.6043E4,1.8411953E-3,1.8411953E-3,3.966E4,1.5442932E1,6.461082E0,1.07950005E2,1.60436E0,-6.761171E-2,9.8138414E-2,1.85E-1,-2.7208334E-1,2.2568333E2,4.5205467E1,1.7706667E2,2.2527778E-1,1.8291626E0,1.2143E6,1.3E-1,1.6009216E0,2.1743056E-1,9.8138414E-2,-0E0,-4.125455E-2,-9.8138414E-2,5.178964E-2,-7.799092E-2,-6.0407296E-3,9.8138414E-2,5.5066057E-2,-9.8138414E-2,-9.8138414E-2,-3.150858E-2,-9.8138414E-2,9.8138414E-2,-9.8138414E-2,-1.6803807E-2,-2.6540076E-2,9.8138414E-2,7.517698E-2,-9.8138414E-2,9.8138414E-2,3.3230253E-2],"split_indices":[60,0,0,23,37,33,26,60,60,19,2,38,16,56,0,0,33,42,52,51,52,36,56,19,36,56,36,0,0,0,0,0,0,0,0,0,0,0,0,0,0,0,0,0,0,0,0,0,0],"split_type":[0,0,0,0,0,0,0,0,0,0,0,0,0,0,0,0,0,0,0,0,0,0,0,0,0,0,0,0,0,0,0,0,0,0,0,0,0,0,0,0,0,0,0,0,0,0,0,0,0],"sum_hessian":[3.1743342E3,1.7978738E3,1.3764603E3,3.3677985E2,1.461094E3,2.0421716E2,1.3256267E2,1.0984734E2,1.3512466E3,1.5161267E2,5.26045E1,1.01182175E2,3.1380497E1,1.0657538E2,3.2719607E0,1.3360636E3,1.5183086E1,6.9596535E1,8.201613E1,4.4227753E1,8.376749E0,9.171331E1,9.4688635E0,1.144638E1,1.9934118E1,3.9899597E1,6.667578E1,1.1583556E1,3.5995302E0,4.0487247E1,2.9109287E1,6.743455E1,1.4581583E1,6.529772E0,3.769798E1,3.2052102E0,5.171539E0,8.150339E1,1.0209926E1,4.2455964E0,5.2232666E0,8.320549E0,3.12583E0,6.600668E0,1.333345E1,3.6044693E1,3.8549051E0,6.0483223E1,6.192561E0],"tree_param":{"num_deleted":"0","num_feature":"61","num_nodes":"49","size_leaf_vector":"1"}},{"base_weights":[-3.1709842E-2,7.7717113E-1,-9.8138414E-2,-2.521906E-1,1E0,1.10587785E-2,-7.5155437E-1,7.7654064E-1,1E0,-4.3914285E-1,2.3300374E-1,-8.3928335E-1,9.8138414E-2,8.7851137E-1,-2.852586E-1,9.8138414E-2,8.2800597E-1,-6.983178E-1,3.2097673E-1,4.010254E-1,-5.4021823E-1,-9.603787E-1,1.0596366E-1,2.967711E-1,1E0,-9.8138414E-2,9.01043E-2,9.8138414E-2,-1.2323908E-2,-9.154566E-2,3.9585922E-2,8.4435016E-2,-9.1404304E-2,5.671017E-2,-4.511993E-2,6.899561E-2,-9.8138414E-2,-9.8138414E-2,7.443848E-2,-5.025027E-2,9.8138414E-2,-9.8138414E-2,8.6227134E-2,9.8138414E-2,-1.4203147E-3],"categories":[],"categories_nodes":[],"categories_segments":[],"categories_sizes":[],"default_left":[0,1,0,0,0,0,1,0,0,0,0,0,0,0,0,0,0,0,0,0,0,0,0,0,0,0,0,0,0,0,0,0,0,0,0,0,0,0,0,0,0,0,0,0,0],"id":26,"left_children":[1,3,-1,5,7,9,11,13,15,17,19,21,-1,23,25,-1,27,29,31,33,35,37,39,41,43,-1,-1,-1,-1,-1,-1,-1,-1,-1,-1,-1,-1,-1,-1,-1,-1,-1,-1,-1,-1],"loss_changes":[2.5339976E3,4.5147052E2,0E0,4.5130394E1,4.8688965E0,2.2512815E1,1.9089241E1,1.14066925E1,2.0385742E-1,1.4676207E1,1.9668728E1,1.2996368E1,0E0,6.8228226E0,1.3215828E1,0E0,4.641206E0,1.4417692E1,1.300725E1,1.8964191E1,2.5973001E1,1.0095024E1,1.1627152E1,1.6275455E1,3.5708313E0,0E0,0E0,0E0,0E0,0E0,0E0,0E0,0E0,0E0,0E0,0E0,0E0,0E0,0E0,0E0,0E0,0E0,0E0,0E0,0E0],"parents":[2147483647,0,0,1,1,3,3,4,4,5,5,6,6,7,7,8,8,9,9,10,10,11,11,13,13,14,14,16,16,17,17,18,18,19,19,20,20,21,21,22,22,23,23,24,24],"right_children":[2,4,-1,6,8,10,12,14,16,18,20,22,-1,24,26,-1,28,30,32,34,36,38,40,42,44,-1,-1,-1,-1,-1,-1,-1,-1,-1,-1,-1,-1,-1,-1,-1,-1,-1,-1,-1,-1],"split_conditions":[1.16596315E-2,5.5E1,-9.8138414E-2,1.1527E4,8.753227E0,5.9166666E-2,1E0,3.1194445E-1,2.9176647E1,9.6949E4,7.455209E2,2.77551E1,9.8138414E-2,1.5529785E0,2.08E-1,9.8138414E-2,1.1748511E1,2.6741028E0,8.546842E1,2.77E3,4.4569714E1,2.9176647E1,9.2637505E1,5.96E2,8.1040625E2,-9.8138414E-2,9.01043E-2,9.8138414E-2,-1.2323908E-2,-9.154566E-2,3.9585922E-2,8.4435016E-2,-9.1404304E-2,5.671017E-2,-4.511993E-2,6.899561E-2,-9.8138414E-2,-9.8138414E-2,7.443848E-2,-5.025027E-2,9.8138414E-2,-9.8138414E-2,8.6227134E-2,9.8138414E-2,-1.4203147E-3],"split_indices":[60,0,0,23,37,33,0,34,39,20,40,43,0,57,35,0,12,57,13,27,51,39,53,23,48,0,0,0,0,0,0,0,0,0,0,0,0,0,0,0,0,0,0,0,0],"split_type":[0,0,0,0,0,0,0,0,0,0,0,0,0,0,0,0,0,0,0,0,0,0,0,0,0,0,0,0,0,0,0,0,0,0,0,0,0,0,0,0,0,0,0,0,0],"sum_hessian":[2.9449956E3,1.6761797E3,1.2688159E3,3.4069452E2,1.3354852E3,2.227903E2,1.1790424E2,1.041084E2,1.2313768E3,7.322729E1,1.49563E2,1.1260657E2,5.297676E0,9.5181984E1,8.926418E0,1.2141432E3,1.7233608E1,5.483126E1,1.8396025E1,1.231064E2,2.645661E1,1.0003235E2,1.2574217E1,1.7577566E1,7.7604416E1,4.4032516E0,4.5231667E0,1.3485463E1,3.7481449E0,4.5378685E1,9.452576E0,1.2985154E1,5.4108715E0,1.0234571E2,2.0760683E1,1.0586252E1,1.58703575E1,9.691114E1,3.1212103E0,9.013056E0,3.5611615E0,4.6465325E0,1.2931033E1,7.436241E1,3.2420084E0],"tree_param":{"num_deleted":"0","num_feature":"61","num_nodes":"45","size_leaf_vector":"1"}},{"base_weights":[-2.860615E-2,7.742677E-1,-9.8138414E-2,-1.7002076E-1,1E0,1.248378E-1,-5.750547E-1,5.509529E-1,1E0,-3.7701496E-1,3.5436678E-1,-8.1968933E-1,4.579402E-1,-9.8138414E-2,8.284319E-1,1E0,6.2034345E-1,-5.8821046E-1,7.324462E-1,6.318772E-1,-2.590048E-1,-9.6977746E-1,3.8037017E-2,9.578917E-1,-9.8138414E-2,3.7886125E-1,1E0,1E0,7.2265613E-1,-4.013751E-2,9.8138414E-2,-8.5151955E-2,1.9972848E-2,9.8138414E-2,-4.784493E-2,-7.93076E-4,8.33816E-2,6.1556347E-2,-7.323855E-2,-9.8138414E-2,1.3918755E-2,8.179795E-2,-9.8138414E-2,9.8138414E-2,-9.8138414E-2,8.976164E-2,-7.631199E-2,9.8138414E-2,3.94931E-2,9.8138414E-2,7.9324655E-2,9.8138414E-2,-3.9154585E-2],"categories":[],"categories_nodes":[],"categories_segments":[],"categories_sizes":[],"default_left":[0,1,0,0,0,0,0,0,0,0,0,0,0,0,0,0,0,0,0,0,0,0,0,0,0,0,0,0,0,0,0,0,0,0,0,0,0,0,0,0,0,0,0,0,0,0,0,0,0,0,0,0,0],"id":27,"left_children":[1,3,-1,5,7,9,11,13,15,17,19,21,23,-1,25,27,29,31,33,35,37,39,41,43,-1,45,47,49,51,-1,-1,-1,-1,-1,-1,-1,-1,-1,-1,-1,-1,-1,-1,-1,-1,-1,-1,-1,-1,-1,-1,-1,-1],"loss_changes":[2.3189219E3,3.652063E2,0E0,3.9034492E1,7.6257324E0,2.1822859E1,3.487862E1,1.977909E1,2.1879883E0,1.401439E1,2.218304E1,1.43882065E1,2.1840023E1,0E0,3.0627499E0,8.4436035E-1,9.023832E0,1.1145899E1,8.55171E0,1.2549927E1,1.769977E1,6.0091248E0,1.6051567E1,1.3853346E1,0E0,7.732449E0,6.4515877E-1,4.868164E-1,5.440009E0,0E0,0E0,0E0,0E0,0E0,0E0,0E0,0E0,0E0,0E0,0E0,0E0,0E0,0E0,0E0,0E0,0E0,0E0,0E0,0E0,0E0,0E0,0E0,0E0],"parents":[2147483647,0,0,1,1,3,3,4,4,5,5,6,6,7,7,8,8,9,9,10,10,11,11,12,12,14,14,15,15,16,16,17,17,18,18,19,19,20,20,21,21,22,22,23,23,25,25,26,26,27,27,28,28],"right_children":[2,4,-1,6,8,10,12,14,16,18,20,22,24,-1,26,28,30,32,34,36,38,40,42,44,-1,46,48,50,52,-1,-1,-1,-1,-1,-1,-1,-1,-1,-1,-1,-1,-1,-1,-1,-1,-1,-1,-1,-1,-1,-1,-1,-1],"split_conditions":[1.16596315E-2,5.5E1,-9.8138414E-2,2.5405E4,1.2672831E0,5.9166666E-2,5.7924E4,0E0,3.3E-1,1.4204455E1,7.0241144E2,3.1374409E1,1.6423517E1,-9.8138414E-2,2.149E3,2.9176647E1,9.253E3,5.22E-1,5.1931667E0,9.580571E0,2.282143E1,8.241766E2,2.6098999E1,1.46548E5,-9.8138414E-2,3.93E-1,6.75E-1,6.995731E0,5.4845853E0,-4.013751E-2,9.8138414E-2,-8.5151955E-2,1.9972848E-2,9.8138414E-2,-4.784493E-2,-7.93076E-4,8.33816E-2,6.1556347E-2,-7.323855E-2,-9.8138414E-2,1.3918755E-2,8.179795E-2,-9.8138414E-2,9.8138414E-2,-9.8138414E-2,8.976164E-2,-7.631199E-2,9.8138414E-2,3.94931E-2,9.8138414E-2,7.9324655E-2,9.8138414E-2,-3.9154585E-2],"split_indices":[60,0,0,28,57,33,22,13,34,12,40,3,7,0,23,39,0,32,8,45,54,40,4,23,0,29,30,38,9,0,0,0,0,0,0,0,0,0,0,0,0,0,0,0,0,0,0,0,0,0,0,0,0],"split_type":[0,0,0,0,0,0,0,0,0,0,0,0,0,0,0,0,0,0,0,0,0,0,0,0,0,0,0,0,0,0,0,0,0,0,0,0,0,0,0,0,0,0,0,0,0,0,0,0,0,0,0,0,0],"sum_hessian":[2.7286685E3,1.5541378E3,1.1745308E3,3.2429126E2,1.2298466E3,1.8734486E2,1.3694641E2,3.996085E1,1.1898856E3,5.8482952E1,1.2886191E2,1.1090277E2,2.6043642E1,5.2924237E0,3.4668427E1,1.1719274E3,1.7958328E1,4.930295E1,9.179997E0,8.897693E1,3.9884975E1,9.4612595E1,1.6290174E1,2.010641E1,5.937232E0,1.1603084E1,2.3065342E1,1.1563494E3,1.5577954E1,5.510139E0,1.244819E1,3.6652927E1,1.2650024E1,5.304088E0,3.87591E0,2.2323883E1,6.6653046E1,1.3983925E1,2.5901052E1,9.017731E1,4.4352922E0,9.891095E0,6.3990793E0,1.6925797E1,3.180614E0,8.063978E0,3.539106E0,1.9858889E1,3.2064533E0,1.1345298E3,2.1819609E1,1.2492111E1,3.0858436E0],"tree_param":{"num_deleted":"0","num_feature":"61","num_nodes":"53","size_leaf_vector":"1"}},{"base_weights":[-3.0168599E-2,7.556998E-1,-9.8138414E-2,-2.0358557E-1,1E0,-3.2794666E-1,5.0529677E-1,7.1222055E-1,1E0,-1.0033482E-1,-7.0746994E-1,-8.0829614E-1,8.956081E-1,2.8532794E-1,1E0,1E0,7.7250314E-1,1.3970669E-1,-6.2183994E-1,-9.156128E-1,6.398324E-1,-9.8138414E-2,-7.2268094E-3,-3.6972124E-2,1E0,5.518986E-1,-9.8138414E-2,6.797298E-1,9.8138414E-2,1E0,5.6467574E-2,-1.3258522E-2,9.8138414E-2,-4.6200655E-2,3.9012864E-2,9.537765E-2,-7.635068E-2,-9.8138414E-2,4.2711344E-2,9.8138414E-2,-7.479476E-2,9.8138414E-2,-1.3197506E-2,-2.368619E-2,9.8138414E-2,9.8138414E-2,8.374479E-3,9.8138414E-2,8.684548E-2],"categories":[],"categories_nodes":[],"categories_segments":[],"categories_sizes":[],"default_left":[0,1,0,0,0,0,0,0,0,0,0,0,0,0,0,0,0,0,0,0,0,0,0,0,0,0,0,0,0,0,0,0,0,0,0,0,0,0,0,0,0,0,0,0,0,0,0,0,0],"id":28,"left_children":[1,3,-1,5,7,9,11,13,15,17,19,21,23,25,27,29,31,33,35,37,39,-1,-1,-1,41,43,-1,45,-1,47,-1,-1,-1,-1,-1,-1,-1,-1,-1,-1,-1,-1,-1,-1,-1,-1,-1,-1,-1],"loss_changes":[2.0765938E3,3.5173633E2,0E0,2.6813E1,6.6636963E0,2.2169079E1,2.3410973E1,1.0504993E1,5.830078E-1,2.0553583E1,2.7212013E1,3.1742754E0,7.7016926E0,1.40714245E1,5.6591797E-1,3.5046387E-1,4.2562103E0,1.7598923E1,1.3038239E1,9.874374E0,9.0672E0,0E0,0E0,0E0,4.2447853E0,1.3608711E1,0E0,1.9968238E0,0E0,7.556152E-2,0E0,0E0,0E0,0E0,0E0,0E0,0E0,0E0,0E0,0E0,0E0,0E0,0E0,0E0,0E0,0E0,0E0,0E0,0E0],"parents":[2147483647,0,0,1,1,3,3,4,4,5,5,6,6,7,7,8,8,9,9,10,10,11,11,12,12,13,13,14,14,15,15,16,16,17,17,18,18,19,19,20,20,24,24,25,25,27,27,29,29],"right_children":[2,4,-1,6,8,10,12,14,16,18,20,22,24,26,28,30,32,34,36,38,40,-1,-1,-1,42,44,-1,46,-1,48,-1,-1,-1,-1,-1,-1,-1,-1,-1,-1,-1,-1,-1,-1,-1,-1,-1,-1,-1],"split_conditions":[1.16596315E-2,5.5E1,-9.8138414E-2,2.1027778E-1,-1.3880882E0,2.905E3,6.588562E0,2.1099446E0,2.9176647E1,2.1099446E0,6.634E4,2.10704E5,1.9746094E0,2.106486E0,6.8E-2,4.1222224E-1,2.1095001E2,5.6E-2,-1.9993988E0,1.0753E4,1.351E5,-9.8138414E-2,-7.2268094E-3,-3.6972124E-2,2.8076172E0,3.7E1,-9.8138414E-2,1.22430556E-1,9.8138414E-2,2.4565058E1,5.6467574E-2,-1.3258522E-2,9.8138414E-2,-4.6200655E-2,3.9012864E-2,9.537765E-2,-7.635068E-2,-9.8138414E-2,4.2711344E-2,9.8138414E-2,-7.479476E-2,9.8138414E-2,-1.3197506E-2,-2.368619E-2,9.8138414E-2,9.8138414E-2,8.374479E-3,9.8138414E-2,8.684548E-2],"split_indices":[60,0,0,36,45,23,44,57,39,57,26,19,57,57,30,36,54,34,6,17,23,0,0,0,59,17,0,36,0,45,0,0,0,0,0,0,0,0,0,0,0,0,0,0,0,0,0,0,0],"split_type":[0,0,0,0,0,0,0,0,0,0,0,0,0,0,0,0,0,0,0,0,0,0,0,0,0,0,0,0,0,0,0,0,0,0,0,0,0,0,0,0,0,0,0,0,0,0,0,0,0],"sum_hessian":[2.5191826E3,1.4419661E3,1.0772166E3,3.018803E2,1.1400858E3,2.5709814E2,4.4782177E1,8.479592E1,1.0552899E3,1.6108842E2,9.600972E1,1.012456E1,3.465762E1,3.501501E1,4.9780907E1,1.0376205E3,1.7669445E1,1.10013916E2,5.107451E1,8.330852E1,1.2701205E1,5.3876047E0,4.7369556E0,4.014345E0,3.0643272E1,2.9838272E1,5.1767397E0,9.159207E0,4.06217E1,1.033341E3,4.2794905E0,3.6679976E0,1.4001448E1,3.240395E1,7.760996E1,4.4275374E0,4.6646973E1,7.846151E1,4.847005E0,9.514869E0,3.1863365E0,2.7569689E1,3.0735826E0,1.2301626E1,1.7536646E1,5.140879E0,4.0183287E0,1.00648206E3,2.6858858E1],"tree_param":{"num_deleted":"0","num_feature":"61","num_nodes":"49","size_leaf_vector":"1"}},{"base_weights":[-2.5057172E-2,7.431821E-1,-9.8138414E-2,-1.9009656E-1,1E0,7.1433544E-2,-5.890565E-1,7.1431065E-1,1E0,-1.7355518E-1,5.8580405E-1,-8.3113766E-1,4.6721512E-1,3.8570917E-1,9.4339323E-1,1E0,5.041096E-1,-4.7600842E-1,7.2358894E-1,9.961778E-1,6.685963E-2,-9.533369E-1,3.6523737E-2,9.5278084E-1,-9.8138414E-2,-7.473777E-2,9.8138414E-2,1E0,7.5879735E-1,1E0,7.1399456E-1,7.9114234E-1,-1.690455E-2,-3.0457681E-2,-9.8138414E-2,-3.337815E-2,9.675222E-2,1.1487739E-2,9.8138414E-2,4.6907093E-2,-9.8138414E-2,-9.8138414E-2,5.4517455E-2,-9.8138414E-2,9.387392E-2,-1.7077231E-4,9.8138414E-2,-9.8138414E-2,2.638128E-2,5.103353E-2,9.8138414E-2,9.454269E-2,-9.505613E-3,9.8138414E-2,5.8188066E-2,9.8138414E-2,-3.334964E-2,3.668439E-2,9.8138414E-2],"categories":[],"categories_nodes":[],"categories_segments":[],"categories_sizes":[],"default_left":[0,1,0,0,0,0,0,0,0,0,0,0,0,0,0,0,0,0,0,0,0,0,0,0,0,0,0,0,0,0,0,0,0,0,0,0,0,0,0,0,0,0,0,0,0,0,0,0,0,0,0,0,0,0,0,0,0,0,0],"id":29,"left_children":[1,3,-1,5,7,9,11,13,15,17,19,21,23,25,27,29,31,33,35,37,39,41,43,45,-1,47,-1,49,51,53,55,57,-1,-1,-1,-1,-1,-1,-1,-1,-1,-1,-1,-1,-1,-1,-1,-1,-1,-1,-1,-1,-1,-1,-1,-1,-1,-1,-1],"loss_changes":[1.8717703E3,3.2589935E2,0E0,3.0787882E1,6.0603027E0,2.2596987E1,2.9955559E1,5.7340393E0,2.2226562E0,3.2679123E1,1.201309E1,1.0123848E1,1.7152767E1,1.0805885E1,5.5386734E-1,6.824341E-1,2.3481104E0,1.1115553E1,8.579041E0,1.8209381E0,1.4912702E1,7.8836136E0,1.2193009E1,4.1356335E0,0E0,9.029419E0,0E0,4.2063522E-1,3.1701412E0,3.2965088E-1,5.34112E0,5.3713894E-1,0E0,0E0,0E0,0E0,0E0,0E0,0E0,0E0,0E0,0E0,0E0,0E0,0E0,0E0,0E0,0E0,0E0,0E0,0E0,0E0,0E0,0E0,0E0,0E0,0E0,0E0,0E0],"parents":[2147483647,0,0,1,1,3,3,4,4,5,5,6,6,7,7,8,8,9,9,10,10,11,11,12,12,13,13,14,14,15,15,16,16,17,17,18,18,19,19,20,20,21,21,22,22,23,23,25,25,27,27,28,28,29,29,30,30,31,31],"right_children":[2,4,-1,6,8,10,12,14,16,18,20,22,24,26,28,30,32,34,36,38,40,42,44,46,-1,48,-1,50,52,54,56,58,-1,-1,-1,-1,-1,-1,-1,-1,-1,-1,-1,-1,-1,-1,-1,-1,-1,-1,-1,-1,-1,-1,-1,-1,-1,-1,-1],"split_conditions":[1.16596315E-2,5.5E1,-9.8138414E-2,2.5405E4,-1.3880882E0,9.4789E4,5.7924E4,1.60436E0,7.1709743E0,2.5101852E-1,7.0241144E2,6.447002E0,1.6105667E1,2.08E-1,2.262268E0,2.9176647E1,6.9207806E2,1.1694445E-1,4.2097087E0,7.038333E1,6.5E-2,2.7666667E-1,