{"learner":{"attributes":{"best_iteration":"217","best_score":"0.18580650689325418"},"feature_names":["poultry_density","max_temp_q1","max_temp_q2","max_temp_q3","max_temp_q4","min_temp_q1","min_temp_q2","min_temp_q3","min_temp_q4","mean_temp_q1","mean_temp_q2","mean_temp_q3","mean_temp_q4","total_rain_q1","total_rain_q2","total_rain_q3","total_rain_q4","Loading","Unloading","Pop_total","F_TOTAL","F_Y_15-64","F_Y_GE65","F_Y_LT15","GDP_Annual","M_TOTAL","M_Y_GE65","M_Y_LT15","M_Y15-64","ndvi_q1","ndvi_q2","ndvi_q3","ndvi_q4","ndwi_q1","ndwi_q2","ndwi_q3","ndwi_q4","bio1","bio2","bio3","bio4","bio5","bio6","bio7","bio8","bio9","bio10","bio11","bio12","bio13","bio14","bio15","bio16","bio17","bio18","bio19","lai_hv_q1","lai_hv_q2","lai_lv_q1","lai_lv_q2"],"feature_types":["float","float","float","float","float","float","float","float","float","float","float","float","float","float","float","float","float","int","int","int","int","int","int","int","float","int","int","int","int","float","float","float","float","float","float","float","float","float","float","float","float","float","float","float","float","float","float","float","float","float","float","float","float","float","float","float","float","float","float","float"],"gradient_booster":{"model":{"gbtree_model_param":{"num_parallel_tree":"1","num_trees":"368"},"iteration_indptr":[0,1,2,3,4,5,6,7,8,9,10,11,12,13,14,15,16,17,18,19,20,21,22,23,24,25,26,27,28,29,30,31,32,33,34,35,36,37,38,39,40,41,42,43,44,45,46,47,48,49,50,51,52,53,54,55,56,57,58,59,60,61,62,63,64,65,66,67,68,69,70,71,72,73,74,75,76,77,78,79,80,81,82,83,84,85,86,87,88,89,90,91,92,93,94,95,96,97,98,99,100,101,102,103,104,105,106,107,108,109,110,111,112,113,114,115,116,117,118,119,120,121,122,123,124,125,126,127,128,129,130,131,132,133,134,135,136,137,138,139,140,141,142,143,144,145,146,147,148,149,150,151,152,153,154,155,156,157,158,159,160,161,162,163,164,165,166,167,168,169,170,171,172,173,174,175,176,177,178,179,180,181,182,183,184,185,186,187,188,189,190,191,192,193,194,195,196,197,198,199,200,201,202,203,204,205,206,207,208,209,210,211,212,213,214,215,216,217,218,219,220,221,222,223,224,225,226,227,228,229,230,231,232,233,234,235,236,237,238,239,240,241,242,243,244,245,246,247,248,249,250,251,252,253,254,255,256,257,258,259,260,261,262,263,264,265,266,267,268,269,270,271,272,273,274,275,276,277,278,279,280,281,282,283,284,285,286,287,288,289,290,291,292,293,294,295,296,297,298,299,300,301,302,303,304,305,306,307,308,309,310,311,312,313,314,315,316,317,318,319,320,321,322,323,324,325,326,327,328,329,330,331,332,333,334,335,336,337,338,339,340,341,342,343,344,345,346,347,348,349,350,351,352,353,354,355,356,357,358,359,360,361,362,363,364,365,366,367,368],"tree_info":[0,0,0,0,0,0,0,0,0,0,0,0,0,0,0,0,0,0,0,0,0,0,0,0,0,0,0,0,0,0,0,0,0,0,0,0,0,0,0,0,0,0,0,0,0,0,0,0,0,0,0,0,0,0,0,0,0,0,0,0,0,0,0,0,0,0,0,0,0,0,0,0,0,0,0,0,0,0,0,0,0,0,0,0,0,0,0,0,0,0,0,0,0,0,0,0,0,0,0,0,0,0,0,0,0,0,0,0,0,0,0,0,0,0,0,0,0,0,0,0,0,0,0,0,0,0,0,0,0,0,0,0,0,0,0,0,0,0,0,0,0,0,0,0,0,0,0,0,0,0,0,0,0,0,0,0,0,0,0,0,0,0,0,0,0,0,0,0,0,0,0,0,0,0,0,0,0,0,0,0,0,0,0,0,0,0,0,0,0,0,0,0,0,0,0,0,0,0,0,0,0,0,0,0,0,0,0,0,0,0,0,0,0,0,0,0,0,0,0,0,0,0,0,0,0,0,0,0,0,0,0,0,0,0,0,0,0,0,0,0,0,0,0,0,0,0,0,0,0,0,0,0,0,0,0,0,0,0,0,0,0,0,0,0,0,0,0,0,0,0,0,0,0,0,0,0,0,0,0,0,0,0,0,0,0,0,0,0,0,0,0,0,0,0,0,0,0,0,0,0,0,0,0,0,0,0,0,0,0,0,0,0,0,0,0,0,0,0,0,0,0,0,0,0,0,0,0,0,0,0,0,0,0,0,0,0,0,0,0,0,0,0,0,0,0,0,0,0,0,0,0,0,0,0,0,0,0,0,0,0,0,0,0,0,0,0,0,0],"trees":[{"base_weights":[1.359421E-3,-1E0,5.569616E-1,-1E0,1E0,-5.2729595E-2,1E0,-1E0,-1.3501705E-1,-1E0,1E0,-5.0678974E-1,1E0,1E0,-6.972155E-1,-1E0,7.571473E-1,1E0,-1E0,-9.8138414E-2,-2.5273455E-2,1E0,-0E0,5.641477E-1,-8.0382854E-1,-9.8138414E-2,1E0,1E0,-9.222795E-1,5.3869504E-1,-1E0,-1E0,1E0,-9.8138414E-2,1E0,-1E0,1E0,-1E0,4.6008952E-2,-1.1885626E-2,9.8138414E-2,-9.8138414E-2,9.8138414E-2,-4.613807E-1,1E0,-1.768829E-1,-1E0,1E0,-9.8138414E-2,-7.629585E-1,1E0,7.2158915E-1,-1E0,1E0,-6.6128707E-1,-3.0480137E-1,-1E0,-9.8138414E-2,5.426547E-2,2.9473467E-2,9.8138414E-2,9.8138414E-2,-3.684755E-2,-9.8138414E-2,6.515995E-2,9.8138414E-2,-9.8138414E-2,-9.8138414E-2,-0E0,9.8138414E-2,-9.8138414E-2,9.8138414E-2,-9.8138414E-2,1.4798795E-2,-9.8138414E-2,-9.8138414E-2,9.23576E-3,5.0486205E-3,9.8138414E-2,-9.8138414E-2,9.8138414E-2,-3.964452E-2,9.8138414E-2,9.8138414E-2,-9.8138414E-2,3.2961506E-2,-9.8138414E-2,-1.1885626E-2,9.8138414E-2,9.3632035E-2,-9.8138414E-2,-9.8138414E-2,9.8138414E-2,-9.8138414E-2,-4.233861E-2],"categories":[],"categories_nodes":[],"categories_segments":[],"categories_sizes":[],"default_left":[0,0,0,0,0,0,0,0,0,0,0,0,0,0,0,0,0,0,0,0,0,0,0,0,0,0,0,0,0,0,0,0,0,0,0,0,0,0,0,0,0,0,0,0,0,0,0,0,0,0,0,0,0,0,0,0,0,0,0,0,0,0,0,0,0,0,0,0,0,0,0,0,0,0,0,0,0,0,0,0,0,0,0,0,0,0,0,0,0,0,0,0,0,0,0],"id":0,"left_children":[1,3,5,7,9,11,13,15,17,19,21,23,25,27,29,31,33,35,37,-1,-1,39,41,43,45,-1,47,49,51,53,55,57,59,-1,61,63,65,67,-1,-1,-1,-1,-1,69,71,73,75,77,-1,79,81,83,85,87,89,91,93,-1,-1,-1,-1,-1,-1,-1,-1,-1,-1,-1,-1,-1,-1,-1,-1,-1,-1,-1,-1,-1,-1,-1,-1,-1,-1,-1,-1,-1,-1,-1,-1,-1,-1,-1,-1,-1,-1],"loss_changes":[6.5284546E3,2.6977197E2,2.2663374E3,1.463872E2,4.419938E1,2.1910505E3,4.3473877E2,1.00395996E2,3.848598E2,1.3308783E0,8.032005E0,8.009696E2,5.7731445E1,2.7841113E2,1.3452466E2,3.968164E1,4.7996323E1,5.8418533E1,7.800293E0,0E0,0E0,4.293213E0,1.5952433E1,3.41606E2,5.0246313E2,0E0,1.7988525E1,1.6784277E2,4.6999878E1,7.129208E1,5.2757874E0,2.7498047E1,1.245883E0,0E0,7.381138E0,9.282251E0,2.1985855E1,3.839859E0,0E0,0E0,0E0,0E0,0E0,2.86308E2,2.0454507E2,3.0962436E2,9.079236E1,6.828125E0,0E0,6.411341E1,1.1822803E2,3.0714931E1,1.5624985E1,4.2932205E0,4.9286217E1,1.9263956E1,1.3434753E0,0E0,0E0,0E0,0E0,0E0,0E0,0E0,0E0,0E0,0E0,0E0,0E0,0E0,0E0,0E0,0E0,0E0,0E0,0E0,0E0,0E0,0E0,0E0,0E0,0E0,0E0,0E0,0E0,0E0,0E0,0E0,0E0,0E0,0E0,0E0,0E0,0E0,0E0],"parents":[2147483647,0,0,1,1,2,2,3,3,4,4,5,5,6,6,7,7,8,8,9,9,10,10,11,11,12,12,13,13,14,14,15,15,16,16,17,17,18,18,21,21,22,22,23,23,24,24,26,26,27,27,28,28,29,29,30,30,31,31,32,32,34,34,35,35,36,36,37,37,43,43,44,44,45,45,46,46,47,47,49,49,50,50,51,51,52,52,53,53,54,54,55,55,56,56],"right_children":[2,4,6,8,10,12,14,16,18,20,22,24,26,28,30,32,34,36,38,-1,-1,40,42,44,46,-1,48,50,52,54,56,58,60,-1,62,64,66,68,-1,-1,-1,-1,-1,70,72,74,76,78,-1,80,82,84,86,88,90,92,94,-1,-1,-1,-1,-1,-1,-1,-1,-1,-1,-1,-1,-1,-1,-1,-1,-1,-1,-1,-1,-1,-1,-1,-1,-1,-1,-1,-1,-1,-1,-1,-1,-1,-1,-1,-1,-1,-1],"split_conditions":[9.911416E0,3.01E0,1.8083334E-1,3.8373332E0,9.713E3,7.95E-1,6.283889E0,1.20964E5,1.4410894E1,5.995E3,2.7324524E0,1.6590387E1,5.55E-1,7.38E-1,2.2926815E1,2.0492939E1,7.604E3,3.9319244E2,2.73E-1,-9.8138414E-2,-2.5273455E-2,1.6241455E0,4.3E0,3.9826665E0,5.8165E2,-9.8138414E-2,3.581E2,8.4E-1,2.3214489E1,1.9888888E-1,1.257904E0,7.7185004E2,1.9238E4,-9.8138414E-2,5.5014166E2,2.125E-1,9.943871E0,3.9525E2,4.6008952E-2,-1.1885626E-2,9.8138414E-2,-9.8138414E-2,9.8138414E-2,1.1763334E2,3.0332258E0,5.5575237E0,2.1662863E1,3.535875E2,-9.8138414E-2,1.741851E1,-2.4104838E0,1.4100589E2,3.3444445E0,4.4416127E0,4.4609E2,2.9061E5,5.4975E2,-9.8138414E-2,5.426547E-2,2.9473467E-2,9.8138414E-2,9.8138414E-2,-3.684755E-2,-9.8138414E-2,6.515995E-2,9.8138414E-2,-9.8138414E-2,-9.8138414E-2,-0E0,9.8138414E-2,-9.8138414E-2,9.8138414E-2,-9.8138414E-2,1.4798795E-2,-9.8138414E-2,-9.8138414E-2,9.23576E-3,5.0486205E-3,9.8138414E-2,-9.8138414E-2,9.8138414E-2,-3.964452E-2,9.8138414E-2,9.8138414E-2,-9.8138414E-2,3.2961506E-2,-9.8138414E-2,-1.1885626E-2,9.8138414E-2,9.3632035E-2,-9.8138414E-2,-9.8138414E-2,9.8138414E-2,-9.8138414E-2,-4.233861E-2],"split_indices":[7,31,35,8,22,31,8,26,2,22,57,2,29,30,4,44,17,40,33,0,0,56,30,8,48,0,54,50,3,34,58,52,27,0,48,36,1,54,0,0,0,0,0,16,6,8,44,48,0,7,6,14,50,42,24,0,13,0,0,0,0,0,0,0,0,0,0,0,0,0,0,0,0,0,0,0,0,0,0,0,0,0,0,0,0,0,0,0,0,0,0,0,0,0,0],"split_type":[0,0,0,0,0,0,0,0,0,0,0,0,0,0,0,0,0,0,0,0,0,0,0,0,0,0,0,0,0,0,0,0,0,0,0,0,0,0,0,0,0,0,0,0,0,0,0,0,0,0,0,0,0,0,0,0,0,0,0,0,0,0,0,0,0,0,0,0,0,0,0,0,0,0,0,0,0,0,0,0,0,0,0,0,0,0,0,0,0,0,0,0,0,0,0],"sum_hessian":[8.979913E3,2.5724392E3,6.4074746E3,2.5067354E3,6.570386E1,3.1793318E3,3.2281426E3,2.3102515E3,1.9648387E2,8.440688E0,5.726317E1,2.5168599E3,6.6247186E2,3.0774092E3,1.5073347E2,2.2779207E3,3.2330715E1,9.786942E1,9.8614456E1,4.9999976E0,3.4406908E0,4.8691093E1,8.572073E0,5.46338E2,1.9705219E3,7.2499967E0,6.5522186E2,3.0022395E3,7.5169655E1,6.236901E1,8.8364456E1,2.2699377E3,7.983112E0,6.249997E0,2.6080719E1,1.1661033E1,8.620839E1,9.5203415E1,3.411037E0,3.190691E0,4.5500404E1,4.470344E0,4.101729E0,2.0820833E2,3.3812967E2,8.542365E2,1.1162854E3,6.515015E2,3.7203445E0,5.3817936E1,2.9484216E3,1.5805185E1,5.936447E1,3.203418E1,3.0334833E1,1.2042418E1,7.6322044E1,2.2587341E3,1.1203457E1,3.661037E0,4.322075E0,2.239003E1,3.6906905E0,8.499996E0,3.161037E0,8.1988045E1,4.220344E0,9.079238E1,4.4110365E0,6.477593E1,1.4343239E2,3.067483E2,3.138137E1,6.701728E2,1.8406377E2,1.0406664E3,7.5619E1,8.322073E0,6.4317944E2,4.4923786E1,8.89415E0,5.9771397E1,2.8886501E3,1.1805187E1,3.999998E0,8.542419E0,5.0822052E1,3.190691E0,2.8843489E1,1.3584841E1,1.6749992E1,7.9406886E0,4.101729E0,7.0661E1,5.661036E0],"tree_param":{"num_deleted":"0","num_feature":"60","num_nodes":"95","size_leaf_vector":"1"}},{"base_weights":[7.529239E-3,-1E0,5.357215E-1,-1E0,7.878425E-1,-3.0666122E-2,1E0,-1E0,-2.3850633E-1,-1E0,1E0,-4.812613E-1,1E0,1E0,-6.705969E-1,-1E0,7.0240647E-1,1E0,-1E0,-9.8138414E-2,-9.241048E-3,1E0,-0E0,3.7055635E-1,-8.6062723E-1,1E0,-9.8138414E-2,1E0,-9.9187326E-1,-1E0,6.449535E-1,-1E0,9.0045637E-1,-9.8138414E-2,1E0,-9.8138414E-2,1E0,-1E0,9.8138414E-2,-2.4108112E-2,9.8138414E-2,-6.2253916E-1,9.8138414E-2,-5.104286E-1,9.634552E-1,-1E0,1.4002113E-1,-1.5809573E-2,1E0,4.2446756E-1,1E0,9.308723E-1,-1E0,-1.5364806E-1,-1E0,1E0,-9.8138414E-2,-9.8138414E-2,8.633449E-2,-4.769622E-2,9.8138414E-2,9.8138414E-2,-1.1268067E-2,9.8138414E-2,-9.8138414E-2,-9.8138414E-2,-2.268132E-3,-9.8138414E-2,5.871899E-2,9.8138414E-2,-9.8138414E-2,-8.240972E-2,9.8138414E-2,-1.7222079E-2,-9.8138414E-2,-9.8138414E-2,6.839389E-2,-9.8138414E-2,8.0622956E-2,9.8138414E-2,-0E0,9.8138414E-2,-8.851344E-3,-9.8138414E-2,9.8138414E-2,-9.8138414E-2,9.8138414E-2,1.7183393E-2,-9.8138414E-2,9.8138414E-2,-9.8138414E-2,-9.8138414E-2,-6.6679968E-3,-9.8138414E-2,9.8138414E-2],"categories":[],"categories_nodes":[],"categories_segments":[],"categories_sizes":[],"default_left":[0,0,0,0,0,0,0,0,0,0,0,0,0,0,0,0,0,0,0,0,0,0,0,0,0,0,0,0,0,0,0,0,0,0,0,0,0,0,0,0,0,0,0,0,0,0,0,0,0,0,0,0,0,0,0,0,0,0,0,0,0,0,0,0,0,0,0,0,0,0,0,0,0,0,0,0,0,0,0,0,0,0,0,0,0,0,0,0,0,0,0,0,0,0,0],"id":1,"left_children":[1,3,5,7,9,11,13,15,17,19,21,23,25,27,29,31,33,35,37,-1,-1,39,41,43,45,47,-1,49,51,53,55,57,59,-1,61,-1,63,65,-1,-1,-1,67,-1,69,71,73,75,77,79,81,83,85,87,89,91,93,-1,-1,-1,-1,-1,-1,-1,-1,-1,-1,-1,-1,-1,-1,-1,-1,-1,-1,-1,-1,-1,-1,-1,-1,-1,-1,-1,-1,-1,-1,-1,-1,-1,-1,-1,-1,-1,-1,-1],"loss_changes":[6.033084E3,1.7879102E2,1.959074E3,1.14936035E2,3.774873E1,2.0654912E3,4.230298E2,9.75791E1,3.5275284E2,1.9759912E0,9.088089E0,7.966832E2,3.0480103E1,3.2608496E2,1.3276712E2,4.9668457E1,4.8325127E1,7.1193954E1,2.093901E1,0E0,0E0,5.678116E0,8.26055E0,3.9704785E2,3.8062463E2,1.7884766E1,0E0,1.7961621E2,4.3985497E1,1.1840515E1,6.910741E1,2.4601562E1,1.2874653E1,0E0,4.242241E0,0E0,2.4871552E1,2.364746E0,0E0,0E0,0E0,7.903148E0,0E0,4.3789087E2,2.154696E2,2.319032E2,2.0785132E2,2.407726E1,4.037964E0,2.0573161E2,1.4229492E2,1.665212E1,1.6814896E1,3.351307E1,3.3931427E0,2.7428642E1,0E0,0E0,0E0,0E0,0E0,0E0,0E0,0E0,0E0,0E0,0E0,0E0,0E0,0E0,0E0,0E0,0E0,0E0,0E0,0E0,0E0,0E0,0E0,0E0,0E0,0E0,0E0,0E0,0E0,0E0,0E0,0E0,0E0,0E0,0E0,0E0,0E0,0E0,0E0],"parents":[2147483647,0,0,1,1,2,2,3,3,4,4,5,5,6,6,7,7,8,8,9,9,10,10,11,11,12,12,13,13,14,14,15,15,16,16,17,17,18,18,21,21,22,22,23,23,24,24,25,25,27,27,28,28,29,29,30,30,31,31,32,32,34,34,36,36,37,37,41,41,43,43,44,44,45,45,46,46,47,47,48,48,49,49,50,50,51,51,52,52,53,53,54,54,55,55],"right_children":[2,4,6,8,10,12,14,16,18,20,22,24,26,28,30,32,34,36,38,-1,-1,40,42,44,46,48,-1,50,52,54,56,58,60,-1,62,-1,64,66,-1,-1,-1,68,-1,70,72,74,76,78,80,82,84,86,88,90,92,94,-1,-1,-1,-1,-1,-1,-1,-1,-1,-1,-1,-1,-1,-1,-1,-1,-1,-1,-1,-1,-1,-1,-1,-1,-1,-1,-1,-1,-1,-1,-1,-1,-1,-1,-1,-1,-1,-1,-1],"split_conditions":[9.911416E0,2.66E0,1.8083334E-1,3.8721364E0,8.077E3,7.05E-1,6.351E0,1.20964E5,1.4410894E1,3.822E3,2.6362576E0,8.624618E0,2.5460733E1,7.38E-1,2.3995699E1,7.7185004E2,8.001E3,3.9319244E2,6.75E-1,-9.8138414E-2,-9.241048E-3,1.6122234E0,4.3E0,1.1346666E1,7.897906E2,5.764288E-2,-9.8138414E-2,1.567098E0,8.77E2,9.8100006E1,1.81E2,2.0492939E1,8.55894E3,-9.8138414E-2,2.165056E1,-9.8138414E-2,9.609677E-1,7.48795E1,9.8138414E-2,-2.4108112E-2,9.8138414E-2,1.30887E5,9.8138414E-2,4.7077573E2,2.3362732E0,8.9775E1,2.795E3,5.0718E4,2.4136309E1,7.946931E0,4.9533337E1,2.036E4,1.7987999E1,1.4495844E1,5.4975E2,1.8716E4,-9.8138414E-2,-9.8138414E-2,8.633449E-2,-4.769622E-2,9.8138414E-2,9.8138414E-2,-1.1268067E-2,9.8138414E-2,-9.8138414E-2,-9.8138414E-2,-2.268132E-3,-9.8138414E-2,5.871899E-2,9.8138414E-2,-9.8138414E-2,-8.240972E-2,9.8138414E-2,-1.7222079E-2,-9.8138414E-2,-9.8138414E-2,6.839389E-2,-9.8138414E-2,8.0622956E-2,9.8138414E-2,-0E0,9.8138414E-2,-8.851344E-3,-9.8138414E-2,9.8138414E-2,-9.8138414E-2,9.8138414E-2,1.7183393E-2,-9.8138414E-2,9.8138414E-2,-9.8138414E-2,-9.8138414E-2,-6.6679968E-3,-9.8138414E-2,9.8138414E-2],"split_indices":[7,30,35,8,27,32,8,26,2,23,57,10,39,30,39,52,18,40,29,0,0,56,30,7,40,42,0,56,18,14,14,44,24,0,3,0,5,51,0,0,0,20,0,40,59,14,18,26,44,10,53,0,4,12,13,0,0,0,0,0,0,0,0,0,0,0,0,0,0,0,0,0,0,0,0,0,0,0,0,0,0,0,0,0,0,0,0,0,0,0,0,0,0,0,0],"split_type":[0,0,0,0,0,0,0,0,0,0,0,0,0,0,0,0,0,0,0,0,0,0,0,0,0,0,0,0,0,0,0,0,0,0,0,0,0,0,0,0,0,0,0,0,0,0,0,0,0,0,0,0,0,0,0,0,0,0,0,0,0,0,0,0,0,0,0,0,0,0,0,0,0,0,0,0,0,0,0,0,0,0,0,0,0,0,0,0,0,0,0,0,0,0,0],"sum_hessian":[8.965579E3,2.5486526E3,6.416927E3,2.4929006E3,5.5751884E1,3.1458145E3,3.2711125E3,2.2937004E3,1.992002E2,8.1777935E0,4.757409E1,2.4642993E3,6.8151514E2,3.1197285E3,1.5138396E2,2.2602205E3,3.347998E1,9.5046326E1,1.0415386E2,4.989356E0,3.1884377E0,3.780495E1,9.769138E0,7.591423E2,1.7051571E3,6.7752435E2,3.9907596E0,3.037712E3,8.201649E1,9.652299E1,5.4860977E1,2.2466453E3,1.3575361E1,6.733307E0,2.6746674E1,1.069707E1,8.434926E1,1.01023094E2,3.1307652E0,3.4405403E0,3.436441E1,6.395652E0,3.3734865E0,3.0522546E2,4.539168E2,1.3871016E3,3.1805554E2,1.7104683E1,6.604197E2,5.4373773E2,2.4939744E3,1.1623014E1,7.039347E1,1.7385841E1,7.9137146E1,4.3416004E1,1.1444972E1,2.2398604E3,6.784923E0,5.657086E0,7.9182754E0,2.3558569E1,3.1881063E0,8.110722E1,3.242031E0,9.7840294E1,3.1828017E0,3.2420654E0,3.1535864E0,8.662776E1,2.185977E2,6.365315E1,3.9026367E2,3.420116E2,1.04509E3,1.0239753E2,2.1565802E2,5.238547E0,1.1866137E1,6.5626776E2,4.151902E0,2.1965723E2,3.2408047E2,3.3102245E1,2.460872E3,3.7117016E0,7.911313E0,1.19546E1,5.843887E1,9.904354E0,7.4814863E0,7.448052E1,4.656627E0,3.4923353E0,3.9923668E1],"tree_param":{"num_deleted":"0","num_feature":"60","num_nodes":"95","size_leaf_vector":"1"}},{"base_weights":[-7.2805122E-3,-1E0,4.9361247E-1,-1E0,7.9790664E-1,-5.0225433E-2,1E0,-1E0,-2.5615072E-1,-9.8138414E-2,1E0,-4.7638828E-1,1E0,1E0,-6.817243E-1,-1E0,4.797237E-1,1E0,-1E0,1E0,-4.8765913E-2,3.0099827E-1,-8.253067E-1,-9.8138414E-2,1E0,3.765958E-1,1E0,-1E0,4.291102E-1,-1E0,9.8138414E-2,-9.8138414E-2,1E0,-1E0,1E0,-9.8138414E-2,5.6747556E-1,1E0,-0E0,-9.436168E-1,7.056197E-1,-9.8227346E-1,8.869169E-1,-9.8138414E-2,1E0,1E0,-1.4754513E-1,1E0,-9.988685E-1,-1E0,7.8272454E-2,1E0,-1E0,-9.8138414E-2,3.45595E-2,9.8138414E-2,-1.3431561E-2,-9.8138414E-2,5.169559E-2,-9.8138414E-2,9.8138414E-2,9.8138414E-2,-9.8138414E-2,4.0567975E-2,9.8138414E-2,-9.8138414E-2,9.8138414E-2,9.502973E-2,-9.8138414E-2,-1.4254948E-3,-9.8138414E-2,-9.8138414E-2,9.8138414E-2,9.8138414E-2,-3.294248E-2,9.8138414E-2,-7.09464E-2,-7.485409E-2,5.7136834E-2,-7.7657536E-2,9.8138414E-2,9.8138414E-2,-9.8138414E-2,-2.7508633E-3,-9.8138414E-2,-4.9909934E-2,9.8138414E-2,-9.8138414E-2,8.219978E-2],"categories":[],"categories_nodes":[],"categories_segments":[],"categories_sizes":[],"default_left":[0,0,0,0,0,0,0,0,0,0,0,0,0,0,0,0,0,0,0,0,0,0,0,0,0,0,0,0,0,0,0,0,0,0,0,0,0,0,0,0,0,0,0,0,0,0,0,0,0,0,0,0,0,0,0,0,0,0,0,0,0,0,0,0,0,0,0,0,0,0,0,0,0,0,0,0,0,0,0,0,0,0,0,0,0,0,0,0,0],"id":2,"left_children":[1,3,5,7,9,11,13,15,17,-1,19,21,23,25,27,29,31,33,35,37,-1,39,41,-1,43,45,47,49,51,53,-1,-1,55,57,59,-1,61,63,-1,65,67,69,71,-1,73,75,77,79,81,83,-1,85,87,-1,-1,-1,-1,-1,-1,-1,-1,-1,-1,-1,-1,-1,-1,-1,-1,-1,-1,-1,-1,-1,-1,-1,-1,-1,-1,-1,-1,-1,-1,-1,-1,-1,-1,-1,-1],"loss_changes":[5.4403345E3,2.015476E2,1.8003403E3,1.0924414E2,4.6809364E1,1.905031E3,4.131399E2,6.657617E1,2.9041064E2,0E0,9.211868E0,6.6488727E2,3.8097534E1,2.7045483E2,1.10274475E2,2.85625E1,4.6236893E1,7.4328964E1,3.1494568E1,4.276039E0,0E0,3.8263153E2,4.548656E2,0E0,1.5166138E1,2.5936472E2,1.4409717E2,1.3901337E1,8.83626E1,2.6175293E1,0E0,0E0,4.409874E0,1.0641596E1,2.5558563E1,0E0,2.8747883E1,1.5149155E0,0E0,1.8787851E2,2.6886295E2,2.3280066E2,1.1271119E2,0E0,6.505615E0,6.892914E1,1.8110593E2,1.1113818E2,2.1797234E1,2.317459E0,0E0,1.4349556E1,1.363345E1,0E0,0E0,0E0,0E0,0E0,0E0,0E0,0E0,0E0,0E0,0E0,0E0,0E0,0E0,0E0,0E0,0E0,0E0,0E0,0E0,0E0,0E0,0E0,0E0,0E0,0E0,0E0,0E0,0E0,0E0,0E0,0E0,0E0,0E0,0E0,0E0],"parents":[2147483647,0,0,1,1,2,2,3,3,4,4,5,5,6,6,7,7,8,8,10,10,11,11,12,12,13,13,14,14,15,15,16,16,17,17,18,18,19,19,21,21,22,22,24,24,25,25,26,26,27,27,28,28,29,29,32,32,33,33,34,34,36,36,37,37,39,39,40,40,41,41,42,42,44,44,45,45,46,46,47,47,48,48,49,49,51,51,52,52],"right_children":[2,4,6,8,10,12,14,16,18,-1,20,22,24,26,28,30,32,34,36,38,-1,40,42,-1,44,46,48,50,52,54,-1,-1,56,58,60,-1,62,64,-1,66,68,70,72,-1,74,76,78,80,82,84,-1,86,88,-1,-1,-1,-1,-1,-1,-1,-1,-1,-1,-1,-1,-1,-1,-1,-1,-1,-1,-1,-1,-1,-1,-1,-1,-1,-1,-1,-1,-1,-1,-1,-1,-1,-1,-1,-1],"split_conditions":[9.911416E0,2.66E0,1.8083334E-1,3.8721364E0,9.713E3,7.05E-1,6.283889E0,1.20964E5,1.4410894E1,-9.8138414E-2,2.9090576E0,8.624618E0,7.48E-1,1.6241455E0,1.7827E2,2.093642E1,7.604E3,4.0604733E2,2.9176647E1,3.0503845E0,-4.8765913E-2,1.8049711E1,3.1338043E1,-9.8138414E-2,3.971841E0,7.923849E0,7.38E-1,3.0916667E-1,1.125625E1,7.7185004E2,9.8138414E-2,-9.8138414E-2,2.2226665E1,2.2888888E-1,2.3097342E1,-9.8138414E-2,9.980106E0,1.6433817E0,-0E0,7.0577E4,2.7827742E1,3.302E3,3.7666883E0,-9.8138414E-2,2.4136309E1,1.7465376E1,1.9942E4,5.0664288E1,9.355E1,1.2277E4,7.8272454E-2,2.3171219E1,6.92E-1,-9.8138414E-2,3.45595E-2,9.8138414E-2,-1.3431561E-2,-9.8138414E-2,5.169559E-2,-9.8138414E-2,9.8138414E-2,9.8138414E-2,-9.8138414E-2,4.0567975E-2,9.8138414E-2,-9.8138414E-2,9.8138414E-2,9.502973E-2,-9.8138414E-2,-1.4254948E-3,-9.8138414E-2,-9.8138414E-2,9.8138414E-2,9.8138414E-2,-3.294248E-2,9.8138414E-2,-7.09464E-2,-7.485409E-2,5.7136834E-2,-7.7657536E-2,9.8138414E-2,9.8138414E-2,-9.8138414E-2,-2.7508633E-3,-9.8138414E-2,-4.9909934E-2,9.8138414E-2,-9.8138414E-2,8.219978E-2],"split_indices":[7,30,35,8,22,32,8,26,2,0,57,10,31,56,54,44,17,40,39,59,0,4,43,0,45,10,30,35,50,52,0,0,43,36,39,0,12,56,0,22,3,21,1,0,44,2,27,53,14,21,0,39,30,0,0,0,0,0,0,0,0,0,0,0,0,0,0,0,0,0,0,0,0,0,0,0,0,0,0,0,0,0,0,0,0,0,0,0,0],"split_type":[0,0,0,0,0,0,0,0,0,0,0,0,0,0,0,0,0,0,0,0,0,0,0,0,0,0,0,0,0,0,0,0,0,0,0,0,0,0,0,0,0,0,0,0,0,0,0,0,0,0,0,0,0,0,0,0,0,0,0,0,0,0,0,0,0,0,0,0,0,0,0,0,0,0,0,0,0,0,0,0,0,0,0,0,0,0,0,0,0],"sum_hessian":[8.922971E3,2.543098E3,6.3798735E3,2.4809297E3,6.2168243E1,3.1149656E3,3.2649077E3,2.2824688E3,1.9846094E2,8.167024E0,5.400122E1,2.450116E3,6.6484955E2,3.119019E3,1.4588867E2,2.2522666E3,3.0201975E1,9.429267E1,1.0416827E2,5.009275E1,3.9084704E0,7.588201E2,1.6912959E3,6.439245E0,6.584103E2,6.9723047E2,2.4217886E3,8.497258E1,6.0916096E1,2.2462585E3,6.0080953E0,7.429631E0,2.2772343E1,1.5765214E1,7.852746E1,9.154774E1,1.2620531E1,4.596201E1,4.130739E0,1.8602982E2,5.7279034E2,1.5493898E3,1.4190608E2,3.2024608E0,6.552078E2,2.950536E2,4.0217688E2,2.3858943E3,3.589426E1,8.085333E1,4.119251E0,3.922223E1,2.1693867E1,2.2321543E3,1.4104283E1,1.9584753E1,3.18759E0,1.1400575E1,4.3646393E0,3.223648E0,7.530381E1,8.405739E0,4.2147923E0,5.840218E0,4.012179E1,1.5206917E2,3.3960644E1,4.9950488E2,7.3285446E1,2.4089935E2,1.3084905E3,1.4699973E1,1.2720611E2,6.5177454E2,3.4332654E0,2.720207E2,2.3032873E1,2.1838562E2,1.8379126E2,3.445232E1,2.3514421E3,4.324196E0,3.1570063E1,3.1626525E0,7.769068E1,6.1035204E0,3.3118706E1,1.7836807E1,3.85706E0],"tree_param":{"num_deleted":"0","num_feature":"60","num_nodes":"89","size_leaf_vector":"1"}},{"base_weights":[-1.4142029E-2,-1E0,4.535857E-1,-1E0,8.239322E-1,1.779126E-2,9.973055E-1,-1E0,-2.3681617E-1,-9.8138414E-2,1E0,1E0,-4.1459134E-1,1E0,-7.535905E-1,-1E0,-2.8515753E-1,1E0,-1E0,1E0,-2.0578563E-2,1E0,-9.8138414E-2,8.5917346E-2,-1E0,1E0,1.7248209E-1,-1E0,9.8138414E-2,-1E0,1E0,1E0,-8.8484854E-1,-9.7463614E-1,1E0,-1E0,3.5955244E-1,2.7927214E-1,1E0,-1E0,1E0,-2.2692846E-1,1E0,9.8805666E-1,-1E0,1E0,-1E0,1E0,-8.1657934E-1,-1E0,-2.6035386E-3,-9.8138414E-2,4.2253647E-2,9.8138414E-2,4.0386718E-2,9.8138414E-2,-9.8138414E-2,-9.8138414E-2,3.448267E-2,9.982877E-3,-9.8138414E-2,9.8138414E-2,-3.1837817E-2,-9.8138414E-2,-9.300484E-3,9.8138414E-2,-9.8138414E-2,9.8138414E-2,-9.8138414E-2,9.8138414E-2,5.5430323E-2,-9.8138414E-2,9.135354E-2,9.8138414E-2,-3.4017436E-2,-7.998086E-2,9.84315E-3,-9.8138414E-2,9.8138414E-2,9.8138414E-2,-9.8138414E-2,-9.8138414E-2,9.8138414E-2,9.8138414E-2,-7.313514E-2,-9.8138414E-2,8.3932266E-2,-9.8138414E-2,9.8138414E-2,-9.8138414E-2,4.4469647E-2,-9.8138414E-2,-3.6267877E-2],"categories":[],"categories_nodes":[],"categories_segments":[],"categories_sizes":[],"default_left":[0,0,0,0,0,0,0,0,0,0,0,0,0,0,0,0,0,0,0,0,0,0,0,0,0,0,0,0,0,0,0,0,0,0,0,0,0,0,0,0,0,0,0,0,0,0,0,0,0,0,0,0,0,0,0,0,0,0,0,0,0,0,0,0,0,0,0,0,0,0,0,0,0,0,0,0,0,0,0,0,0,0,0,0,0,0,0,0,0,0,0,0,0],"id":3,"left_children":[1,3,5,7,9,11,13,15,17,-1,19,21,23,25,27,29,31,33,35,37,-1,39,-1,41,43,45,47,49,-1,51,53,55,57,59,61,63,65,67,69,71,73,75,77,79,81,83,85,87,89,91,-1,-1,-1,-1,-1,-1,-1,-1,-1,-1,-1,-1,-1,-1,-1,-1,-1,-1,-1,-1,-1,-1,-1,-1,-1,-1,-1,-1,-1,-1,-1,-1,-1,-1,-1,-1,-1,-1,-1,-1,-1,-1,-1],"loss_changes":[4.7324946E3,2.135249E2,1.4916564E3,1.1533569E2,3.744042E1,1.6047775E3,5.22947E2,6.4498535E1,2.6645996E2,0E0,7.096573E0,2.5774036E2,8.693286E2,1.17763916E2,2.4120854E2,3.117212E1,1.3031258E2,7.3159706E1,2.320691E1,4.960617E0,0E0,1.6152307E2,0E0,4.215416E2,1.4476819E2,1.1591748E2,1.9032207E2,2.541153E0,0E0,3.1104004E1,5.804663E-1,2.2170761E1,4.5976135E1,8.508497E0,9.704514E0,2.3223724E0,2.4347574E1,1.236835E1,3.9718628E-1,2.6637344E1,1.1998511E2,2.1004074E2,1.9903995E2,4.808744E1,5.5180298E1,9.575952E1,1.1393185E1,4.929541E1,6.015589E1,2.5781555E0,0E0,0E0,0E0,0E0,0E0,0E0,0E0,0E0,0E0,0E0,0E0,0E0,0E0,0E0,0E0,0E0,0E0,0E0,0E0,0E0,0E0,0E0,0E0,0E0,0E0,0E0,0E0,0E0,0E0,0E0,0E0,0E0,0E0,0E0,0E0,0E0,0E0,0E0,0E0,0E0,0E0,0E0,0E0],"parents":[2147483647,0,0,1,1,2,2,3,3,4,4,5,5,6,6,7,7,8,8,10,10,11,11,12,12,13,13,14,14,15,15,16,16,17,17,18,18,19,19,21,21,23,23,24,24,25,25,26,26,27,27,29,29,30,30,31,31,32,32,33,33,34,34,35,35,36,36,37,37,38,38,39,39,40,40,41,41,42,42,43,43,44,44,45,45,46,46,47,47,48,48,49,49],"right_children":[2,4,6,8,10,12,14,16,18,-1,20,22,24,26,28,30,32,34,36,38,-1,40,-1,42,44,46,48,50,-1,52,54,56,58,60,62,64,66,68,70,72,74,76,78,80,82,84,86,88,90,92,-1,-1,-1,-1,-1,-1,-1,-1,-1,-1,-1,-1,-1,-1,-1,-1,-1,-1,-1,-1,-1,-1,-1,-1,-1,-1,-1,-1,-1,-1,-1,-1,-1,-1,-1,-1,-1,-1,-1,-1,-1,-1,-1],"split_conditions":[9.911416E0,3.01E0,3.5397E4,3.8373332E0,5.8092E4,1.6105162E1,1.5160903E1,3.04196E5,1.4410894E1,-9.8138414E-2,3.0503845E0,2.1464603E1,1.4805E2,1.7951334E2,2.68E0,2.093642E1,4.2127E4,4.2097087E0,2.9176647E1,2.68E0,-2.0578563E-2,1.6739355E1,-9.8138414E-2,2.1662863E1,6.4200005E1,1.4702975E1,1.21005E5,5.4975E2,9.8138414E-2,6.05275E2,5.761747E0,1.8666667E-1,9.45545E5,4.912E3,4.3155457E2,2.458988E4,9.980106E0,2.41E0,2.9090576E0,1.92705E5,2.722337E1,6.3E-2,5.6525E1,-5.427103E0,3.9083332E-1,3.087E2,1.5106865E1,1.89376E5,5.707659E0,3.0779622E0,-2.6035386E-3,-9.8138414E-2,4.2253647E-2,9.8138414E-2,4.0386718E-2,9.8138414E-2,-9.8138414E-2,-9.8138414E-2,3.448267E-2,9.982877E-3,-9.8138414E-2,9.8138414E-2,-3.1837817E-2,-9.8138414E-2,-9.300484E-3,9.8138414E-2,-9.8138414E-2,9.8138414E-2,-9.8138414E-2,9.8138414E-2,5.5430323E-2,-9.8138414E-2,9.135354E-2,9.8138414E-2,-3.4017436E-2,-7.998086E-2,9.84315E-3,-9.8138414E-2,9.8138414E-2,9.8138414E-2,-9.8138414E-2,-9.8138414E-2,9.8138414E-2,9.8138414E-2,-7.313514E-2,-9.8138414E-2,8.3932266E-2,-9.8138414E-2,9.8138414E-2,-9.8138414E-2,4.4469647E-2,-9.8138414E-2,-3.6267877E-2],"split_indices":[7,31,26,8,19,2,12,20,2,0,59,46,14,49,29,44,23,38,39,29,0,43,0,44,55,12,28,13,0,16,38,34,20,20,52,24,12,29,57,0,43,33,53,5,34,16,12,25,38,59,0,0,0,0,0,0,0,0,0,0,0,0,0,0,0,0,0,0,0,0,0,0,0,0,0,0,0,0,0,0,0,0,0,0,0,0,0,0,0,0,0,0,0],"split_type":[0,0,0,0,0,0,0,0,0,0,0,0,0,0,0,0,0,0,0,0,0,0,0,0,0,0,0,0,0,0,0,0,0,0,0,0,0,0,0,0,0,0,0,0,0,0,0,0,0,0,0,0,0,0,0,0,0,0,0,0,0,0,0,0,0,0,0,0,0,0,0,0,0,0,0,0,0,0,0,0,0,0,0,0,0,0,0,0,0,0,0,0,0],"sum_hessian":[8.818237E3,2.5226714E3,6.2955654E3,2.458668E3,6.400339E1,3.494846E3,2.8007195E3,2.2596616E3,1.9900627E2,5.6352553E0,5.8368134E1,1.0085311E3,2.486315E3,2.6308394E3,1.698801E2,2.132359E3,1.27302734E2,9.404103E1,1.0496523E2,5.3739452E1,4.6286783E0,9.754639E2,3.306719E1,1.4592146E3,1.0271002E3,2.4579846E3,1.7285484E2,1.327225E2,3.71576E1,2.125702E3,6.6570606E0,3.1497911E1,9.5804825E1,1.8590572E1,7.545046E1,9.262178E1,1.2343451E1,1.0620037E1,4.3119415E1,3.1263409E1,9.4420056E2,1.0893313E3,3.6988327E2,3.6456707E1,9.9064355E2,2.4359136E3,2.2071005E1,7.966412E1,9.319073E1,1.2933284E2,3.3896496E0,2.11071E3,1.4991862E1,3.549397E0,3.1076636E0,2.6634735E1,4.8631754E0,7.018866E1,2.5616165E1,6.779654E0,1.1810918E1,7.013198E1,5.318482E0,8.9006714E1,3.6150718E0,8.179161E0,4.1642895E0,7.1825013E0,3.4375358E0,3.8773266E1,4.346153E0,2.4293438E1,6.96997E0,8.782476E2,6.595291E1,3.897025E2,6.9962885E2,3.4095684E1,3.357876E2,3.0298735E1,6.1579723E0,9.810566E2,9.586964E0,2.40466E3,3.1253578E1,1.894021E1,3.130795E0,8.788751E0,7.0875374E1,6.348247E1,2.9708258E1,1.2155095E2,7.7819014E0],"tree_param":{"num_deleted":"0","num_feature":"60","num_nodes":"93","size_leaf_vector":"1"}},{"base_weights":[-6.2302933E-3,-1E0,4.3237734E-1,-1E0,1E0,-1.6249098E-3,9.602663E-1,-1E0,-2.552871E-1,-9.8138414E-2,1E0,-3.138114E-1,1E0,6.0687818E-2,1E0,-1E0,5.2002275E-1,-1E0,6.6058207E-1,1E0,-1.8358119E-2,4.1992775E-1,-6.7759544E-1,1E0,-9.6170235E-1,1E0,-5.98381E-1,1E0,-1E0,-1E0,-4.0304098E-1,-9.8138414E-2,1E0,-1E0,1.3742054E-1,1E0,-8.90057E-1,9.8138414E-2,1.8572686E-2,-5.360773E-1,9.254966E-1,-8.173677E-1,7.022777E-1,1E0,-9.8138414E-2,-9.8138414E-2,2.7898947E-2,1E0,-9.8138414E-2,6.217754E-1,-1E0,-1E0,1E0,9.8138414E-2,-9.8138414E-2,-9.8138414E-2,3.584823E-2,8.545944E-2,-9.8138414E-2,9.8138414E-2,1.8594382E-2,-9.8138414E-2,2.2860894E-2,9.8138414E-2,-6.8927854E-2,9.8138414E-2,-9.8138414E-2,-9.8138414E-2,9.8138414E-2,9.8138414E-2,-9.8138414E-2,-7.916178E-2,9.8138414E-2,-2.5732597E-2,-9.8138414E-2,-9.8138414E-2,9.8138414E-2,9.8138414E-2,-9.8138414E-2,9.8138414E-2,-9.8138414E-2,-9.8138414E-2,9.8138414E-2,-9.8138414E-2,9.8138414E-2,8.708154E-2,-9.8138414E-2,9.8138414E-2,-9.8138414E-2],"categories":[],"categories_nodes":[],"categories_segments":[],"categories_sizes":[],"default_left":[0,0,0,0,0,0,1,0,0,0,0,0,0,0,0,0,0,0,0,0,0,0,0,0,0,0,0,0,0,0,0,0,0,0,0,0,0,0,0,0,0,0,0,0,0,0,0,0,0,0,0,0,0,0,0,0,0,0,0,0,0,0,0,0,0,0,0,0,0,0,0,0,0,0,0,0,0,0,0,0,0,0,0,0,0,0,0,0,0],"id":4,"left_children":[1,3,5,7,9,11,13,15,17,-1,19,21,23,25,27,29,31,33,35,37,-1,39,41,43,45,47,49,51,53,55,57,-1,59,61,63,65,67,-1,-1,69,71,73,75,77,-1,-1,-1,79,-1,81,83,85,87,-1,-1,-1,-1,-1,-1,-1,-1,-1,-1,-1,-1,-1,-1,-1,-1,-1,-1,-1,-1,-1,-1,-1,-1,-1,-1,-1,-1,-1,-1,-1,-1,-1,-1,-1,-1],"loss_changes":[4.153691E3,2.3834058E2,1.4208278E3,1.3487427E2,2.2554508E1,1.3709723E3,3.8660376E2,6.948486E1,1.6827676E2,0E0,6.836891E0,7.401804E2,4.3845825E1,3.3539398E2,1.3101514E2,4.6071533E1,3.557441E1,2.146637E1,1.1129599E2,1.5858078E0,0E0,4.444058E2,3.5768213E2,1.9891235E1,7.874112E0,4.487799E1,1.4381042E2,1.0053833E2,2.0157173E1,2.4256104E1,1.5610426E2,0E0,3.9463692E0,1.1489563E1,1.88204E1,2.7160309E1,2.515238E1,0E0,0E0,3.4733356E2,2.183424E2,2.9343323E2,1.1346017E2,1.3760254E1,0E0,0E0,0E0,2.4659698E1,0E0,7.676178E1,3.3323166E1,2.2333067E1,9.35603E1,0E0,0E0,0E0,0E0,0E0,0E0,0E0,0E0,0E0,0E0,0E0,0E0,0E0,0E0,0E0,0E0,0E0,0E0,0E0,0E0,0E0,0E0,0E0,0E0,0E0,0E0,0E0,0E0,0E0,0E0,0E0,0E0,0E0,0E0,0E0,0E0],"parents":[2147483647,0,0,1,1,2,2,3,3,4,4,5,5,6,6,7,7,8,8,10,10,11,11,12,12,13,13,14,14,15,15,16,16,17,17,18,18,19,19,21,21,22,22,23,23,24,24,25,25,26,26,27,27,28,28,29,29,30,30,32,32,33,33,34,34,35,35,36,36,39,39,40,40,41,41,42,42,43,43,47,47,49,49,50,50,51,51,52,52],"right_children":[2,4,6,8,10,12,14,16,18,-1,20,22,24,26,28,30,32,34,36,38,-1,40,42,44,46,48,50,52,54,56,58,-1,60,62,64,66,68,-1,-1,70,72,74,76,78,-1,-1,-1,80,-1,82,84,86,88,-1,-1,-1,-1,-1,-1,-1,-1,-1,-1,-1,-1,-1,-1,-1,-1,-1,-1,-1,-1,-1,-1,-1,-1,-1,-1,-1,-1,-1,-1,-1,-1,-1,-1,-1,-1],"split_conditions":[9.911416E0,2.68E0,2.0083334E-1,2.4564815E-1,5.8092E4,7.05E-1,2.206E4,1.20964E5,1.744812E0,-9.8138414E-2,3.0503845E0,8.624618E0,-2.1E-2,1.5130645E1,1.5160903E1,2.5937698E1,9.784E3,9.298944E0,2.65802E3,-3.14E0,-1.8358119E-2,1.1346666E1,3.0977137E1,2.8401794E0,1.6083333E-1,1.7131818E2,9.69E1,1.0214499E1,1.169362E1,7.7185004E2,-7.72E0,-9.8138414E-2,3.45E-1,5.8851E4,1.3082E2,2.796641E0,6.190739E0,9.8138414E-2,1.8572686E-2,4.7077573E2,2.3362732E0,1.157E2,4.86E0,3.571E2,-9.8138414E-2,-9.8138414E-2,2.7898947E-2,2.573283E0,-9.8138414E-2,3.678E3,8.730124E2,1.7719326E1,7.47E-1,9.8138414E-2,-9.8138414E-2,-9.8138414E-2,3.584823E-2,8.545944E-2,-9.8138414E-2,9.8138414E-2,1.8594382E-2,-9.8138414E-2,2.2860894E-2,9.8138414E-2,-6.8927854E-2,9.8138414E-2,-9.8138414E-2,-9.8138414E-2,9.8138414E-2,9.8138414E-2,-9.8138414E-2,-7.916178E-2,9.8138414E-2,-2.5732597E-2,-9.8138414E-2,-9.8138414E-2,9.8138414E-2,9.8138414E-2,-9.8138414E-2,9.8138414E-2,-9.8138414E-2,-9.8138414E-2,9.8138414E-2,-9.8138414E-2,9.8138414E-2,8.708154E-2,-9.8138414E-2,9.8138414E-2,-9.8138414E-2],"split_indices":[7,29,35,33,19,32,0,26,58,0,59,10,33,2,12,39,18,7,24,36,0,7,43,58,35,53,14,7,10,52,33,0,29,22,13,57,38,0,0,40,59,14,50,15,0,0,0,57,0,18,40,46,30,0,0,0,0,0,0,0,0,0,0,0,0,0,0,0,0,0,0,0,0,0,0,0,0,0,0,0,0,0,0,0,0,0,0,0,0],"split_type":[0,0,0,0,0,0,0,0,0,0,0,0,0,0,0,0,0,0,0,0,0,0,0,0,0,0,0,0,0,0,0,0,0,0,0,0,0,0,0,0,0,0,0,0,0,0,0,0,0,0,0,0,0,0,0,0,0,0,0,0,0,0,0,0,0,0,0,0,0,0,0,0,0,0,0,0,0,0,0,0,0,0,0,0,0,0,0,0,0],"sum_hessian":[8.675895E3,2.4758252E3,6.200069E3,2.4200044E3,5.582085E1,3.4023809E3,2.797688E3,2.1757896E3,2.4421481E2,3.377603E0,5.244325E1,2.771726E3,6.3065485E2,4.4389194E2,2.3537961E3,2.1459165E3,2.9873024E1,1.3444992E2,1.097649E2,4.781341E1,4.629836E0,9.185064E2,1.8532197E3,6.194342E2,1.1220627E1,1.5976205E2,2.8412988E2,2.3252598E3,2.8536335E1,2.0152308E3,1.306857E2,5.8948355E0,2.3978188E1,1.1808164E2,1.636827E1,7.531205E1,3.4452854E1,4.4492725E1,3.3206866E0,3.1756213E2,6.009443E2,1.6829163E3,1.703035E2,6.1603766E2,3.3965259E0,6.6690807E0,4.5515466E0,1.5486862E2,4.8934255E0,7.180363E1,2.1232626E2,2.1574884E1,2.3036848E3,4.8143253E0,2.372201E1,2.0024294E3,1.2801317E1,5.7613827E1,7.307187E1,1.7062649E1,6.9155397E0,1.1074307E2,7.338572E0,6.0638585E0,1.0304414E1,7.122278E1,4.089272E0,2.977911E1,4.673745E0,8.181821E1,2.3574391E2,6.771973E1,5.3322455E2,6.429922E2,1.0399241E3,3.1161755E1,1.3914175E2,6.1285315E2,3.1845436E0,1.5102002E2,3.848597E0,1.3638211E1,5.816542E1,2.0656099E2,5.7652764E0,6.0923824E0,1.5482501E1,2.2873137E3,1.6371126E1],"tree_param":{"num_deleted":"0","num_feature":"60","num_nodes":"89","size_leaf_vector":"1"}},{"base_weights":[-8.712608E-3,-1E0,3.974277E-1,-1E0,1E0,1.5566383E-2,9.210946E-1,-1E0,-5.211882E-1,-9.8138414E-2,1E0,5.946177E-1,-3.023641E-1,9.9315745E-1,-3.2355788E-1,-1E0,-4.5924225E-1,-1E0,1.4304243E-1,1E0,-6.8062775E-2,-4.0403178E-1,1E0,8.134325E-1,-5.687527E-1,-2.2270852E-1,1E0,9.721357E-1,-9.921948E-1,-1E0,3.414782E-2,1E0,-1E0,-1E0,5.109469E-3,9.8138414E-2,-4.1122094E-1,1E0,-0E0,-8.3512694E-1,7.859562E-1,1E0,-5.048469E-1,1E0,-1E0,-2.377854E-1,-1E0,1E0,-7.6295966E-1,1E0,-1E0,1E0,-9.8138414E-2,8.713783E-1,-1E0,-9.8138414E-2,-3.5536338E-2,9.8138414E-2,-5.206276E-2,-9.8138414E-2,8.6246146E-4,-7.907316E-2,-9.8138414E-2,-6.7061834E-2,9.8138414E-2,6.5618716E-2,9.8138414E-2,9.903358E-3,-9.8138414E-2,-5.753272E-2,9.8138414E-2,9.8138414E-2,-9.8138414E-2,-9.8138414E-2,9.424575E-2,-7.595094E-2,9.8138414E-2,9.8138414E-2,-9.8138414E-2,-8.363804E-2,5.7910425E-3,-9.8138414E-2,6.845148E-2,9.8138414E-2,-9.8138414E-2,-9.8138414E-2,2.3527207E-2,6.2124256E-2,9.8138414E-2,5.4119833E-2,-9.8138414E-2,8.458336E-4,9.8138414E-2,-9.8138414E-2,9.8138414E-2,-9.8138414E-2,-3.687465E-2],"categories":[],"categories_nodes":[],"categories_segments":[],"categories_sizes":[],"default_left":[0,0,0,0,0,0,0,0,0,0,0,0,0,0,0,0,0,0,0,0,0,0,0,0,0,0,0,0,0,0,0,0,0,0,0,0,0,0,0,0,0,0,0,0,0,0,0,0,0,0,0,0,0,0,0,0,0,0,0,0,0,0,0,0,0,0,0,0,0,0,0,0,0,0,0,0,0,0,0,0,0,0,0,0,0,0,0,0,0,0,0,0,0,0,0,0,0],"id":5,"left_children":[1,3,5,7,9,11,13,15,17,-1,19,21,23,25,27,29,31,33,35,37,-1,39,41,43,45,47,49,51,53,55,-1,57,59,61,-1,-1,63,65,-1,67,69,71,73,75,77,79,81,83,85,87,89,91,-1,93,95,-1,-1,-1,-1,-1,-1,-1,-1,-1,-1,-1,-1,-1,-1,-1,-1,-1,-1,-1,-1,-1,-1,-1,-1,-1,-1,-1,-1,-1,-1,-1,-1,-1,-1,-1,-1,-1,-1,-1,-1,-1,-1],"loss_changes":[3.7198665E3,6.347229E2,1.234165E3,6.305249E1,3.7181458E1,6.576165E2,2.3355127E2,2.586914E1,1.3210036E2,0E0,1.1508194E1,8.2415674E2,6.85229E2,1.7838159E2,1.23925934E2,8.593262E0,1.5829443E2,5.511322E0,1.2826346E2,4.4247437E0,0E0,2.68885E2,1.2322217E2,3.0840286E2,3.4169995E2,8.243576E1,1.1008325E2,3.0448715E1,5.2539833E1,7.0578613E0,0E0,1.1041405E1,4.0570145E0,9.01947E-1,0E0,0E0,5.4856262E1,1.3189697E-1,0E0,1.4866168E2,5.6032578E1,5.4091675E1,5.1064346E1,8.5259186E1,2.4229736E1,2.1637598E2,6.4686646E1,3.602658E1,4.7663303E1,8.234277E1,7.9476852E0,6.188362E0,0E0,2.1213348E1,8.054047E0,0E0,0E0,0E0,0E0,0E0,0E0,0E0,0E0,0E0,0E0,0E0,0E0,0E0,0E0,0E0,0E0,0E0,0E0,0E0,0E0,0E0,0E0,0E0,0E0,0E0,0E0,0E0,0E0,0E0,0E0,0E0,0E0,0E0,0E0,0E0,0E0,0E0,0E0,0E0,0E0,0E0,0E0],"parents":[2147483647,0,0,1,1,2,2,3,3,4,4,5,5,6,6,7,7,8,8,10,10,11,11,12,12,13,13,14,14,15,15,16,16,17,17,18,18,19,19,21,21,22,22,23,23,24,24,25,25,26,26,27,27,28,28,29,29,31,31,32,32,33,33,36,36,37,37,39,39,40,40,41,41,42,42,43,43,44,44,45,45,46,46,47,47,48,48,49,49,50,50,51,51,53,53,54,54],"right_children":[2,4,6,8,10,12,14,16,18,-1,20,22,24,26,28,30,32,34,36,38,-1,40,42,44,46,48,50,52,54,56,-1,58,60,62,-1,-1,64,66,-1,68,70,72,74,76,78,80,82,84,86,88,90,92,-1,94,96,-1,-1,-1,-1,-1,-1,-1,-1,-1,-1,-1,-1,-1,-1,-1,-1,-1,-1,-1,-1,-1,-1,-1,-1,-1,-1,-1,-1,-1,-1,-1,-1,-1,-1,-1,-1,-1,-1,-1,-1,-1,-1],"split_conditions":[5.4545456E-1,2.68E0,3.5397E4,1.736111E-1,1.8064677E0,1.6105162E1,6.616989E0,5.86209E5,2.064392E0,-9.8138414E-2,2.7149963E0,3.8721364E0,8.93725E1,2.2405455E1,1.21005E5,1.03858E5,4.05003E5,7.1844E4,1.183E3,2.7324524E0,-6.8062775E-2,1.9679417E1,8.429512E0,-3.2810395E0,1.715E2,8.9775E1,3.8467145E2,1.4698699E1,9.576667E1,3.0805555E-1,3.414782E-2,1.181E4,2.7027777E-1,1.6076E2,5.109469E-3,9.8138414E-2,3.4833333E-1,8.793E3,-0E0,1.4651613E0,2.5060305E1,4.03E1,2.5001466E0,6.9551E4,1.7337406E1,3.3196E4,3.29E-1,1.70465E1,6.0168E4,1.8376566E0,1.2935294E0,2.2571E4,-9.8138414E-2,2.0149841E0,3.9942472E0,-9.8138414E-2,-3.5536338E-2,9.8138414E-2,-5.206276E-2,-9.8138414E-2,8.6246146E-4,-7.907316E-2,-9.8138414E-2,-6.7061834E-2,9.8138414E-2,6.5618716E-2,9.8138414E-2,9.903358E-3,-9.8138414E-2,-5.753272E-2,9.8138414E-2,9.8138414E-2,-9.8138414E-2,-9.8138414E-2,9.424575E-2,-7.595094E-2,9.8138414E-2,9.8138414E-2,-9.8138414E-2,-8.363804E-2,5.7910425E-3,-9.8138414E-2,6.845148E-2,9.8138414E-2,-9.8138414E-2,-9.8138414E-2,2.3527207E-2,6.2124256E-2,9.8138414E-2,5.4119833E-2,-9.8138414E-2,8.458336E-4,9.8138414E-2,-9.8138414E-2,9.8138414E-2,-9.8138414E-2,-3.687465E-2],"split_indices":[50,29,26,36,57,2,8,20,57,0,58,8,13,41,28,26,28,22,22,57,0,4,10,5,14,14,16,12,16,34,0,0,34,24,0,0,36,27,0,1,39,50,5,20,39,0,36,4,26,56,8,23,0,58,5,0,0,0,0,0,0,0,0,0,0,0,0,0,0,0,0,0,0,0,0,0,0,0,0,0,0,0,0,0,0,0,0,0,0,0,0,0,0,0,0,0,0],"split_type":[0,0,0,0,0,0,0,0,0,0,0,0,0,0,0,0,0,0,0,0,0,0,0,0,0,0,0,0,0,0,0,0,0,0,0,0,0,0,0,0,0,0,0,0,0,0,0,0,0,0,0,0,0,0,0,0,0,0,0,0,0,0,0,0,0,0,0,0,0,0,0,0,0,0,0,0,0,0,0,0,0,0,0,0,0,0,0,0,0,0,0,0,0,0,0,0,0],"sum_hessian":[8.481267E3,2.3091665E3,6.1721E3,2.1836797E3,1.2548678E2,3.5695764E3,2.6025237E3,1.9067092E3,2.7697055E2,4.8396144E0,1.2064716E2,1.2654714E3,2.304105E3,2.4602625E3,1.4226123E2,1.8166227E3,9.0086525E1,1.2773823E2,1.4923232E2,1.1682417E2,3.822993E0,5.232213E2,7.4225006E2,4.439055E2,1.8601995E3,1.19171E2,2.3410913E3,4.830826E1,9.3952965E1,1.8121057E3,4.5170336E0,3.0106968E1,5.9979557E1,1.2298604E2,4.7521925E0,3.0301636E1,1.1893068E2,1.11889854E2,4.9343185E0,3.842214E2,1.3899995E2,6.88039E2,5.421105E1,3.791574E2,6.474808E1,1.1841023E3,6.760971E2,3.538697E1,8.378403E1,2.3223208E3,1.8770727E1,4.3580788E1,4.7274747E0,1.4824334E1,7.912863E1,1.7934866E3,1.8619156E1,2.5593687E1,4.51328E0,5.6220608E1,3.758948E0,3.2277027E1,9.070901E1,1.0293567E2,1.599501E1,4.649263E0,1.07240585E2,1.3095607E2,2.5326532E2,2.4545313E1,1.14454636E2,6.803103E2,7.728694E0,3.772556E1,1.648549E1,2.6909748E1,3.5224768E2,4.319311E0,6.042877E1,3.8591034E2,7.98192E2,6.5383746E2,2.225964E1,2.7649418E1,7.7375517E0,5.003381E1,3.375022E1,6.143764E2,1.7079443E3,3.102907E0,1.566782E1,6.987495E0,3.6593292E1,3.1323304E0,1.1692003E1,5.71474E1,2.198123E1],"tree_param":{"num_deleted":"0","num_feature":"60","num_nodes":"97","size_leaf_vector":"1"}},{"base_weights":[1.7486656E-3,-1E0,3.8592103E-1,-1E0,1E0,4.4069514E-2,8.590161E-1,-1E0,-6.1536586E-1,-9.8138414E-2,1E0,6.080182E-1,-2.642319E-1,5.0739914E-1,1E0,-1E0,-6.952882E-1,-1E0,-3.4290352E-1,-9.8138414E-2,1E0,-2.5121713E-1,1E0,6.468861E-2,-1E0,1E0,3.8106926E-2,-1.0603476E-1,1E0,-1E0,-1.1704396E-1,3.9646527E-1,-9.461991E-1,-9.8138414E-2,-5.3557575E-2,1E0,-5.4799724E-1,1E0,-7.270179E-2,9.737305E-1,-5.8693504E-1,1E0,-3.3432993E-1,-9.3087274E-1,4.5473567E-1,-1E0,9.8138414E-2,-9.8138414E-2,1E0,8.8261044E-1,-6.741927E-1,7.7219105E-1,-1E0,1E0,-9.5555675E-1,-9.8138414E-2,1.8005775E-2,9.8138414E-2,-9.8138414E-2,-9.8138414E-2,9.8138414E-2,8.760415E-2,-9.8138414E-2,9.8138414E-2,-2.9176218E-2,-2.9991379E-2,-9.8138414E-2,9.8138414E-2,6.279299E-3,9.8138414E-2,-9.8138414E-2,-7.863297E-2,5.2054726E-2,-9.8138414E-2,9.8138414E-2,-9.8138414E-2,3.990451E-2,-9.8138414E-2,5.9591953E-2,9.8138414E-2,1.8918037E-2,-9.8138414E-2,5.260755E-2,-5.3280577E-2,9.8138414E-2,-7.111728E-2,9.8138414E-2,-8.900944E-2,7.842514E-2,9.8138414E-2,-9.744079E-2,-9.8138414E-2,2.3756364E-2,9.8138414E-2,-9.8138414E-2,8.674657E-2,-9.8138414E-2],"categories":[],"categories_nodes":[],"categories_segments":[],"categories_sizes":[],"default_left":[0,0,0,0,0,0,0,0,0,0,0,0,0,0,0,0,0,0,0,0,0,0,0,0,0,0,0,0,0,0,0,0,0,0,0,0,0,0,0,0,0,0,0,0,0,0,0,0,0,0,0,0,0,0,0,0,0,0,0,0,0,0,0,0,0,0,0,0,0,0,0,0,0,0,0,0,0,0,0,0,0,0,0,0,0,0,0,0,0,0,0,0,0,0,0,0,0],"id":6,"left_children":[1,3,5,7,9,11,13,15,17,-1,19,21,23,25,27,29,31,33,35,-1,37,39,41,43,45,47,49,51,53,55,57,59,61,-1,-1,63,65,67,-1,69,71,73,75,77,79,81,-1,-1,83,85,87,89,91,93,95,-1,-1,-1,-1,-1,-1,-1,-1,-1,-1,-1,-1,-1,-1,-1,-1,-1,-1,-1,-1,-1,-1,-1,-1,-1,-1,-1,-1,-1,-1,-1,-1,-1,-1,-1,-1,-1,-1,-1,-1,-1,-1],"loss_changes":[3.3709487E3,6.091677E2,9.943819E2,4.9325684E1,4.76019E1,6.211158E2,2.5671704E2,1.930249E1,5.9541748E1,0E0,2.0970154E1,6.400426E2,6.2920874E2,4.154179E2,1.2026819E2,2.2306152E1,5.829062E1,7.8718567E-1,9.583221E1,0E0,1.3042114E1,2.193536E2,1.1983826E2,6.437353E2,5.080316E1,3.3828796E1,4.7148886E2,9.299437E1,4.7055664E1,2.5825928E1,7.149957E1,6.686688E1,7.476332E1,0E0,0E0,7.4760666E0,3.755932E1,3.4515839E0,0E0,3.2986343E1,1.0034857E2,5.123352E1,3.842138E1,1.2496408E2,1.9326953E2,3.7997498E1,0E0,0E0,1.66792E1,2.0853882E2,1.4588884E2,3.4290207E1,1.7657776E1,2.9085205E1,1.7277645E1,0E0,0E0,0E0,0E0,0E0,0E0,0E0,0E0,0E0,0E0,0E0,0E0,0E0,0E0,0E0,0E0,0E0,0E0,0E0,0E0,0E0,0E0,0E0,0E0,0E0,0E0,0E0,0E0,0E0,0E0,0E0,0E0,0E0,0E0,0E0,0E0,0E0,0E0,0E0,0E0,0E0,0E0],"parents":[2147483647,0,0,1,1,2,2,3,3,4,4,5,5,6,6,7,7,8,8,10,10,11,11,12,12,13,13,14,14,15,15,16,16,17,17,18,18,20,20,21,21,22,22,23,23,24,24,25,25,26,26,27,27,28,28,29,29,30,30,31,31,32,32,35,35,36,36,37,37,39,39,40,40,41,41,42,42,43,43,44,44,45,45,48,48,49,49,50,50,51,51,52,52,53,53,54,54],"right_children":[2,4,6,8,10,12,14,16,18,-1,20,22,24,26,28,30,32,34,36,-1,38,40,42,44,46,48,50,52,54,56,58,60,62,-1,-1,64,66,68,-1,70,72,74,76,78,80,82,-1,-1,84,86,88,90,92,94,96,-1,-1,-1,-1,-1,-1,-1,-1,-1,-1,-1,-1,-1,-1,-1,-1,-1,-1,-1,-1,-1,-1,-1,-1,-1,-1,-1,-1,-1,-1,-1,-1,-1,-1,-1,-1,-1,-1,-1,-1,-1,-1],"split_conditions":[5.4545456E-1,1.15E0,3.5397E4,1.9083333E-1,1.5065511E0,1.6105162E1,2.125E-1,2.1287537E0,0E0,-9.8138414E-2,7.737E3,3.8721364E0,1.773E2,1.09082E5,2.707E4,2.8941166E1,3.302E3,1.2021E5,3.302E3,-9.8138414E-2,2.749817E0,1.2736E2,8.214464E0,1.131925E1,3.9083332E-1,8.269E3,8.792467E0,1.6045001E2,6.12E-1,3.348492E1,-2.1444354E0,6.083333E-2,-1E-3,-9.8138414E-2,-5.3557575E-2,1.9018E4,4.83E-1,3.96E0,-7.270179E-2,7.809578E0,1.9679417E1,4.0604733E2,5.7395E4,1.8199676E0,8.93725E1,2.8775394E1,9.8138414E-2,-9.8138414E-2,3.7676E4,1.1163834E1,7.27E-1,6.77E-1,2.719375E2,3.8467145E2,6.77E-1,-9.8138414E-2,1.8005775E-2,9.8138414E-2,-9.8138414E-2,-9.8138414E-2,9.8138414E-2,8.760415E-2,-9.8138414E-2,9.8138414E-2,-2.9176218E-2,-2.9991379E-2,-9.8138414E-2,9.8138414E-2,6.279299E-3,9.8138414E-2,-9.8138414E-2,-7.863297E-2,5.2054726E-2,-9.8138414E-2,9.8138414E-2,-9.8138414E-2,3.990451E-2,-9.8138414E-2,5.9591953E-2,9.8138414E-2,1.8918037E-2,-9.8138414E-2,5.260755E-2,-5.3280577E-2,9.8138414E-2,-7.111728E-2,9.8138414E-2,-8.900944E-2,7.842514E-2,9.8138414E-2,-9.744079E-2,-9.8138414E-2,2.3756364E-2,9.8138414E-2,-9.8138414E-2,8.674657E-2,-9.8138414E-2],"split_indices":[50,32,26,35,56,2,35,56,13,0,27,8,14,28,0,4,21,0,21,0,58,16,10,7,34,23,10,16,29,3,5,35,34,0,0,0,29,31,0,10,4,40,0,5,13,39,0,0,26,7,30,30,15,16,30,0,0,0,0,0,0,0,0,0,0,0,0,0,0,0,0,0,0,0,0,0,0,0,0,0,0,0,0,0,0,0,0,0,0,0,0,0,0,0,0,0,0],"split_type":[0,0,0,0,0,0,0,0,0,0,0,0,0,0,0,0,0,0,0,0,0,0,0,0,0,0,0,0,0,0,0,0,0,0,0,0,0,0,0,0,0,0,0,0,0,0,0,0,0,0,0,0,0,0,0,0,0,0,0,0,0,0,0,0,0,0,0,0,0,0,0,0,0,0,0,0,0,0,0,0,0,0,0,0,0,0,0,0,0,0,0,0,0,0,0,0,0],"sum_hessian":[8.410323E3,2.2614902E3,6.1488325E3,2.123827E3,1.376634E2,3.569817E3,2.5790156E3,1.7876954E3,3.3613144E2,6.687255E0,1.3097615E2,1.2620316E3,2.3077852E3,1.270667E3,1.3083486E3,1.5758591E3,2.1183632E2,8.244792E1,2.5368353E2,3.0983899E0,1.2787776E2,5.3230273E2,7.297289E2,1.6565302E3,6.5125507E2,4.8807767E2,7.8258936E2,9.8087944E1,1.2102606E3,1.5464393E3,2.9419779E1,3.9417397E1,1.7241893E2,7.652723E1,5.9206905E0,2.278245E1,2.3090108E2,1.23760506E2,4.117259E0,1.1435881E2,4.179439E2,6.626339E2,6.709499E1,4.6614685E2,1.1903833E3,6.412971E2,9.957954E0,4.439997E0,4.8363766E2,3.5821216E2,4.2437717E2,5.4190376E1,4.3897564E1,1.1981293E3,1.2131312E1,1.5282225E3,1.821681E1,1.2704017E1,1.6715763E1,1.5936657E1,2.348074E1,2.082303E1,1.515959E2,1.8556036E1,4.226414E0,1.762159E2,5.468518E1,1.19074425E2,4.686079E0,1.1030007E2,4.058742E0,3.5085352E2,6.709039E1,1.1553677E1,6.5108026E2,3.308819E1,3.4006805E1,4.1712173E2,4.9025143E1,3.503118E2,8.400715E2,6.253928E2,1.5904312E1,6.8068366E0,4.768308E2,7.1554825E1,2.8665735E2,3.6660745E2,5.776973E1,4.505883E1,9.131549E0,3.267089E1,1.1226675E1,1.1916589E3,6.4704247E0,4.688712E0,7.4426003E0],"tree_param":{"num_deleted":"0","num_feature":"60","num_nodes":"97","size_leaf_vector":"1"}},{"base_weights":[-3.553024E-3,-9.494164E-1,3.677827E-1,-1E0,-4.6401048E-1,1.0544836E-2,8.138703E-1,-1E0,-1.8938264E-1,7.58483E-1,-7.0394593E-1,-2.570866E-1,1E0,2.869076E-1,1E0,-1E0,-3.5829353E-1,9.8138414E-2,-9.8138414E-2,1E0,-9.860744E-1,5.7780874E-1,-9.144337E-1,-8.349064E-1,1.4171435E-1,1E0,-1E0,8.814652E-1,-1.4642811E-1,1E0,-1E0,-1E0,-1.2225487E-2,9.8138414E-2,-1E0,5.509944E-1,9.8138414E-2,9.8138414E-2,-1E0,-8.8190615E-1,9.241836E-1,-1E0,-3.6419916E-1,1.1566939E-1,-1E0,4.660881E-1,-7.91725E-1,-9.8138414E-2,1E0,9.253914E-3,-9.8138414E-2,1E0,-1E0,-3.622479E-1,9.707821E-1,1E0,-1E0,-5.2690005E-1,-9.8138414E-2,-9.8138414E-2,-2.8707014E-2,-9.8138414E-2,-0E0,-9.8138414E-2,9.8138414E-2,4.2338263E-2,-9.8138414E-2,3.676021E-2,-9.8138414E-2,9.8138414E-2,-1.2138692E-3,9.8138414E-2,-9.8138414E-2,9.8138414E-2,-5.0393417E-2,-6.408637E-2,6.6763915E-2,4.2504873E-2,-9.8138414E-2,7.195304E-2,-5.770264E-2,-9.8138414E-2,-6.4541264E-3,9.8138414E-2,-9.8138414E-2,9.8138414E-2,-3.6850803E-2,-9.8138414E-2,-1.8779086E-2,-6.272778E-2,5.318878E-2,-9.8138414E-2,9.8138414E-2,9.8138414E-2,-8.2093365E-2,1.7344574E-2,-9.8138414E-2,-9.8138414E-2,9.314078E-2],"categories":[],"categories_nodes":[],"categories_segments":[],"categories_sizes":[],"default_left":[0,0,0,0,0,0,0,0,0,0,0,0,0,0,0,0,0,0,0,0,0,0,0,0,0,0,0,0,0,0,0,0,0,0,0,0,0,0,0,0,0,0,0,0,0,0,0,0,0,0,0,0,0,0,0,0,0,0,0,0,0,0,0,0,0,0,0,0,0,0,0,0,0,0,0,0,0,0,0,0,0,0,0,0,0,0,0,0,0,0,0,0,0,0,0,0,0,0,0],"id":7,"left_children":[1,3,5,7,9,11,13,15,17,19,21,23,25,27,29,31,33,-1,-1,35,37,39,41,43,45,47,49,51,53,55,57,59,-1,-1,61,63,-1,-1,65,67,69,71,73,75,77,79,81,-1,83,-1,-1,85,87,89,91,93,95,97,-1,-1,-1,-1,-1,-1,-1,-1,-1,-1,-1,-1,-1,-1,-1,-1,-1,-1,-1,-1,-1,-1,-1,-1,-1,-1,-1,-1,-1,-1,-1,-1,-1,-1,-1,-1,-1,-1,-1,-1,-1],"loss_changes":[2.8953462E3,3.0921313E2,9.42993E2,1.7006104E1,3.2256152E2,1.0276344E3,3.1464453E2,6.312744E0,6.994469E1,1.5208487E2,2.4807199E2,6.193051E2,4.2472168E1,2.0626543E2,1.700061E2,3.8220215E0,1.7391747E1,0E0,0E0,1.2772263E1,1.8528877E1,6.5863914E1,1.288899E2,3.2019293E2,4.814528E2,2.2846313E1,4.4281244E0,1.1996307E2,1.1173263E2,1.0881592E2,1.2769508E0,1.4089355E0,0E0,0E0,3.34583E0,7.860735E1,0E0,0E0,1.148045E1,1.412739E1,1.6083511E1,3.95271E1,7.651201E1,1.224726E2,1.1373291E2,3.3230316E2,1.0943167E2,0E0,1.5290161E1,0E0,0E0,5.0659027E1,1.4133797E0,9.728548E1,4.2443855E1,8.921875E1,1.14447365E1,1.0803987E1,0E0,0E0,0E0,0E0,0E0,0E0,0E0,0E0,0E0,0E0,0E0,0E0,0E0,0E0,0E0,0E0,0E0,0E0,0E0,0E0,0E0,0E0,0E0,0E0,0E0,0E0,0E0,0E0,0E0,0E0,0E0,0E0,0E0,0E0,0E0,0E0,0E0,0E0,0E0,0E0,0E0],"parents":[2147483647,0,0,1,1,2,2,3,3,4,4,5,5,6,6,7,7,8,8,9,9,10,10,11,11,12,12,13,13,14,14,15,15,16,16,19,19,20,20,21,21,22,22,23,23,24,24,25,25,26,26,27,27,28,28,29,29,30,30,31,31,34,34,35,35,38,38,39,39,40,40,41,41,42,42,43,43,44,44,45,45,46,46,48,48,51,51,52,52,53,53,54,54,55,55,56,56,57,57],"right_children":[2,4,6,8,10,12,14,16,18,20,22,24,26,28,30,32,34,-1,-1,36,38,40,42,44,46,48,50,52,54,56,58,60,-1,-1,62,64,-1,-1,66,68,70,72,74,76,78,80,82,-1,84,-1,-1,86,88,90,92,94,96,98,-1,-1,-1,-1,-1,-1,-1,-1,-1,-1,-1,-1,-1,-1,-1,-1,-1,-1,-1,-1,-1,-1,-1,-1,-1,-1,-1,-1,-1,-1,-1,-1,-1,-1,-1,-1,-1,-1,-1,-1,-1],"split_conditions":[9.911416E0,1.4048767E0,2.0083334E-1,1.5560443E1,5.214E3,7.05E-1,1.7587687E0,5.8851E4,9.291883E-1,1.23741865E1,-2.1E-2,6.3E-2,-2.1E-2,1.7026913E1,1.5160903E1,5.0325E2,6.2756E4,9.8138414E-2,-9.8138414E-2,6.4E-2,1.1710495E1,1.73E3,1.7416666E-1,-1.4305556E-2,9.752738E0,3.7615762E0,7.7475E0,2.1800447E1,3.0151934E1,3.571E2,2.8378225E1,4.447043E0,-1.2225487E-2,9.8138414E-2,6.6E-1,5.082795E0,9.8138414E-2,9.8138414E-2,1.809375E2,5.529E3,3.841128E1,1.439209E0,1.2288309E0,1.09489E5,1.7004864E1,1.8270892E2,1.51E-1,-9.8138414E-2,2.8401794E0,9.253914E-3,-9.8138414E-2,2.11E2,6.345853E0,2.1033287E1,4.5624194E0,7.38E-1,3.9585E2,2.7900215E1,-9.8138414E-2,-9.8138414E-2,-2.8707014E-2,-9.8138414E-2,-0E0,-9.8138414E-2,9.8138414E-2,4.2338263E-2,-9.8138414E-2,3.676021E-2,-9.8138414E-2,9.8138414E-2,-1.2138692E-3,9.8138414E-2,-9.8138414E-2,9.8138414E-2,-5.0393417E-2,-6.408637E-2,6.6763915E-2,4.2504873E-2,-9.8138414E-2,7.195304E-2,-5.770264E-2,-9.8138414E-2,-6.4541264E-3,9.8138414E-2,-9.8138414E-2,9.8138414E-2,-3.6850803E-2,-9.8138414E-2,-1.8779086E-2,-6.272778E-2,5.318878E-2,-9.8138414E-2,9.8138414E-2,9.8138414E-2,-8.2093365E-2,1.7344574E-2,-9.8138414E-2,-9.8138414E-2,9.314078E-2],"split_indices":[7,58,35,45,25,32,56,22,1,2,33,33,33,2,12,13,22,0,0,33,11,18,35,36,1,45,1,46,43,15,3,9,0,0,30,44,0,0,15,28,51,58,56,25,39,14,35,0,58,0,0,16,38,44,1,30,52,3,0,0,0,0,0,0,0,0,0,0,0,0,0,0,0,0,0,0,0,0,0,0,0,0,0,0,0,0,0,0,0,0,0,0,0,0,0,0,0,0,0],"split_type":[0,0,0,0,0,0,0,0,0,0,0,0,0,0,0,0,0,0,0,0,0,0,0,0,0,0,0,0,0,0,0,0,0,0,0,0,0,0,0,0,0,0,0,0,0,0,0,0,0,0,0,0,0,0,0,0,0,0,0,0,0,0,0,0,0,0,0,0,0,0,0,0,0,0,0,0,0,0,0,0,0,0,0,0,0,0,0,0,0,0,0,0,0,0,0,0,0,0,0],"sum_hessian":[8.241302E3,2.3235042E3,5.917798E3,1.2249585E3,1.0985455E3,3.2864436E3,2.631354E3,1.1981696E3,2.6788948E1,1.8007872E2,9.1846686E2,2.6856938E3,6.007497E2,7.9888007E2,1.8324741E3,1.1815771E3,1.6592438E1,9.414098E0,1.7374851E1,1.3907288E2,4.1005833E1,1.2940146E2,7.890654E2,1.0969304E3,1.5887635E3,5.9141644E2,9.333239E0,3.3701062E2,4.6186942E2,1.8007684E3,3.1705648E1,1.1757727E3,5.8044157E0,4.8899984E0,1.170244E1,6.5496346E1,7.357653E1,3.738582E0,3.726725E1,2.4690744E1,1.04710724E2,4.5479602E2,3.3426938E2,2.8094516E2,8.159852E2,1.1792229E3,4.0954053E2,4.1124277E0,5.87304E2,3.471845E0,5.861394E0,3.1801038E2,1.9000237E1,3.8726282E2,7.460661E1,1.7755132E3,2.52552E1,7.685178E0,2.4020472E1,1.1718596E3,3.9131105E0,7.889637E0,3.8128028E0,2.2703758E1,4.279259E1,5.3960743E0,3.1871176E1,7.4057016E0,1.7285044E1,8.870875E1,1.6001972E1,8.419491E0,4.4637653E2,2.928531E1,3.0498407E2,1.188035E2,1.6214166E2,5.5169712E1,7.6081555E2,9.4099713E2,2.382258E2,2.6321985E2,1.4632068E2,5.841084E2,3.1956353E0,2.9144568E2,2.656471E1,1.5927382E1,3.0728538E0,2.966595E2,9.060333E1,6.119267E0,6.848734E1,1.7492408E3,2.6272362E1,8.042519E0,1.721268E1,4.647196E0,3.037982E0],"tree_param":{"num_deleted":"0","num_feature":"60","num_nodes":"99","size_leaf_vector":"1"}},{"base_weights":[-3.2929878E-4,-9.1196066E-1,3.4810784E-1,-1E0,-4.511774E-1,4.66763E-2,8.1455225E-1,-1E0,3.4681606E-1,5.387922E-1,-7.071707E-1,8.4745604E-1,-2.2831029E-1,9.254209E-1,-2.6744187E-1,-1E0,7.221196E-2,-7.781319E-2,9.8138414E-2,1E0,-8.8812804E-1,6.3592666E-1,-9.000384E-1,9.9711215E-1,-1E0,-4.935419E-1,7.7261233E-1,1E0,6.644708E-1,1E0,-9.256562E-1,-1E0,9.881445E-3,1E0,-9.9568486E-1,-1E0,9.8138414E-2,-1E0,1E0,-1E0,-3.5405678E-1,-6.2187478E-2,1E0,6.9335115E-1,-9.8138414E-2,-6.642414E-1,8.8876225E-2,9.8378587E-1,-1E0,2.0169598E-1,1E0,-3.98563E-1,9.225483E-1,-9.8138414E-2,1E0,5.77666E-1,-1E0,-9.8138414E-2,-5.524863E-3,9.8138414E-2,-4.037025E-2,-9.8138414E-2,2.5238572E-2,-9.8138414E-2,8.981786E-2,-0E0,-9.8138414E-2,9.8138414E-2,-2.8501522E-2,9.8138414E-2,-9.8138414E-2,3.036327E-3,-8.563519E-2,-9.8138414E-2,9.8138414E-2,-9.8138414E-2,9.8138414E-2,9.8138414E-2,-9.8138414E-2,-1.3111057E-2,-8.663065E-2,-5.0610237E-2,5.0045915E-2,-9.8138414E-2,9.8138414E-2,9.8138414E-2,-9.8138414E-2,6.658374E-2,-9.8138414E-2,-2.3303576E-2,9.8138414E-2,9.8138414E-2,-9.8138414E-2,9.739915E-2,-9.624298E-2,-2.5020208E-2,9.8138414E-2,9.8138414E-2,-9.8138414E-2,-9.8138414E-2,-2.147611E-2],"categories":[],"categories_nodes":[],"categories_segments":[],"categories_sizes":[],"default_left":[0,0,0,0,0,0,0,0,0,0,0,0,0,0,0,0,0,0,0,0,0,0,0,0,0,0,0,0,0,0,0,0,0,0,0,0,0,0,0,0,0,0,0,0,0,0,0,0,0,0,0,0,0,0,0,0,0,0,0,0,0,0,0,0,0,0,0,0,0,0,0,0,0,0,0,0,0,0,0,0,0,0,0,0,0,0,0,0,0,0,0,0,0,0,0,0,0,0,0,0,0],"id":8,"left_children":[1,3,5,7,9,11,13,15,17,19,21,23,25,27,29,31,-1,-1,-1,33,35,37,39,41,43,45,47,49,51,53,55,57,-1,59,61,63,-1,65,67,69,71,73,75,77,-1,79,81,83,85,87,89,91,93,-1,95,97,99,-1,-1,-1,-1,-1,-1,-1,-1,-1,-1,-1,-1,-1,-1,-1,-1,-1,-1,-1,-1,-1,-1,-1,-1,-1,-1,-1,-1,-1,-1,-1,-1,-1,-1,-1,-1,-1,-1,-1,-1,-1,-1,-1,-1],"loss_changes":[2.5748616E3,3.0393994E2,8.2427124E2,1.3259277E1,2.7098944E2,7.8488257E2,2.7618103E2,9.820557E0,1.0994356E1,1.4969939E2,2.2016486E2,2.5362616E2,7.041336E2,1.3030713E2,2.025535E2,5.571533E0,0E0,0E0,0E0,4.5152145E1,2.6989876E1,7.852852E1,1.25519226E2,1.2212488E2,6.2199814E1,2.0850311E2,2.2114539E2,1.1238037E1,3.4690887E2,1.9804146E1,3.8555016E1,4.802124E0,0E0,2.681311E1,5.384742E0,1.5367294E1,0E0,3.2417908E0,1.9896072E1,4.7606262E1,6.4184166E1,1.31127E2,6.8820435E1,3.1427868E1,0E0,1.8773706E2,1.21260605E2,1.27335236E2,5.3848732E1,1.6084475E1,8.765503E0,2.5045743E2,1.3558789E2,0E0,5.890999E0,2.7692211E1,1.089566E1,0E0,0E0,0E0,0E0,0E0,0E0,0E0,0E0,0E0,0E0,0E0,0E0,0E0,0E0,0E0,0E0,0E0,0E0,0E0,0E0,0E0,0E0,0E0,0E0,0E0,0E0,0E0,0E0,0E0,0E0,0E0,0E0,0E0,0E0,0E0,0E0,0E0,0E0,0E0,0E0,0E0,0E0,0E0,0E0],"parents":[2147483647,0,0,1,1,2,2,3,3,4,4,5,5,6,6,7,7,8,8,9,9,10,10,11,11,12,12,13,13,14,14,15,15,19,19,20,20,21,21,22,22,23,23,24,24,25,25,26,26,27,27,28,28,29,29,30,30,31,31,33,33,34,34,35,35,37,37,38,38,39,39,40,40,41,41,42,42,43,43,45,45,46,46,47,47,48,48,49,49,50,50,51,51,52,52,54,54,55,55,56,56],"right_children":[2,4,6,8,10,12,14,16,18,20,22,24,26,28,30,32,-1,-1,-1,34,36,38,40,42,44,46,48,50,52,54,56,58,-1,60,62,64,-1,66,68,70,72,74,76,78,-1,80,82,84,86,88,90,92,94,-1,96,98,100,-1,-1,-1,-1,-1,-1,-1,-1,-1,-1,-1,-1,-1,-1,-1,-1,-1,-1,-1,-1,-1,-1,-1,-1,-1,-1,-1,-1,-1,-1,-1,-1,-1,-1,-1,-1,-1,-1,-1,-1,-1,-1,-1,-1],"split_conditions":[9.911416E0,1.4048767E0,3.9251E4,9.801556E0,1.0677E4,1.6105162E1,6.5272665E0,5.3827577E0,1.36959E5,1.86E2,-4.97E0,2.1092794E1,2.1402754E1,1.21578E5,-3.96E0,3.42E0,7.221196E-2,-7.781319E-2,9.8138414E-2,1.17935E5,2.5514E4,3.108E3,1.73E-1,5.037037E-2,6.304E2,1.17435E5,2.2920645E1,-2.8598216E0,1.2833333E-1,1.2213E4,1.21005E5,3.3583334E-1,9.881445E-3,2.5577393E0,2.5375977E0,5.5774286E2,9.8138414E-2,7.49E3,1.394129E1,1.439209E0,7.305E1,4.8928056E0,1.5923468E1,5.0774107E0,-9.8138414E-2,-4.4791937E0,1.2833333E-1,5.4908485E0,1.7841867E1,4.22E0,8.564E3,-4.4E-2,2.9535E2,-9.8138414E-2,6.4786E4,6.0276794E1,6.88E-1,-9.8138414E-2,-5.524863E-3,9.8138414E-2,-4.037025E-2,-9.8138414E-2,2.5238572E-2,-9.8138414E-2,8.981786E-2,-0E0,-9.8138414E-2,9.8138414E-2,-2.8501522E-2,9.8138414E-2,-9.8138414E-2,3.036327E-3,-8.563519E-2,-9.8138414E-2,9.8138414E-2,-9.8138414E-2,9.8138414E-2,9.8138414E-2,-9.8138414E-2,-1.3111057E-2,-8.663065E-2,-5.0610237E-2,5.0045915E-2,-9.8138414E-2,9.8138414E-2,9.8138414E-2,-9.8138414E-2,6.658374E-2,-9.8138414E-2,-2.3303576E-2,9.8138414E-2,9.8138414E-2,-9.8138414E-2,9.739915E-2,-9.624298E-2,-2.5020208E-2,9.8138414E-2,9.8138414E-2,-9.8138414E-2,-9.8138414E-2,-2.147611E-2],"split_indices":[7,58,26,7,28,2,8,8,20,15,34,46,44,28,33,31,0,0,0,19,23,18,35,33,48,0,2,5,35,0,28,35,0,57,58,54,0,0,2,58,16,8,43,1,0,5,35,38,39,30,23,35,16,0,26,51,30,0,0,0,0,0,0,0,0,0,0,0,0,0,0,0,0,0,0,0,0,0,0,0,0,0,0,0,0,0,0,0,0,0,0,0,0,0,0,0,0,0,0,0,0],"split_type":[0,0,0,0,0,0,0,0,0,0,0,0,0,0,0,0,0,0,0,0,0,0,0,0,0,0,0,0,0,0,0,0,0,0,0,0,0,0,0,0,0,0,0,0,0,0,0,0,0,0,0,0,0,0,0,0,0,0,0,0,0,0,0,0,0,0,0,0,0,0,0,0,0,0,0,0,0,0,0,0,0,0,0,0,0,0,0,0,0,0,0,0,0,0,0,0,0,0,0,0,0],"sum_hessian":[8.103857E3,2.2410784E3,5.862779E3,1.1729471E3,1.0681313E3,3.5616274E3,2.3011511E3,1.16585E3,7.0971684E0,2.1927359E2,8.488578E2,9.106322E2,2.650995E3,2.0874653E3,2.136858E2,1.1627773E3,3.0725615E0,4.040281E0,3.0568874E0,1.6446494E2,5.4808662E1,1.0644093E2,7.424168E2,8.428884E2,6.774383E1,2.0958496E3,5.551456E2,8.239404E2,1.263525E3,6.655553E1,1.4713028E2,1.1584044E3,4.3729587E0,1.5329906E2,1.1165873E1,5.065143E1,4.1572337E0,1.8740267E1,8.770067E1,4.2271976E2,3.1969705E2,1.0802104E2,7.348674E2,2.1502234E1,4.6241596E1,1.6211125E3,4.7473688E2,4.9946008E2,5.5685547E1,1.8561758E1,8.0537866E2,2.4665572E2,1.01686926E3,3.283686E0,6.3271843E1,1.5599099E1,1.3153117E2,1.1522739E3,6.130524E0,1.4004662E2,1.3252442E1,7.9787683E0,3.1871045E0,4.6637646E1,4.0137825E0,3.109716E0,1.5630551E1,7.5968605E1,1.1732064E1,8.064186E0,4.1465558E2,1.8322224E2,1.3647482E2,5.3705376E1,5.431567E1,9.710634E0,7.2515674E2,1.6947363E1,4.55487E0,4.7312494E2,1.1479877E3,1.946782E2,2.800587E2,1.8177547E1,4.8128256E2,1.1074532E1,4.4611015E1,1.5162925E1,3.3988326E0,5.5048065E0,7.9987384E2,8.136988E1,1.6528583E2,9.8095184E2,3.591746E1,3.5222552E0,5.9749588E1,1.1573991E1,4.0251083E0,1.1271968E2,1.8811495E1],"tree_param":{"num_deleted":"0","num_feature":"60","num_nodes":"101","size_leaf_vector":"1"}},{"base_weights":[-2.6028696E-3,-9.7481114E-1,2.7889323E-1,-1E0,-4.1263318E-1,8.9193E-4,7.585686E-1,-1E0,9.8138414E-2,4.8162946E-1,-6.6771406E-1,-3.266873E-1,4.2679566E-1,1E0,4.8507437E-1,-1E0,-4.8050222E-1,8.517141E-1,-9.2087543E-1,4.715654E-1,-8.2882243E-1,4.4858557E-1,-5.7755774E-1,5.605877E-1,-7.001032E-1,-1.1470292E-1,1E0,-3.8887787E-1,7.802838E-1,-9.8138414E-2,-7.1343446E-1,9.8138414E-2,-1E0,1E0,-3.9248887E-1,9.8138414E-2,-1E0,-7.2290605E-1,1E0,-1E0,-3.722813E-1,-4.945359E-1,1E0,-1E0,-1.9770105E-1,-3.2094049E-3,9.069799E-1,-1E0,7.9991686E-1,9.0562075E-1,-1E0,-8.010657E-2,1E0,9.4630647E-1,-1E0,9.9160516E-1,-4.8410848E-2,-9.8138414E-2,2.8334556E-2,4.0978026E-2,-9.8138414E-2,9.8138414E-2,-6.61547E-2,-9.8138414E-2,6.1770014E-2,-9.8138414E-2,-0E0,9.007732E-2,-9.8138414E-2,3.7402317E-2,9.8138414E-2,-9.8138414E-2,1.2056885E-2,-9.8138414E-2,-1.0061374E-2,9.332896E-2,-9.8138414E-2,9.8138414E-2,-8.593162E-2,-9.8138414E-2,6.150783E-2,4.7466185E-2,-4.3097135E-2,-4.4513114E-2,3.3836164E-2,9.8138414E-2,-6.280015E-2,7.2607696E-2,-9.8138414E-2,9.8138414E-2,-9.8138414E-2,-2.2932352E-2,9.8138414E-2,-9.8138414E-2,-2.4327503E-3,9.8138414E-2,-5.226083E-2,-4.689103E-2,9.8138414E-2,-9.8138414E-2,-1.1311395E-2,9.8138414E-2,-6.807177E-2,5.8279727E-2,-6.879912E-2],"categories":[],"categories_nodes":[],"categories_segments":[],"categories_sizes":[],"default_left":[0,0,0,0,0,0,0,0,0,0,0,0,0,0,0,0,0,0,0,0,0,0,0,0,1,0,0,0,0,0,0,0,0,0,0,0,0,0,0,0,0,0,0,0,0,0,0,0,0,0,0,0,0,0,0,0,0,0,0,0,0,0,0,0,0,0,0,0,0,0,0,0,0,0,0,0,0,0,0,0,0,0,0,0,0,0,0,0,0,0,0,0,0,0,0,0,0,0,0,0,0,0,0,0,0],"id":9,"left_children":[1,3,5,7,9,11,13,15,-1,17,19,21,23,25,27,29,31,33,35,37,39,41,43,45,47,49,51,53,55,-1,57,-1,59,61,63,-1,65,67,69,71,73,75,77,79,81,83,85,87,89,91,93,-1,95,97,99,101,103,-1,-1,-1,-1,-1,-1,-1,-1,-1,-1,-1,-1,-1,-1,-1,-1,-1,-1,-1,-1,-1,-1,-1,-1,-1,-1,-1,-1,-1,-1,-1,-1,-1,-1,-1,-1,-1,-1,-1,-1,-1,-1,-1,-1,-1,-1,-1,-1],"loss_changes":[2.1537869E3,2.3122766E2,8.135055E2,2.4493286E1,1.5422574E2,5.39256E2,2.4504883E2,4.449585E0,0E0,7.810015E1,9.663161E1,4.248489E2,2.5347726E2,2.2123657E1,3.659604E2,3.0456543E-1,1.8646606E1,3.3787315E1,2.948463E1,4.6992485E1,7.445532E1,3.767172E2,3.014687E2,2.934708E2,1.1730653E2,2.570757E1,1.5014404E1,3.1686646E2,1.8572308E2,0E0,4.9918356E0,0E0,7.326809E0,2.1353905E1,1.9605982E1,0E0,3.4141922E0,1.4878744E1,4.4758263E0,9.544189E0,4.522754E1,1.8702956E2,6.0500854E1,7.283777E1,1.5263696E2,8.990199E1,1.658305E2,2.804837E1,3.8258606E1,5.1603174E0,2.2452774E0,0E0,1.0399414E1,4.8942253E1,2.859729E1,1.21887634E2,9.0739586E1,0E0,0E0,0E0,0E0,0E0,0E0,0E0,0E0,0E0,0E0,0E0,0E0,0E0,0E0,0E0,0E0,0E0,0E0,0E0,0E0,0E0,0E0,0E0,0E0,0E0,0E0,0E0,0E0,0E0,0E0,0E0,0E0,0E0,0E0,0E0,0E0,0E0,0E0,0E0,0E0,0E0,0E0,0E0,0E0,0E0,0E0,0E0,0E0],"parents":[2147483647,0,0,1,1,2,2,3,3,4,4,5,5,6,6,7,7,9,9,10,10,11,11,12,12,13,13,14,14,15,15,16,16,17,17,18,18,19,19,20,20,21,21,22,22,23,23,24,24,25,25,26,26,27,27,28,28,30,30,32,32,33,33,34,34,36,36,37,37,38,38,39,39,40,40,41,41,42,42,43,43,44,44,45,45,46,46,47,47,48,48,49,49,50,50,52,52,53,53,54,54,55,55,56,56],"right_children":[2,4,6,8,10,12,14,16,-1,18,20,22,24,26,28,30,32,34,36,38,40,42,44,46,48,50,52,54,56,-1,58,-1,60,62,64,-1,66,68,70,72,74,76,78,80,82,84,86,88,90,92,94,-1,96,98,100,102,104,-1,-1,-1,-1,-1,-1,-1,-1,-1,-1,-1,-1,-1,-1,-1,-1,-1,-1,-1,-1,-1,-1,-1,-1,-1,-1,-1,-1,-1,-1,-1,-1,-1,-1,-1,-1,-1,-1,-1,-1,-1,-1,-1,-1,-1,-1,-1,-1],"split_conditions":[1.6739355E1,1.8748779E0,3.9251E4,3.3583334E-1,1.0677E4,1.94E-1,1.21578E5,1.6686667E2,9.8138414E-2,1.2544444E2,-2.1E-2,7.055E3,1.7609491E1,7.0683E4,1.2833333E-1,3.0916667E-1,1.974E2,2.5325623E0,1.1325898E1,2.8888E4,1.68E-1,1.85E-1,3.8333E4,1.0225715E1,2.0911E5,7.313208E2,3.7615762E0,-2.92E0,1.4350713E1,-9.8138414E-2,0E0,9.8138414E-2,3.7E1,1.17935E5,7.6096E4,9.8138414E-2,4.23E2,1.9170837E0,2.2914326E0,2.71453E1,1.933E3,4.956651E2,1.8665749E1,3.2830837E1,7.923849E0,3.7507E4,1.2119916E1,1.1346556E1,1.789154E0,-6.8451613E-1,-3.52E0,-8.010657E-2,4.3038666E2,8.29983E5,1.7888889E-1,1.9669E2,-1.0244827E0,-9.8138414E-2,2.8334556E-2,4.0978026E-2,-9.8138414E-2,9.8138414E-2,-6.61547E-2,-9.8138414E-2,6.1770014E-2,-9.8138414E-2,-0E0,9.007732E-2,-9.8138414E-2,3.7402317E-2,9.8138414E-2,-9.8138414E-2,1.2056885E-2,-9.8138414E-2,-1.0061374E-2,9.332896E-2,-9.8138414E-2,9.8138414E-2,-8.593162E-2,-9.8138414E-2,6.150783E-2,4.7466185E-2,-4.3097135E-2,-4.4513114E-2,3.3836164E-2,9.8138414E-2,-6.280015E-2,7.2607696E-2,-9.8138414E-2,9.8138414E-2,-9.8138414E-2,-2.2932352E-2,9.8138414E-2,-9.8138414E-2,-2.4327503E-3,9.8138414E-2,-5.226083E-2,-4.689103E-2,9.8138414E-2,-9.8138414E-2,-1.1311395E-2,9.8138414E-2,-6.807177E-2,5.8279727E-2,-6.879912E-2],"split_indices":[43,57,26,35,28,35,28,54,0,14,33,28,45,25,35,35,15,58,2,22,34,32,0,12,0,40,45,36,45,0,14,0,17,19,19,0,15,58,57,3,17,40,44,43,10,0,12,37,58,5,36,0,55,19,34,14,5,0,0,0,0,0,0,0,0,0,0,0,0,0,0,0,0,0,0,0,0,0,0,0,0,0,0,0,0,0,0,0,0,0,0,0,0,0,0,0,0,0,0,0,0,0,0,0,0],"split_type":[0,0,0,0,0,0,0,0,0,0,0,0,0,0,0,0,0,0,0,0,0,0,0,0,0,0,0,0,0,0,0,0,0,0,0,0,0,0,0,0,0,0,0,0,0,0,0,0,0,0,0,0,0,0,0,0,0,0,0,0,0,0,0,0,0,0,0,0,0,0,0,0,0,0,0,0,0,0,0,0,0,0,0,0,0,0,0,0,0,0,0,0,0,0,0,0,0,0,0,0,0,0,0,0,0],"sum_hessian":[7.8672744E3,1.7666326E3,6.100642E3,1.0917726E3,6.748599E2,3.8625386E3,2.2381035E3,1.0881569E3,3.615691E0,1.4957771E2,5.252822E2,2.1829849E3,1.6795537E3,8.2077155E2,1.417332E3,1.069949E3,1.8207909E1,1.1847705E2,3.1100657E1,6.4903435E1,4.6037878E2,5.33472E2,1.6495128E3,1.5014901E3,1.7806363E2,1.7579489E1,8.03192E2,3.5767685E2,1.0596553E3,1.0618801E3,8.068849E0,4.5117764E0,1.3696132E1,9.9970474E1,1.8506577E1,5.0100145E0,2.6090641E1,2.1627234E1,4.3276203E1,2.3617833E2,2.2420045E2,2.4090477E2,2.9256723E2,7.2337305E2,9.261398E2,5.711744E2,9.3031573E2,1.3715727E2,4.0906364E1,1.0530562E1,7.0489254E0,4.3697515E0,7.9882227E2,1.1862699E2,2.3904987E2,8.445623E2,2.1509291E2,4.9983497E0,3.070499E0,3.438208E0,1.0257924E1,9.254194E1,7.4285398E0,8.899488E0,9.607089E0,2.2814436E1,3.276205E0,4.269573E0,1.735766E1,1.301619E1,3.0260014E1,2.288334E2,7.3449264E0,5.8114002E1,1.6608644E2,6.504173E1,1.7586304E2,2.755475E2,1.7019747E1,6.960426E2,2.733046E1,2.4206926E2,6.840705E2,2.492505E2,3.2192386E2,8.658765E2,6.4439224E1,9.079289E0,1.2807797E2,3.2776905E1,8.129459E0,3.1903224E0,7.34024E0,3.9816165E0,3.067309E0,7.945946E2,4.2276454E0,2.2346302E1,9.628069E1,2.0171059E2,3.733929E1,8.0223956E2,4.2322735E1,1.0823168E2,1.0686122E2],"tree_param":{"num_deleted":"0","num_feature":"60","num_nodes":"105","size_leaf_vector":"1"}},{"base_weights":[-1.29001625E-2,-8.359993E-1,2.9010013E-1,-9.479966E-1,1E0,-7.0930734E-2,5.8613825E-1,-1E0,-4.7430006E-1,-9.8138414E-2,1E0,-3.3768424E-1,1E0,3.1671205E-1,9.83827E-1,-1E0,-3.2507977E-1,3.3887583E-1,-6.804404E-1,1E0,-4.3272726E-2,-7.0179707E-1,7.128955E-2,2.1074297E-1,1E0,7.453361E-1,-1.111125E-1,1E0,-1E0,-1E0,-7.7367765E-1,1E0,-1E0,-1E0,1E0,1E0,-7.46601E-1,3.303756E-2,9.8138414E-2,1.7877167E-1,-1E0,1E0,-2.2702393E-1,-5.95765E-1,1E0,-9.8138414E-2,1E0,-6.5538E-1,9.303376E-1,-4.0468735E-1,1E0,-1.15097106E-1,1E0,-9.8138414E-2,-3.113036E-2,-9.8138414E-2,-4.9180448E-2,1.1630102E-2,-9.8138414E-2,9.8138414E-2,-5.6663174E-3,2.6876325E-2,-9.8138414E-2,-3.7516665E-3,-9.8138414E-2,9.8138414E-2,-9.8138414E-2,-9.8138414E-2,9.8138414E-2,-9.8138414E-2,-4.144726E-2,-1.9400079E-2,8.2515195E-2,-9.8138414E-2,8.913095E-2,9.8138414E-2,-9.8138414E-2,2.5836148E-3,-9.8138414E-2,-9.8138414E-2,2.3041133E-2,-1.1019753E-2,9.8138414E-2,9.8138414E-2,5.7583608E-2,-9.8138414E-2,4.399121E-2,9.8138414E-2,-5.0315443E-2,-6.245746E-2,9.666806E-2,9.8138414E-2,-7.787961E-2,-9.8138414E-2,5.6305297E-2,9.8138414E-2,-1.42759E-2],"categories":[],"categories_nodes":[],"categories_segments":[],"categories_sizes":[],"default_left":[0,0,0,0,0,0,0,0,0,0,0,0,0,0,0,0,0,0,0,0,0,0,0,0,0,0,0,0,0,0,0,0,0,0,0,0,0,0,0,0,0,0,0,0,0,0,0,0,0,0,0,0,0,0,0,0,0,0,0,0,0,0,0,0,0,0,0,0,0,0,0,0,0,0,0,0,0,0,0,0,0,0,0,0,0,0,0,0,0,0,0,0,0,0,0,0,0],"id":10,"left_children":[1,3,5,7,9,11,13,15,17,-1,19,21,23,25,27,29,31,33,35,37,-1,39,41,43,45,47,49,51,53,55,57,59,61,63,65,67,69,-1,-1,71,73,75,77,79,81,-1,83,85,87,89,91,93,95,-1,-1,-1,-1,-1,-1,-1,-1,-1,-1,-1,-1,-1,-1,-1,-1,-1,-1,-1,-1,-1,-1,-1,-1,-1,-1,-1,-1,-1,-1,-1,-1,-1,-1,-1,-1,-1,-1,-1,-1,-1,-1,-1,-1],"loss_changes":[1.912413E3,4.3830237E2,5.9903723E2,1.5331543E2,3.4050247E1,7.292586E2,3.2978564E2,4.4814453E1,9.66696E1,0E0,1.0328461E1,3.0183954E2,4.862744E1,3.3694702E2,8.523938E1,6.741333E0,1.3492117E2,1.785669E2,5.884169E1,1.4844055E0,0E0,3.797516E2,3.19426E2,5.2925148E1,3.335742E1,2.3797333E2,3.3046588E2,6.364856E1,2.1752052E0,8.60144E0,4.0440826E1,5.3883896E0,1.0155296E1,3.2888947E0,2.6833801E1,1.943479E1,5.0476624E1,0E0,0E0,8.561069E1,1.2637036E2,3.7129364E1,1.7578677E2,3.244759E1,7.069599E0,0E0,1.2191589E1,6.1521156E1,1.2923798E2,2.3936835E2,4.8753616E1,4.2133816E1,5.7381958E1,0E0,0E0,0E0,0E0,0E0,0E0,0E0,0E0,0E0,0E0,0E0,0E0,0E0,0E0,0E0,0E0,0E0,0E0,0E0,0E0,0E0,0E0,0E0,0E0,0E0,0E0,0E0,0E0,0E0,0E0,0E0,0E0,0E0,0E0,0E0,0E0,0E0,0E0,0E0,0E0,0E0,0E0,0E0,0E0],"parents":[2147483647,0,0,1,1,2,2,3,3,4,4,5,5,6,6,7,7,8,8,10,10,11,11,12,12,13,13,14,14,15,15,16,16,17,17,18,18,19,19,21,21,22,22,23,23,24,24,25,25,26,26,27,27,28,28,29,29,30,30,31,31,32,32,33,33,34,34,35,35,36,36,39,39,40,40,41,41,42,42,43,43,44,44,46,46,47,47,48,48,49,49,50,50,51,51,52,52],"right_children":[2,4,6,8,10,12,14,16,18,-1,20,22,24,26,28,30,32,34,36,38,-1,40,42,44,46,48,50,52,54,56,58,60,62,64,66,68,70,-1,-1,72,74,76,78,80,82,-1,84,86,88,90,92,94,96,-1,-1,-1,-1,-1,-1,-1,-1,-1,-1,-1,-1,-1,-1,-1,-1,-1,-1,-1,-1,-1,-1,-1,-1,-1,-1,-1,-1,-1,-1,-1,-1,-1,-1,-1,-1,-1,-1,-1,-1,-1,-1,-1,-1],"split_conditions":[5.4545456E-1,2.68E0,1.7166667E-1,1.05E-1,1.0005E4,7.05E-1,8.9825E4,3.35626E5,1.0613E4,-9.8138414E-2,2.7149963E0,6.3E-2,-1.7337768E0,8.137687E0,8.9098E4,2.0970256E0,2.29025E5,0E0,1.0583334E-1,3.423E3,-4.3272726E-2,-3E-3,3.302E3,3.6428E4,7.52E-1,-2.4104838E0,2.2260965E1,9.398148E-2,2.285408E1,1.0075152E2,-1E-3,6.449E4,-7.72E0,6.94E2,3.7E1,6.364E3,1.8333334E-1,3.303756E-2,9.8138414E-2,8.089E3,2.3275438E1,7.95879E2,2.358E2,7.6308875E2,4.7709663E1,-9.8138414E-2,7.3738934E2,2.4848152E1,1.1066E3,3.0151934E1,1.1156908E1,1.0915231E1,6.283889E0,-9.8138414E-2,-3.113036E-2,-9.8138414E-2,-4.9180448E-2,1.1630102E-2,-9.8138414E-2,9.8138414E-2,-5.6663174E-3,2.6876325E-2,-9.8138414E-2,-3.7516665E-3,-9.8138414E-2,9.8138414E-2,-9.8138414E-2,-9.8138414E-2,9.8138414E-2,-9.8138414E-2,-4.144726E-2,-1.9400079E-2,8.2515195E-2,-9.8138414E-2,8.913095E-2,9.8138414E-2,-9.8138414E-2,2.5836148E-3,-9.8138414E-2,-9.8138414E-2,2.3041133E-2,-1.1019753E-2,9.8138414E-2,9.8138414E-2,5.7583608E-2,-9.8138414E-2,4.399121E-2,9.8138414E-2,-5.0315443E-2,-6.245746E-2,9.666806E-2,9.8138414E-2,-7.787961E-2,-9.8138414E-2,5.6305297E-2,9.8138414E-2,-1.42759E-2],"split_indices":[50,29,35,36,22,32,0,25,21,0,58,33,5,10,27,56,28,13,36,0,0,36,21,22,31,6,44,33,46,51,34,27,33,0,17,17,35,0,0,18,44,40,16,40,51,0,40,41,48,43,10,12,8,0,0,0,0,0,0,0,0,0,0,0,0,0,0,0,0,0,0,0,0,0,0,0,0,0,0,0,0,0,0,0,0,0,0,0,0,0,0,0,0,0,0,0,0],"split_type":[0,0,0,0,0,0,0,0,0,0,0,0,0,0,0,0,0,0,0,0,0,0,0,0,0,0,0,0,0,0,0,0,0,0,0,0,0,0,0,0,0,0,0,0,0,0,0,0,0,0,0,0,0,0,0,0,0,0,0,0,0,0,0,0,0,0,0,0,0,0,0,0,0,0,0,0,0,0,0,0,0,0,0,0,0,0,0,0,0,0,0,0,0,0,0,0,0],"sum_hessian":[7.6655576E3,2.0627786E3,5.6027793E3,1.9479451E3,1.1483365E2,2.5239487E3,3.0788303E3,1.3725554E3,5.7538965E2,5.032432E0,1.09801216E2,2.0251779E3,4.987709E2,1.8357316E3,1.2430988E3,1.2729991E3,9.955624E1,1.1613993E2,4.592497E2,1.0503314E2,4.7680798E0,1.0716425E3,9.5353546E2,7.900537E1,4.1976553E2,9.1727484E2,9.184567E2,1.2282771E3,1.4821604E1,1.1349296E3,1.3806958E2,3.115115E1,6.840509E1,4.7447845E1,6.8692085E1,1.4804043E1,4.4444565E2,4.577362E0,1.0045578E2,3.41514E2,7.301284E2,1.957664E2,7.5776904E2,3.970267E1,3.9302704E1,4.907674E0,4.1485788E2,1.0687246E2,8.104024E2,7.420926E2,1.7636409E2,5.0962242E1,1.177315E3,9.000385E0,5.821218E0,1.0985394E3,3.639018E1,3.7629517E1,1.0044007E2,2.6562E1,4.589148E0,6.040997E0,6.236409E1,4.275248E0,4.31726E1,6.4054756E1,4.637328E0,3.3813682E0,1.1422675E1,2.0670732E2,2.3773833E2,2.1749538E2,1.2401863E2,6.9559973E2,3.452868E1,1.9037038E2,5.3960333E0,5.9598676E2,1.617823E2,1.456671E1,2.513596E1,5.488872E0,3.381383E1,3.4102948E2,7.382839E1,7.180776E1,3.506469E1,7.524273E2,5.7975075E1,6.3617377E2,1.05918816E2,1.6139172E2,1.497238E1,1.8278225E1,3.2684017E1,1.1338059E3,4.3508953E1],"tree_param":{"num_deleted":"0","num_feature":"60","num_nodes":"97","size_leaf_vector":"1"}},{"base_weights":[-6.2465607E-3,-8.887407E-1,2.6457494E-1,-1E0,-4.369613E-1,-2.1130133E-2,6.4058673E-1,-1E0,-7.364559E-1,6.1387026E-1,-6.4169544E-1,-2.3579462E-1,1E0,-8.415875E-2,7.825877E-1,-1E0,-2.8981987E-1,3.4233215E-1,-1E0,-3.387127E-1,9.8138414E-2,7.520733E-1,-8.1322044E-1,-6.9929105E-1,1.07829966E-1,-1E0,1E0,3.6120027E-1,-9.0522105E-1,5.0282973E-1,1E0,-9.8138414E-2,-6.300274E-2,3.3069238E-2,-7.8904614E-2,-6.91968E-1,1E0,9.8138414E-2,-1E0,-6.7775595E-1,9.8138414E-2,-9.8138414E-2,9.6317285E-1,-1E0,-4.1343448E-1,6.8657376E-2,-1E0,2.6436433E-1,-1E0,-3.0261404E-3,-9.8138414E-2,-4.9101386E-2,1E0,-1E0,7.238413E-1,6.9369876E-1,-1E0,8.669115E-1,1.2101709E-1,-3.6064512E-1,1E0,-2.4223886E-2,-9.8138414E-2,4.720071E-2,9.8138414E-2,-9.8138414E-2,-1.845289E-2,-8.75178E-2,9.8138414E-2,9.8138414E-2,-3.8504824E-2,1.1701423E-2,-9.8138414E-2,-1.08294515E-2,-9.8138414E-2,2.5326611E-2,-9.8138414E-2,5.4943882E-2,-9.8138414E-2,5.0056644E-2,-5.956117E-2,4.494057E-2,-9.8138414E-2,-9.8138414E-2,8.564909E-2,9.8138414E-2,-8.834027E-2,-9.8138414E-2,8.747013E-2,8.485747E-2,-9.8138414E-2,9.8138414E-2,-9.8138414E-2,-9.8138414E-2,1.1802131E-2,5.5376068E-2,9.8138414E-2,-5.1205188E-2,8.5756026E-2,9.8138414E-2,-9.8138414E-2,-9.8138414E-2,9.8138414E-2],"categories":[],"categories_nodes":[],"categories_segments":[],"categories_sizes":[],"default_left":[0,0,0,0,0,0,1,0,0,0,0,0,0,0,0,0,0,0,0,0,0,0,0,0,0,0,0,0,0,0,0,0,0,0,0,0,0,0,0,0,0,0,0,0,0,0,0,0,0,0,0,0,0,0,0,0,0,0,0,0,0,0,0,0,0,0,0,0,0,0,0,0,0,0,0,0,0,0,0,0,0,0,0,0,0,0,0,0,0,0,0,0,0,0,0,0,0,0,0,0,0,0,0],"id":11,"left_children":[1,3,5,7,9,11,13,15,17,19,21,23,25,27,29,31,33,35,37,39,-1,41,43,45,47,49,51,53,55,57,59,-1,-1,-1,-1,61,63,-1,65,67,-1,-1,69,71,73,75,77,79,81,-1,-1,83,85,87,89,91,93,95,97,99,101,-1,-1,-1,-1,-1,-1,-1,-1,-1,-1,-1,-1,-1,-1,-1,-1,-1,-1,-1,-1,-1,-1,-1,-1,-1,-1,-1,-1,-1,-1,-1,-1,-1,-1,-1,-1,-1,-1,-1,-1,-1,-1],"loss_changes":[1.7917848E3,2.1193848E2,6.162865E2,1.3210449E1,1.5917444E2,7.295834E2,2.549527E2,3.2261963E0,6.6970055E1,9.389094E1,1.4810582E2,4.307117E2,4.0619568E1,1.4889124E2,1.7279016E2,1.4416504E-1,2.841678E0,5.234576E1,2.925595E1,3.982788E1,0E0,3.0076767E1,6.208322E1,2.751646E2,3.1266354E2,2.1532478E0,3.648462E1,1.4079297E2,9.086332E1,1.5227722E2,6.27666E1,0E0,0E0,0E0,0E0,6.043618E0,6.510658E-1,0E0,6.409622E0,2.0854221E1,0E0,0E0,1.0696594E1,4.3043213E1,5.8427925E1,8.33405E1,1.2462799E2,2.9714355E2,1.5554565E1,0E0,0E0,3.0615795E1,1.9559021E1,1.9959778E1,6.51561E1,3.56428E1,8.821625E0,5.1803314E1,2.597179E2,5.8079044E1,4.4941162E1,0E0,0E0,0E0,0E0,0E0,0E0,0E0,0E0,0E0,0E0,0E0,0E0,0E0,0E0,0E0,0E0,0E0,0E0,0E0,0E0,0E0,0E0,0E0,0E0,0E0,0E0,0E0,0E0,0E0,0E0,0E0,0E0,0E0,0E0,0E0,0E0,0E0,0E0,0E0,0E0,0E0,0E0],"parents":[2147483647,0,0,1,1,2,2,3,3,4,4,5,5,6,6,7,7,8,8,9,9,10,10,11,11,12,12,13,13,14,14,15,15,16,16,17,17,18,18,19,19,21,21,22,22,23,23,24,24,25,25,26,26,27,27,28,28,29,29,30,30,35,35,36,36,38,38,39,39,42,42,43,43,44,44,45,45,46,46,47,47,48,48,51,51,52,52,53,53,54,54,55,55,56,56,57,57,58,58,59,59,60,60],"right_children":[2,4,6,8,10,12,14,16,18,20,22,24,26,28,30,32,34,36,38,40,-1,42,44,46,48,50,52,54,56,58,60,-1,-1,-1,-1,62,64,-1,66,68,-1,-1,70,72,74,76,78,80,82,-1,-1,84,86,88,90,92,94,96,98,100,102,-1,-1,-1,-1,-1,-1,-1,-1,-1,-1,-1,-1,-1,-1,-1,-1,-1,-1,-1,-1,-1,-1,-1,-1,-1,-1,-1,-1,-1,-1,-1,-1,-1,-1,-1,-1,-1,-1,-1,-1,-1,-1],"split_conditions":[9.1824665E0,1.4048767E0,2.0083334E-1,0E0,5.214E3,7.05E-1,2.1725E4,1.042E4,1.0613E4,5.666667E-2,0E0,6.3E-2,7.48E-1,9.272773E0,2.1354573E0,3.21927E5,1.8E-2,1.5166667E-1,1.042E4,1.3443E5,9.8138414E-2,6.666E3,1.6833334E-1,-3E-3,6.747315E0,2.3854E2,3.5329816E0,4.569404E0,-4.9897847E0,8.943607E0,1.0638166E1,-9.8138414E-2,-6.300274E-2,3.3069238E-2,-7.8904614E-2,1.2267745E1,1.2527777E-1,9.8138414E-2,5.282E4,5.026667E2,9.8138414E-2,-9.8138414E-2,2.7416077E0,-7.72E0,6.6E1,2.138513E1,1.7004864E1,1.855E2,3.302E3,-3.0261404E-3,-9.8138414E-2,2.6722E4,1.7219286E1,7.1844E4,2.6203308E0,5.7563328E1,1.262678E6,1.0596666E1,2.4082212E1,5.96E2,4.709E1,-2.4223886E-2,-9.8138414E-2,4.720071E-2,9.8138414E-2,-9.8138414E-2,-1.845289E-2,-8.75178E-2,9.8138414E-2,9.8138414E-2,-3.8504824E-2,1.1701423E-2,-9.8138414E-2,-1.08294515E-2,-9.8138414E-2,2.5326611E-2,-9.8138414E-2,5.4943882E-2,-9.8138414E-2,5.0056644E-2,-5.956117E-2,4.494057E-2,-9.8138414E-2,-9.8138414E-2,8.564909E-2,9.8138414E-2,-8.834027E-2,-9.8138414E-2,8.747013E-2,8.485747E-2,-9.8138414E-2,9.8138414E-2,-9.8138414E-2,-9.8138414E-2,1.1802131E-2,5.5376068E-2,9.8138414E-2,-5.1205188E-2,8.5756026E-2,9.8138414E-2,-9.8138414E-2,-9.8138414E-2,9.8138414E-2],"split_indices":[7,58,35,13,25,32,0,19,21,33,13,33,31,10,56,20,29,33,19,28,0,27,35,36,8,52,47,47,5,10,7,0,0,0,0,46,36,0,0,54,0,0,58,33,53,45,39,14,21,0,0,27,7,22,58,51,19,12,46,23,53,0,0,0,0,0,0,0,0,0,0,0,0,0,0,0,0,0,0,0,0,0,0,0,0,0,0,0,0,0,0,0,0,0,0,0,0,0,0,0,0,0,0],"split_type":[0,0,0,0,0,0,0,0,0,0,0,0,0,0,0,0,0,0,0,0,0,0,0,0,0,0,0,0,0,0,0,0,0,0,0,0,0,0,0,0,0,0,0,0,0,0,0,0,0,0,0,0,0,0,0,0,0,0,0,0,0,0,0,0,0,0,0,0,0,0,0,0,0,0,0,0,0,0,0,0,0,0,0,0,0,0,0,0,0,0,0,0,0,0,0,0,0,0,0,0,0,0,0],"sum_hessian":[7.494283E3,1.7600045E3,5.734279E3,1.0214436E3,7.385609E2,3.2580835E3,2.4761953E3,8.262353E2,1.952083E2,1.2024931E2,6.183116E2,2.7021658E3,5.559178E2,4.0541766E2,2.0707776E3,8.187461E2,7.4891915E0,4.4379063E1,1.5082924E2,6.2033752E1,5.8215557E1,6.760916E1,5.5070245E2,1.1507052E3,1.5514607E3,8.705216E0,5.472126E2,2.626657E2,1.4275195E2,1.096285E3,9.744926E2,8.1457214E2,4.1739597E0,3.175505E0,4.3136864E0,2.4643661E1,1.9735403E1,5.1517005E0,1.4567754E2,5.361696E1,8.416796E0,5.9348226E0,6.167434E1,3.1335196E2,2.3735048E2,3.3165E2,8.190552E2,1.3866388E3,1.6482181E2,3.0047889E0,5.700428E0,3.2922115E1,5.1429047E2,5.153758E1,2.1112813E2,3.190991E1,1.1084205E2,5.6086725E2,5.354177E2,3.3691307E1,9.408013E2,1.5411281E1,9.232381E0,4.1393776E0,1.55960245E1,1.3504935E2,1.0628198E1,4.8014473E1,5.6024833E0,5.6336235E1,5.338102E0,3.4135647E1,2.792163E2,1.7729167E2,6.0058796E1,2.9191364E2,3.973637E1,5.102207E1,7.680331E2,1.0818273E3,3.0481152E2,7.112614E0,1.5770918E2,1.6068108E1,1.685401E1,5.0905E2,5.2404776E0,4.613467E1,5.402907E0,1.992095E2,1.1918631E1,2.6457153E1,5.452758E0,1.0403786E2,6.8041964E0,3.2693207E2,2.3393521E2,2.8865176E2,2.4676593E2,1.4004621E1,1.9686687E1,8.699736E0,9.3210156E2],"tree_param":{"num_deleted":"0","num_feature":"60","num_nodes":"103","size_leaf_vector":"1"}},{"base_weights":[-1.4735803E-2,-7.8866506E-1,2.623745E-1,-8.9605016E-1,8.675822E-1,3.5389487E-2,6.7174697E-1,-1E0,-4.6946743E-1,-1E0,1E0,-4.018197E-1,2.593199E-1,1E0,4.2247474E-1,-1E0,-6.2163246E-1,3.4046248E-1,-6.7206264E-1,-9.8138414E-2,-5.7772305E-2,-9.8138414E-2,1E0,-6.9336504E-1,1.6586712E-1,9.2162645E-1,-5.6992088E-2,3.4570473E-1,1E0,7.247511E-1,-2.9268152E-1,-1E0,-4.7675493E-1,2.045059E-1,-9.9389166E-1,-1E0,1E0,-1E0,-3.6388078E-1,1E0,-0E0,-8.189928E-1,6.0673785E-1,-3.5890833E-1,6.948211E-1,-3.512256E-1,1E0,5.851984E-1,-5.673352E-1,-7.2235584E-1,7.1458864E-1,-9.1556445E-2,1E0,-2.718753E-1,9.149562E-1,-7.079819E-1,2.4981256E-1,-9.8138414E-2,9.8138414E-2,9.8138414E-2,-9.8138414E-2,7.703398E-2,-9.8138414E-2,-9.8138414E-2,9.801911E-2,-5.7901755E-2,-9.8138414E-2,9.8138414E-2,-9.8138414E-2,-9.8138414E-2,5.002539E-3,-4.3555778E-2,9.8138414E-2,-1.7611483E-2,9.8138414E-2,-9.8138414E-2,9.8138414E-2,-9.8138414E-2,-8.415263E-3,-9.852023E-3,9.8138414E-2,9.8138414E-2,-6.710789E-2,8.548169E-2,-9.8138414E-2,9.8102644E-2,-9.8138414E-2,-9.8138414E-2,9.8138414E-2,-4.69768E-4,9.8138414E-2,-7.633946E-2,5.0854348E-2,-9.8138414E-2,7.398032E-2,-9.8138414E-2,9.032653E-2,-5.9786115E-2,9.8138414E-2,-9.8138414E-2,1.6322322E-2,-3.9660427E-4,9.8138414E-2,-8.5251115E-2,9.8138414E-2,8.442738E-2,-3.199878E-2],"categories":[],"categories_nodes":[],"categories_segments":[],"categories_sizes":[],"default_left":[0,0,0,0,0,0,0,0,0,0,0,0,0,0,0,0,0,0,0,0,0,0,0,0,0,0,0,0,0,0,0,0,0,0,0,0,0,0,0,0,0,0,0,0,0,0,0,0,0,0,0,0,0,0,0,0,0,0,0,0,0,0,0,0,0,0,0,0,0,0,0,0,0,0,0,0,0,0,0,0,0,0,0,0,0,0,0,0,0,0,0,0,0,0,0,0,0,0,0,0,0,0,0,0,0,0,0],"id":12,"left_children":[1,3,5,7,9,11,13,15,17,19,21,23,25,27,29,31,33,35,37,-1,-1,-1,39,41,43,45,47,49,51,53,55,57,59,61,63,65,67,69,71,73,75,77,79,81,83,85,87,89,91,93,95,-1,97,99,101,103,105,-1,-1,-1,-1,-1,-1,-1,-1,-1,-1,-1,-1,-1,-1,-1,-1,-1,-1,-1,-1,-1,-1,-1,-1,-1,-1,-1,-1,-1,-1,-1,-1,-1,-1,-1,-1,-1,-1,-1,-1,-1,-1,-1,-1,-1,-1,-1,-1,-1,-1],"loss_changes":[1.5656526E3,3.4251025E2,4.9927853E2,1.6839966E2,3.2719963E1,3.387048E2,2.0201099E2,1.6229736E1,1.1000581E2,1.643362E-1,1.5476318E1,1.939739E2,4.794721E2,2.9045471E1,2.65201E2,1.4026123E1,3.6024307E1,1.7573924E2,6.773006E1,0E0,0E0,0E0,6.933159E0,1.26583496E2,1.1062102E2,1.8551843E2,5.0755823E2,2.76313E1,1.3125977E1,1.6352911E2,8.2321236E1,2.6489258E1,7.242721E1,3.3247967E1,2.7890442E1,2.1070099E-1,3.4346138E1,1.9685028E1,3.909321E1,4.6197815E0,9.215665E0,9.584424E1,2.7018473E1,1.0635076E2,6.91182E1,1.3012473E2,5.5871338E1,1.93962E2,1.9733704E2,1.5015819E1,2.3249313E1,0E0,8.73645E0,6.570431E1,9.148456E1,6.410925E1,5.5875046E1,0E0,0E0,0E0,0E0,0E0,0E0,0E0,0E0,0E0,0E0,0E0,0E0,0E0,0E0,0E0,0E0,0E0,0E0,0E0,0E0,0E0,0E0,0E0,0E0,0E0,0E0,0E0,0E0,0E0,0E0,0E0,0E0,0E0,0E0,0E0,0E0,0E0,0E0,0E0,0E0,0E0,0E0,0E0,0E0,0E0,0E0,0E0,0E0,0E0,0E0],"parents":[2147483647,0,0,1,1,2,2,3,3,4,4,5,5,6,6,7,7,8,8,9,9,10,10,11,11,12,12,13,13,14,14,15,15,16,16,17,17,18,18,22,22,23,23,24,24,25,25,26,26,27,27,28,28,29,29,30,30,31,31,32,32,33,33,34,34,35,35,36,36,37,37,38,38,39,39,40,40,41,41,42,42,43,43,44,44,45,45,46,46,47,47,48,48,49,49,50,50,52,52,53,53,54,54,55,55,56,56],"right_children":[2,4,6,8,10,12,14,16,18,20,22,24,26,28,30,32,34,36,38,-1,-1,-1,40,42,44,46,48,50,52,54,56,58,60,62,64,66,68,70,72,74,76,78,80,82,84,86,88,90,92,94,96,-1,98,100,102,104,106,-1,-1,-1,-1,-1,-1,-1,-1,-1,-1,-1,-1,-1,-1,-1,-1,-1,-1,-1,-1,-1,-1,-1,-1,-1,-1,-1,-1,-1,-1,-1,-1,-1,-1,-1,-1,-1,-1,-1,-1,-1,-1,-1,-1,-1,-1,-1,-1,-1,-1],"split_conditions":[5.4545456E-1,1.15E0,3.9251E4,7.666667E-2,9.713E3,9.913011E0,1.21578E5,2.1287537E0,1.183E3,-3.22E0,1.8525391E0,1.85E-1,8.248316E0,3.3443332E0,1.2833603E1,3.35626E5,-1E-3,0E0,1.51E-1,-9.8138414E-2,-5.7772305E-2,-9.8138414E-2,2.702301E0,7.88E-1,3.8333E4,-6.319355E-1,1.157E2,2.2643E4,6.6821184E0,7.962963E-2,1.6916667E-1,6.3598E4,2.29025E5,5.012E2,1.8333334E-1,6.94E2,2.2337E4,2.7271729E0,8.4339996E2,1.6241455E0,-2.92E0,2.39E-1,3.9735E4,3.302E3,6.742857E0,5.0832233E0,2.1231623E1,1.4173888E1,2.9195162E1,3.2780354E0,2.4377098E1,-9.1556445E-2,4.3513363E1,1.1265806E1,1.2718E4,7.28E-1,-9.317267E-1,-9.8138414E-2,9.8138414E-2,9.8138414E-2,-9.8138414E-2,7.703398E-2,-9.8138414E-2,-9.8138414E-2,9.801911E-2,-5.7901755E-2,-9.8138414E-2,9.8138414E-2,-9.8138414E-2,-9.8138414E-2,5.002539E-3,-4.3555778E-2,9.8138414E-2,-1.7611483E-2,9.8138414E-2,-9.8138414E-2,9.8138414E-2,-9.8138414E-2,-8.415263E-3,-9.852023E-3,9.8138414E-2,9.8138414E-2,-6.710789E-2,8.548169E-2,-9.8138414E-2,9.8102644E-2,-9.8138414E-2,-9.8138414E-2,9.8138414E-2,-4.69768E-4,9.8138414E-2,-7.633946E-2,5.0854348E-2,-9.8138414E-2,7.398032E-2,-9.8138414E-2,9.032653E-2,-5.9786115E-2,9.8138414E-2,-9.8138414E-2,1.6322322E-2,-3.9660427E-4,9.8138414E-2,-8.5251115E-2,9.8138414E-2,8.442738E-2,-3.199878E-2],"split_indices":[50,32,26,33,22,12,28,56,22,33,57,33,10,8,45,25,34,14,35,0,0,0,57,31,0,6,14,0,45,33,33,26,28,48,35,0,23,56,40,56,36,34,0,21,1,38,39,7,43,57,43,0,51,7,18,29,5,0,0,0,0,0,0,0,0,0,0,0,0,0,0,0,0,0,0,0,0,0,0,0,0,0,0,0,0,0,0,0,0,0,0,0,0,0,0,0,0,0,0,0,0,0,0,0,0,0,0],"split_type":[0,0,0,0,0,0,0,0,0,0,0,0,0,0,0,0,0,0,0,0,0,0,0,0,0,0,0,0,0,0,0,0,0,0,0,0,0,0,0,0,0,0,0,0,0,0,0,0,0,0,0,0,0,0,0,0,0,0,0,0,0,0,0,0,0,0,0,0,0,0,0,0,0,0,0,0,0,0,0,0,0,0,0,0,0,0,0,0,0,0,0,0,0,0,0,0,0,0,0,0,0,0,0,0,0,0,0],"sum_hessian":[7.29757E3,1.9242467E3,5.373323E3,1.807211E3,1.17035576E2,3.4570479E3,1.9162751E3,1.1381191E3,6.690919E2,7.49202E0,1.0954356E2,1.1705704E3,2.2864775E3,6.9074927E2,1.2255259E3,1.0219596E3,1.1615956E2,1.3365308E2,5.3543884E2,4.067491E0,3.4245288E0,3.1696856E0,1.0637387E2,7.736502E2,3.9692026E2,7.392747E2,1.5472028E3,6.9074814E1,6.2167444E2,8.616494E2,3.638765E2,9.690268E2,5.2932842E1,3.5892727E1,8.026684E1,4.6341736E1,8.731133E1,2.2503027E2,3.1040857E2,9.9591576E1,6.7822948E0,7.0564E2,6.801019E1,1.99031E2,1.9788924E2,1.03854164E2,6.3542053E2,6.8490546E2,8.622973E2,1.757401E1,5.15008E1,3.3384821E0,6.1833594E2,1.3789859E2,7.2375085E2,2.0633711E2,1.5753937E2,9.64928E2,4.0987577E0,1.55740185E1,3.7358826E1,2.671159E1,9.181137E0,7.345689E1,6.8099484E0,3.7188325E0,4.2622902E1,8.1996574E1,5.3147573E0,2.0743567E2,1.7594608E1,2.9576318E2,1.4645387E1,3.098474E0,9.64931E1,3.5714488E0,3.2108462E0,5.626917E2,1.429483E2,3.0552362E1,3.745783E1,3.1910664E1,1.6712035E2,1.8213669E2,1.5752553E1,4.319365E1,6.066052E1,7.686826E0,6.2773376E2,3.0833493E2,3.7657056E2,7.2239655E2,1.3990077E2,1.2499195E1,5.0748153E0,4.124383E0,4.737642E1,3.1786969E0,6.151572E2,3.6441246E1,1.01457344E2,9.565669E1,6.280941E2,1.907587E2,1.5578422E1,7.6663895E1,8.087547E1],"tree_param":{"num_deleted":"0","num_feature":"60","num_nodes":"107","size_leaf_vector":"1"}},{"base_weights":[-1.0238018E-2,-7.740704E-1,2.5272712E-1,-8.6982995E-1,9.3600345E-1,1.0529799E-2,6.1300087E-1,-1E0,-4.8937768E-1,-9.8138414E-2,1E0,3.6530688E-1,-2.418399E-1,9.943204E-1,4.0989843E-1,-1E0,-9.3329445E-2,3.976801E-1,-6.4829385E-1,1E0,-1.2572256E-1,-2.78894E-1,9.5743644E-1,-5.0572485E-1,4.2664528E-1,1.2319356E-1,1E0,6.91793E-1,-3.0844226E-1,-1E0,-4.01659E-2,1E0,-1E0,9.148705E-1,-1E0,4.3259597E-1,-7.5838786E-1,-2.7762376E-2,9.8138414E-2,-9.8138414E-2,9.8138414E-2,-5.1844925E-1,9.627558E-1,1E0,-5.899292E-1,-1E0,-3.2024598E-1,7.780537E-1,-7.151408E-1,-1E0,4.7552007E-1,-6.604003E-2,1E0,8.097628E-1,-7.2440696E-1,1.2652923E-1,-7.804858E-1,-9.8138414E-2,-3.3795066E-2,-9.8138414E-2,9.8138414E-2,9.8138414E-2,-5.230526E-3,-9.8138414E-2,-0E0,-4.3594465E-2,9.8138414E-2,-4.0130373E-2,-9.8138414E-2,-9.8138414E-2,7.765072E-2,-9.8138414E-2,-3.6339458E-2,-1.4037453E-2,-9.8138414E-2,9.8138414E-2,-9.8138414E-2,-9.8138414E-2,9.8138414E-2,-9.8138414E-2,9.8138414E-2,-9.8138414E-2,6.403528E-2,2.4983404E-2,-6.790734E-2,8.810424E-2,-9.3676746E-2,9.8138414E-2,-9.77743E-2,5.213154E-2,-9.8138414E-2,-9.8138414E-2,7.005851E-2,6.699795E-2,-9.8138414E-2,-9.8138414E-2,9.8138414E-2,-3.5070434E-2,9.0024516E-2,-9.31527E-2,9.14461E-2,-3.010038E-2,8.762693E-2,5.95192E-2,-9.5144115E-2],"categories":[],"categories_nodes":[],"categories_segments":[],"categories_sizes":[],"default_left":[0,0,0,0,0,0,0,0,0,0,0,0,0,0,0,0,0,0,0,0,0,0,0,0,0,0,0,0,0,0,0,0,0,0,0,0,0,0,0,0,0,0,0,0,0,0,0,0,0,0,0,0,0,0,0,0,0,0,0,0,0,0,0,0,0,0,0,0,0,0,0,0,0,0,0,0,0,0,0,0,0,0,0,0,0,0,0,0,0,0,0,0,0,0,0,0,0,0,0,0,0,0,0,0,0],"id":13,"left_children":[1,3,5,7,9,11,13,15,17,-1,19,21,23,25,27,29,31,33,35,37,39,41,43,45,47,49,51,53,55,57,59,61,63,65,67,69,71,-1,-1,-1,-1,73,75,77,79,81,83,85,87,89,91,93,95,97,99,101,103,-1,-1,-1,-1,-1,-1,-1,-1,-1,-1,-1,-1,-1,-1,-1,-1,-1,-1,-1,-1,-1,-1,-1,-1,-1,-1,-1,-1,-1,-1,-1,-1,-1,-1,-1,-1,-1,-1,-1,-1,-1,-1,-1,-1,-1,-1,-1,-1],"loss_changes":[1.4176041E3,2.961786E2,4.5787714E2,1.4110791E2,2.7315926E1,2.813047E2,1.6325714E2,5.58562E1,9.236751E1,0E0,8.469345E0,4.982409E2,3.2372525E2,5.8672302E1,2.7902502E2,2.3397705E1,1.05096016E2,8.0580986E1,6.618356E1,5.822258E0,1.1859743E1,1.8622841E2,1.0409192E2,1.5118857E2,2.0852428E2,3.3590797E1,3.3898743E1,1.6545706E2,7.9965256E1,3.1829834E0,3.4858006E1,3.9746895E0,4.7789764E0,2.989864E1,1.3511543E0,2.8321148E1,7.554422E1,0E0,0E0,0E0,0E0,1.04789505E2,5.9557518E1,4.1607727E1,3.5405815E1,3.6324432E1,2.1885808E2,8.258957E1,7.07383E1,8.510397E0,2.8077734E1,3.4536896E1,1.3737305E1,1.14766846E2,2.8620258E1,6.751071E1,4.9077873E1,0E0,0E0,0E0,0E0,0E0,0E0,0E0,0E0,0E0,0E0,0E0,0E0,0E0,0E0,0E0,0E0,0E0,0E0,0E0,0E0,0E0,0E0,0E0,0E0,0E0,0E0,0E0,0E0,0E0,0E0,0E0,0E0,0E0,0E0,0E0,0E0,0E0,0E0,0E0,0E0,0E0,0E0,0E0,0E0,0E0,0E0,0E0,0E0],"parents":[2147483647,0,0,1,1,2,2,3,3,4,4,5,5,6,6,7,7,8,8,10,10,11,11,12,12,13,13,14,14,15,15,16,16,17,17,18,18,19,19,20,20,21,21,22,22,23,23,24,24,25,25,26,26,27,27,28,28,29,29,30,30,31,31,32,32,33,33,34,34,35,35,36,36,41,41,42,42,43,43,44,44,45,45,46,46,47,47,48,48,49,49,50,50,51,51,52,52,53,53,54,54,55,55,56,56],"right_children":[2,4,6,8,10,12,14,16,18,-1,20,22,24,26,28,30,32,34,36,38,40,42,44,46,48,50,52,54,56,58,60,62,64,66,68,70,72,-1,-1,-1,-1,74,76,78,80,82,84,86,88,90,92,94,96,98,100,102,104,-1,-1,-1,-1,-1,-1,-1,-1,-1,-1,-1,-1,-1,-1,-1,-1,-1,-1,-1,-1,-1,-1,-1,-1,-1,-1,-1,-1,-1,-1,-1,-1,-1,-1,-1,-1,-1,-1,-1,-1,-1,-1,-1,-1,-1,-1,-1,-1],"split_conditions":[5.4545456E-1,2.68E0,3.5397E4,1.9501749E0,9.386E3,8.137687E0,1.21578E5,3.0575161E1,1.183E3,-9.8138414E-2,3.96E0,4.8972034E0,1.4173888E1,3.3638332E0,1.2833603E1,5.2528E4,3.302E3,3.8454446E2,-1E-3,1.6171468E0,3.3196E4,1.2299889E1,1.7131818E2,1.0720181E1,6.389667E2,2.2643E4,3.8813E4,1.9525E2,2.9108386E0,3.06E-1,1.4399008E0,2.420886E1,5.48E-1,4.5E-2,2.467041E0,1.541E3,1.3E-1,-2.7762376E-2,9.8138414E-2,-9.8138414E-2,9.8138414E-2,6.5013747E0,1.4805E2,6.894479E0,6.75E-1,6.63E-1,2.4895805E1,6.55E-1,-7.4329033E0,9.801556E0,2.4234097E1,1.1094821E1,4.3513363E1,1.0801128E1,1.2083225E1,2.6555556E-1,7.9058013E0,-9.8138414E-2,-3.3795066E-2,-9.8138414E-2,9.8138414E-2,9.8138414E-2,-5.230526E-3,-9.8138414E-2,-0E0,-4.3594465E-2,9.8138414E-2,-4.0130373E-2,-9.8138414E-2,-9.8138414E-2,7.765072E-2,-9.8138414E-2,-3.6339458E-2,-1.4037453E-2,-9.8138414E-2,9.8138414E-2,-9.8138414E-2,-9.8138414E-2,9.8138414E-2,-9.8138414E-2,9.8138414E-2,-9.8138414E-2,6.403528E-2,2.4983404E-2,-6.790734E-2,8.810424E-2,-9.3676746E-2,9.8138414E-2,-9.77743E-2,5.213154E-2,-9.8138414E-2,-9.8138414E-2,7.005851E-2,6.699795E-2,-9.8138414E-2,-9.8138414E-2,9.8138414E-2,-3.5070434E-2,9.0024516E-2,-9.31527E-2,9.14461E-2,-3.010038E-2,8.762693E-2,5.95192E-2,-9.5144115E-2],"split_indices":[50,29,26,57,22,10,28,3,22,0,31,47,7,8,45,26,21,48,34,56,0,7,53,7,48,0,26,14,42,35,56,45,31,34,59,17,35,0,0,0,0,10,14,45,29,29,3,31,5,7,43,44,51,7,45,34,44,0,0,0,0,0,0,0,0,0,0,0,0,0,0,0,0,0,0,0,0,0,0,0,0,0,0,0,0,0,0,0,0,0,0,0,0,0,0,0,0,0,0,0,0,0,0,0,0],"split_type":[0,0,0,0,0,0,0,0,0,0,0,0,0,0,0,0,0,0,0,0,0,0,0,0,0,0,0,0,0,0,0,0,0,0,0,0,0,0,0,0,0,0,0,0,0,0,0,0,0,0,0,0,0,0,0,0,0,0,0,0,0,0,0,0,0,0,0,0,0,0,0,0,0,0,0,0,0,0,0,0,0,0,0,0,0,0,0,0,0,0,0,0,0,0,0,0,0,0,0,0,0,0,0,0,0],"sum_hessian":[7.0547427E3,1.806957E3,5.2477856E3,1.711264E3,9.569305E1,3.1385193E3,2.109266E3,1.0574381E3,6.538259E2,4.5900187E0,9.110303E1,1.3049479E3,1.8335715E3,7.3263745E2,1.3766287E3,9.887113E2,6.872676E1,9.91189E1,5.5470703E2,8.464465E1,6.458372E0,6.248091E2,6.8013873E2,1.3148674E3,5.187041E2,7.71591E1,6.5547833E2,9.888835E2,3.8774524E2,9.625928E2,2.6118555E1,2.9604176E1,3.9122585E1,7.474393E1,2.437497E1,5.1085686E1,5.0362134E2,3.320994E0,8.132366E1,3.3273447E0,3.1310275E0,5.239125E2,1.00896614E2,6.386815E2,4.1457214E1,2.9202386E2,1.02284357E3,3.9678476E2,1.21919334E2,1.7081041E1,6.007806E1,2.960209E1,6.258763E2,9.129919E2,7.589161E1,2.0154564E2,1.861996E2,9.53964E2,8.628755E0,1.3955752E1,1.2162802E1,2.6248678E1,3.355497E0,3.4024097E1,5.0984883E0,1.4360344E1,6.0383583E1,5.289529E0,1.9085442E1,9.602168E0,4.1483517E1,2.3808968E2,2.6553168E2,3.0851547E2,2.1539699E2,9.073289E1,1.0163727E1,8.942695E0,6.2973883E2,3.3304577E1,8.152636E0,2.789141E2,1.3109775E1,4.0143796E2,6.2140564E2,3.7126617E2,2.5518608E1,1.4163848E1,1.07755486E2,3.4295018E0,1.365154E1,5.9898095E0,5.408825E1,2.090159E1,8.700499E0,3.1431608E0,6.227331E2,7.686087E1,8.36131E2,6.694321E1,8.9484E0,1.2856668E2,7.297895E1,2.2186077E1,1.6401352E2],"tree_param":{"num_deleted":"0","num_feature":"60","num_nodes":"105","size_leaf_vector":"1"}},{"base_weights":[-1.39714945E-2,-7.4290806E-1,2.3534514E-1,-1E0,-2.232566E-1,-3.867985E-2,5.271224E-1,-1E0,-6.871677E-1,-4.290833E-1,9.525417E-1,-4.3847254E-1,2.643453E-1,6.9120884E-2,6.9167334E-1,-1E0,8.817495E-3,4.0215936E-1,-9.173879E-1,4.7809747E-1,-6.2253255E-1,-8.367522E-2,1E0,1.5808943E-1,-6.910194E-1,-3.1522945E-1,5.1036507E-1,-3.5064846E-1,5.511045E-1,9.9455225E-1,4.8795882E-1,-9.8138414E-2,-6.3201153E-1,1E0,-7.494933E-1,-9.771947E-1,1E0,-9.042766E-1,1E0,-1E0,-3.727115E-1,1E0,-1.7416127E-2,-5.27022E-1,1E0,2.1929155E-1,-8.3653426E-1,-5.9222203E-1,6.902494E-1,8.006501E-1,-1.50166E-1,-1.0689577E-2,-9.182996E-1,6.800021E-1,-1E0,1.8321393E-1,1E0,-1.6073184E-1,8.6305916E-1,1.3978136E-2,-9.8138414E-2,9.8138414E-2,-9.8138414E-2,-9.8138414E-2,9.8138414E-2,-9.8138414E-2,-3.5639815E-2,9.8138414E-2,7.3208087E-3,-9.8138414E-2,-1.6988687E-2,9.8138414E-2,-9.8138414E-2,4.407976E-2,-9.8138414E-2,-7.295813E-2,1.0466094E-3,9.8138414E-2,4.5009848E-2,6.0075738E-2,-8.435412E-2,9.8138414E-2,-9.8138414E-2,-9.374603E-2,8.63715E-2,-9.591274E-2,1.0537322E-2,-2.9713186E-2,-9.8138414E-2,9.8138414E-2,-9.8138414E-2,9.8138414E-2,3.871844E-2,9.7795695E-2,-3.8693108E-2,-3.3611786E-2,7.8854375E-2,-9.8138414E-2,2.9064413E-2,7.330069E-2,-9.8138414E-2,-1.51542155E-2,-9.8138414E-2,6.749468E-2,-7.984619E-2,9.8138414E-2,-5.1448774E-2,1.0641756E-2,-9.8138414E-2,9.142164E-2,-9.8138414E-2],"categories":[],"categories_nodes":[],"categories_segments":[],"categories_sizes":[],"default_left":[0,0,0,0,0,0,0,0,0,0,0,0,0,0,0,0,0,0,0,0,0,0,0,0,0,0,0,0,0,0,0,0,0,0,0,0,0,0,0,0,0,0,0,0,0,0,0,0,0,0,0,0,0,0,0,0,0,0,0,0,0,0,0,0,0,0,0,0,0,0,0,0,0,0,0,0,0,0,0,0,0,0,0,0,0,0,0,0,0,0,0,0,0,0,0,0,0,0,0,0,0,0,0,0,0,0,0,0,0,0,0],"id":14,"left_children":[1,3,5,7,9,11,13,15,17,19,21,23,25,27,29,31,-1,33,35,37,39,-1,41,43,45,47,49,51,53,55,57,-1,59,61,63,65,67,69,71,73,75,77,-1,79,81,83,85,87,89,91,93,95,97,99,101,103,105,107,109,-1,-1,-1,-1,-1,-1,-1,-1,-1,-1,-1,-1,-1,-1,-1,-1,-1,-1,-1,-1,-1,-1,-1,-1,-1,-1,-1,-1,-1,-1,-1,-1,-1,-1,-1,-1,-1,-1,-1,-1,-1,-1,-1,-1,-1,-1,-1,-1,-1,-1,-1,-1],"loss_changes":[1.2532837E3,2.695365E2,4.1086365E2,3.9346924E1,1.5522137E2,3.2115988E2,1.8731226E2,5.035034E0,1.0202757E2,9.583941E1,1.4579788E1,1.722818E2,2.1499072E2,1.3352829E2,1.1277368E2,7.640381E-1,0E0,5.4085644E1,4.2760406E1,7.797622E1,5.877974E1,0E0,7.661438E0,2.0059879E2,1.06477936E2,1.2526666E2,2.0301443E2,6.778897E1,6.631733E1,4.9865234E1,2.66616E2,0E0,4.0148096E0,2.4987835E1,1.9648972E1,2.2372314E1,2.2297764E0,6.847992E0,2.7230942E1,6.7691956E0,4.4694683E1,1.440628E0,0E0,7.1868515E1,3.6352432E1,8.63651E1,9.211832E1,5.4749794E1,5.89458E1,7.490848E1,9.070316E1,5.985476E1,3.4754234E1,3.7381607E1,3.2828426E0,3.8587242E1,2.4191772E1,1.0377566E2,1.0444873E2,0E0,0E0,0E0,0E0,0E0,0E0,0E0,0E0,0E0,0E0,0E0,0E0,0E0,0E0,0E0,0E0,0E0,0E0,0E0,0E0,0E0,0E0,0E0,0E0,0E0,0E0,0E0,0E0,0E0,0E0,0E0,0E0,0E0,0E0,0E0,0E0,0E0,0E0,0E0,0E0,0E0,0E0,0E0,0E0,0E0,0E0,0E0,0E0,0E0,0E0,0E0,0E0],"parents":[2147483647,0,0,1,1,2,2,3,3,4,4,5,5,6,6,7,7,8,8,9,9,10,10,11,11,12,12,13,13,14,14,15,15,17,17,18,18,19,19,20,20,22,22,23,23,24,24,25,25,26,26,27,27,28,28,29,29,30,30,32,32,33,33,34,34,35,35,36,36,37,37,38,38,39,39,40,40,41,41,43,43,44,44,45,45,46,46,47,47,48,48,49,49,50,50,51,51,52,52,53,53,54,54,55,55,56,56,57,57,58,58],"right_children":[2,4,6,8,10,12,14,16,18,20,22,24,26,28,30,32,-1,34,36,38,40,-1,42,44,46,48,50,52,54,56,58,-1,60,62,64,66,68,70,72,74,76,78,-1,80,82,84,86,88,90,92,94,96,98,100,102,104,106,108,110,-1,-1,-1,-1,-1,-1,-1,-1,-1,-1,-1,-1,-1,-1,-1,-1,-1,-1,-1,-1,-1,-1,-1,-1,-1,-1,-1,-1,-1,-1,-1,-1,-1,-1,-1,-1,-1,-1,-1,-1,-1,-1,-1,-1,-1,-1,-1,-1,-1,-1,-1,-1],"split_conditions":[5.4545456E-1,1.6171468E0,2.8916E4,0E0,1.15E0,1.03E-1,3.9085E4,2.61E0,1.0613E4,3.302E3,8.077E3,7.055E3,4.780148E0,6.0168E4,1.31506E5,1.8093E5,8.817495E-3,6.94E2,3.4833333E-1,4.3E-2,1.329E3,-8.367522E-2,3.96E0,3.42E-1,-1.4305556E-2,1.5E0,1.6622391E0,1.3262713E1,2.0505E2,1.58608E0,1.5333334E-1,-9.8138414E-2,-7.72E0,7.393248E2,2.659E3,5.379E4,2.344E3,6.1543E4,1.9018E4,0E0,1.3E-1,-4.86E0,-1.7416127E-2,1.3566364E2,1.47625E2,1.9942E4,2.6585E4,1.1807697E1,1.915E2,1.7026913E1,-3.7405643E0,1.1201002E1,7.7143964E2,7.6491974E1,6.3375E0,1.4726461E0,7.7998333E0,1.7355455E2,1.5541317E1,1.3978136E-2,-9.8138414E-2,9.8138414E-2,-9.8138414E-2,-9.8138414E-2,9.8138414E-2,-9.8138414E-2,-3.5639815E-2,9.8138414E-2,7.3208087E-3,-9.8138414E-2,-1.6988687E-2,9.8138414E-2,-9.8138414E-2,4.407976E-2,-9.8138414E-2,-7.295813E-2,1.0466094E-3,9.8138414E-2,4.5009848E-2,6.0075738E-2,-8.435412E-2,9.8138414E-2,-9.8138414E-2,-9.374603E-2,8.63715E-2,-9.591274E-2,1.0537322E-2,-2.9713186E-2,-9.8138414E-2,9.8138414E-2,-9.8138414E-2,9.8138414E-2,3.871844E-2,9.7795695E-2,-3.8693108E-2,-3.3611786E-2,7.8854375E-2,-9.8138414E-2,2.9064413E-2,7.330069E-2,-9.8138414E-2,-1.51542155E-2,-9.8138414E-2,6.749468E-2,-7.984619E-2,9.8138414E-2,-5.1448774E-2,1.0641756E-2,-9.8138414E-2,9.142164E-2,-9.8138414E-2],"split_indices":[50,56,26,14,32,36,0,32,21,21,27,28,47,26,28,28,0,0,36,33,17,0,31,30,36,6,6,45,14,56,33,0,33,40,26,0,18,0,0,14,35,35,0,15,53,27,26,37,14,2,5,45,40,51,50,56,8,14,37,0,0,0,0,0,0,0,0,0,0,0,0,0,0,0,0,0,0,0,0,0,0,0,0,0,0,0,0,0,0,0,0,0,0,0,0,0,0,0,0,0,0,0,0,0,0,0,0,0,0,0,0],"split_type":[0,0,0,0,0,0,0,0,0,0,0,0,0,0,0,0,0,0,0,0,0,0,0,0,0,0,0,0,0,0,0,0,0,0,0,0,0,0,0,0,0,0,0,0,0,0,0,0,0,0,0,0,0,0,0,0,0,0,0,0,0,0,0,0,0,0,0,0,0,0,0,0,0,0,0,0,0,0,0,0,0,0,0,0,0,0,0,0,0,0,0,0,0,0,0,0,0,0,0,0,0,0,0,0,0,0,0,0,0,0,0],"sum_hessian":[6.893142E3,1.7570121E3,5.1361304E3,1.1171069E3,6.3990515E2,2.6482368E3,2.4878936E3,7.112666E2,4.0584036E2,5.4474054E2,9.516465E1,1.142131E3,1.5061057E3,6.579573E2,1.8299362E3,7.072536E2,4.0129447E0,7.063402E1,3.3520636E2,9.553794E1,4.4920258E2,4.121443E0,9.1043205E1,3.39431E2,8.0269995E2,4.4853027E2,1.0575754E3,3.514232E2,3.0653406E2,7.354159E2,1.0945203E3,6.9869196E2,8.561682E0,4.5034306E1,2.5599714E1,3.2621878E2,8.987569E0,2.840467E1,6.713327E1,1.365183E2,3.1268427E2,8.573969E1,5.3035116E0,1.887597E2,1.506713E2,1.1041314E2,6.922868E2,3.518327E2,9.669756E1,7.349362E2,3.2263928E2,2.2004329E2,1.313799E2,2.8482147E2,2.1712605E1,7.567082E1,6.5974506E2,4.00792E2,6.9372833E2,3.5476532E0,5.014028E0,4.109102E1,3.9432855E0,2.1709398E1,3.8903158E0,2.6939914E2,5.6819645E1,5.625783E0,3.361786E0,1.7220482E1,1.1184188E1,6.1470123E1,5.6631503E0,3.0174906E0,1.3350081E2,1.5927031E2,1.5341396E2,7.92059E1,6.5337944E0,4.249434E1,1.4626537E2,1.4476183E2,5.9094605E0,3.9629726E1,7.078342E1,6.0264197E2,8.964484E1,2.3351718E2,1.1831551E2,8.196575E1,1.47318125E1,4.4992877E2,2.8500745E2,5.6464832E1,2.6617447E2,1.5653207E2,6.351121E1,1.1042021E2,2.0959694E1,2.7571136E2,9.110104E0,5.448379E0,1.6264225E1,5.0393078E1,2.5277744E1,6.4953326E2,1.0211799E1,3.1354538E2,8.724661E1,6.73437E2,2.0291279E1],"tree_param":{"num_deleted":"0","num_feature":"60","num_nodes":"111","size_leaf_vector":"1"}},{"base_weights":[-1.5340169E-2,-6.848899E-1,2.2722688E-1,-1E0,-3.2467782E-1,3.048457E-1,-6.7228717E-1,-1E0,-5.789239E-1,6.349305E-1,-5.140869E-1,-3.247112E-2,5.328138E-1,-8.531076E-1,7.630359E-1,-1E0,2.6258731E-2,3.7293634E-1,-9.249599E-1,9.7889066E-1,-6.698185E-1,6.598979E-1,-6.177932E-1,-7.0691836E-1,3.7309194E-1,2.0449662E-1,7.674744E-1,-2.9838365E-1,-1E0,-9.8138414E-2,1E0,-9.8138414E-2,-3.7264496E-2,-6.866355E-1,1E0,-1E0,9.8138414E-2,1E0,-4.16767E-1,9.8138414E-2,-8.8292927E-1,9.6854657E-1,-5.093042E-1,-8.8054097E-1,-2.3388033E-1,9.028271E-3,-9.156867E-1,7.093241E-1,-2.5133643E-1,5.2541226E-1,-4.2372984E-1,5.766044E-1,1E0,-7.190458E-1,8.0988467E-1,7.153077E-2,-1E0,-0E0,9.8138414E-2,-9.8138414E-2,-0E0,9.8138414E-2,-9.543581E-2,-9.8138414E-2,8.757107E-2,-0E0,9.8138414E-2,-8.656917E-2,8.726632E-2,2.5288107E-2,-9.8138414E-2,1.8067198E-2,9.8138414E-2,6.0388427E-2,-9.8138414E-2,8.900886E-3,-9.8138414E-2,-5.616801E-4,-9.8138414E-2,-6.9531195E-2,5.339432E-2,-9.8138414E-2,-4.0694132E-2,7.585851E-2,-9.8138414E-2,-9.6902035E-2,2.4734965E-2,6.0887635E-2,-9.8138414E-2,-6.47374E-2,9.8138414E-2,-6.0725044E-2,7.009451E-2,-9.8138414E-2,9.8138414E-2,5.7772662E-2,-9.8138414E-2,-9.8138414E-2,9.8138414E-2,-9.8138414E-2,-1.4676452E-2],"categories":[],"categories_nodes":[],"categories_segments":[],"categories_sizes":[],"default_left":[0,0,0,0,0,0,0,0,0,0,0,0,0,0,0,0,0,0,0,0,0,0,0,0,0,0,0,0,0,0,0,0,0,0,0,0,0,0,0,0,0,0,0,0,0,0,0,0,0,0,0,0,0,0,0,0,0,0,0,0,0,0,0,0,0,0,0,0,0,0,0,0,0,0,0,0,0,0,0,0,0,0,0,0,0,0,0,0,0,0,0,0,0,0,0,0,0,0,0,0,0],"id":15,"left_children":[1,3,5,7,9,11,13,15,17,19,21,23,25,27,29,31,-1,33,35,37,39,41,43,45,47,49,51,53,55,-1,57,-1,-1,59,61,63,-1,65,67,-1,69,71,73,75,77,79,81,83,85,87,89,91,93,95,97,-1,99,-1,-1,-1,-1,-1,-1,-1,-1,-1,-1,-1,-1,-1,-1,-1,-1,-1,-1,-1,-1,-1,-1,-1,-1,-1,-1,-1,-1,-1,-1,-1,-1,-1,-1,-1,-1,-1,-1,-1,-1,-1,-1,-1,-1],"loss_changes":[1.079925E3,2.4717389E2,3.4081754E2,3.0009521E1,1.688646E2,3.4552408E2,1.0081285E2,8.498047E0,5.6848824E1,6.891812E1,9.455876E1,4.958562E2,2.0636261E2,3.543396E1,3.3640305E1,8.051758E-1,0E0,3.4461792E1,3.1122978E1,2.5700401E1,1.297242E1,2.2958572E1,7.166635E1,1.0181207E2,2.3766045E2,2.2564125E2,9.7678955E1,4.1484932E1,9.564789E0,0E0,3.5252151E0,0E0,0E0,4.212261E0,2.3369823E1,1.2812866E1,0E0,3.2213745E0,8.187305E0,0E0,7.6113663E0,1.4072353E1,1.3961419E1,6.1338074E1,6.0902863E1,5.9387486E1,5.8854797E1,8.814319E1,1.470914E2,1.15060135E2,1.3260126E2,1.6767307E2,4.6894287E1,3.6406544E1,1.6262165E1,0E0,4.127136E0,0E0,0E0,0E0,0E0,0E0,0E0,0E0,0E0,0E0,0E0,0E0,0E0,0E0,0E0,0E0,0E0,0E0,0E0,0E0,0E0,0E0,0E0,0E0,0E0,0E0,0E0,0E0,0E0,0E0,0E0,0E0,0E0,0E0,0E0,0E0,0E0,0E0,0E0,0E0,0E0,0E0,0E0,0E0,0E0],"parents":[2147483647,0,0,1,1,2,2,3,3,4,4,5,5,6,6,7,7,8,8,9,9,10,10,11,11,12,12,13,13,14,14,15,15,17,17,18,18,19,19,20,20,21,21,22,22,23,23,24,24,25,25,26,26,27,27,28,28,30,30,33,33,34,34,35,35,37,37,38,38,40,40,41,41,42,42,43,43,44,44,45,45,46,46,47,47,48,48,49,49,50,50,51,51,52,52,53,53,54,54,56,56],"right_children":[2,4,6,8,10,12,14,16,18,20,22,24,26,28,30,32,-1,34,36,38,40,42,44,46,48,50,52,54,56,-1,58,-1,-1,60,62,64,-1,66,68,-1,70,72,74,76,78,80,82,84,86,88,90,92,94,96,98,-1,100,-1,-1,-1,-1,-1,-1,-1,-1,-1,-1,-1,-1,-1,-1,-1,-1,-1,-1,-1,-1,-1,-1,-1,-1,-1,-1,-1,-1,-1,-1,-1,-1,-1,-1,-1,-1,-1,-1,-1,-1,-1,-1,-1,-1],"split_conditions":[9.911416E0,1.1930542E0,6.616989E0,0E0,5.214E3,9.833334E-2,2.68E0,1.9714E4,1.0677E4,1.2786263E1,0E0,4.73E-1,1.8362936E0,2.2926815E1,9.5944E4,3.21927E5,2.6258731E-2,5.861111E-2,5.8851E4,6.478E4,3.8226528E0,2.5821533E0,1.3333334E-1,-3E-3,5.670535E0,9.415309E0,1.4813851E1,2.4123535E0,6.6916366E0,-9.8138414E-2,1.8194987E0,-9.8138414E-2,-3.7264496E-2,2.2705556E2,1.292E2,6.9347E4,9.8138414E-2,0E0,8.727864E0,9.8138414E-2,4.715783E0,1.6076E2,2.953E4,-3.96E0,2.92075E2,1.05851E5,6.3E-2,1.834E2,1.1780176E1,2.2305904E1,3.210532E1,1.27E2,6.539839E0,3.966E4,1.392E2,7.153077E-2,1.324843E6,-0E0,9.8138414E-2,-9.8138414E-2,-0E0,9.8138414E-2,-9.543581E-2,-9.8138414E-2,8.757107E-2,-0E0,9.8138414E-2,-8.656917E-2,8.726632E-2,2.5288107E-2,-9.8138414E-2,1.8067198E-2,9.8138414E-2,6.0388427E-2,-9.8138414E-2,8.900886E-3,-9.8138414E-2,-5.616801E-4,-9.8138414E-2,-6.9531195E-2,5.339432E-2,-9.8138414E-2,-4.0694132E-2,7.585851E-2,-9.8138414E-2,-9.6902035E-2,2.4734965E-2,6.0887635E-2,-9.8138414E-2,-6.47374E-2,9.8138414E-2,-6.0725044E-2,7.009451E-2,-9.8138414E-2,9.8138414E-2,5.7772662E-2,-9.8138414E-2,-9.8138414E-2,9.8138414E-2,-9.8138414E-2,-1.4676452E-2],"split_indices":[7,58,8,15,25,33,29,19,28,2,15,32,56,4,20,20,0,36,22,0,38,58,36,36,38,10,7,56,1,0,56,0,0,54,15,0,0,15,44,0,10,24,0,33,54,25,33,49,7,46,43,54,1,19,54,0,25,0,0,0,0,0,0,0,0,0,0,0,0,0,0,0,0,0,0,0,0,0,0,0,0,0,0,0,0,0,0,0,0,0,0,0,0,0,0,0,0,0,0,0,0],"split_type":[0,0,0,0,0,0,0,0,0,0,0,0,0,0,0,0,0,0,0,0,0,0,0,0,0,0,0,0,0,0,0,0,0,0,0,0,0,0,0,0,0,0,0,0,0,0,0,0,0,0,0,0,0,0,0,0,0,0,0,0,0,0,0,0,0,0,0,0,0,0,0,0,0,0,0,0,0,0,0,0,0,0,0,0,0,0,0,0,0,0,0,0,0,0,0,0,0,0,0,0,0],"sum_hessian":[6.646211E3,1.7677335E3,4.878477E3,8.4018066E2,9.275529E2,4.491187E3,3.8729004E2,6.685616E2,1.7161905E2,1.527037E2,7.7484924E2,1.8108031E3,2.680384E3,3.4409943E2,4.3190613E1,6.634901E2,5.0715E0,4.5580418E1,1.2603863E2,1.2098418E2,3.1719526E1,6.271395E1,7.1213525E2,6.801996E2,1.1306035E3,1.1176434E3,1.5627407E3,8.797204E1,2.5612738E2,4.8809094E0,3.8309704E1,6.6007135E2,3.4187663E0,1.8073933E1,2.7506485E1,1.211807E2,4.857921E0,1.0836858E2,1.2615592E1,3.0991726E0,2.8620354E1,4.9770245E1,1.29437065E1,4.224321E2,2.897032E2,1.533191E2,5.268805E2,7.351281E2,3.9547534E2,7.399955E2,3.7764795E2,1.01769025E3,